var relu_list = [];
var bias_list = [];
var weights_list = [];

relu_list.push(1)

bias_list.push([[[-0.754788211033808],[-0.3886876863721338],[0.3671388144250376],[-1.098386808673502],[0.5459582679952236],[0.7044650952328473],[0.9038474498805619],[-1.2306947301043223],[0.5214132605452607],[0.9691226960379659],[0.005007140183843601],[-1.0246223402305885],[0.6126742275656244],[-0.45968035541193647],[1.4485474793296367],[0.03544060852162923],[1.5196730314491573],[-0.03935082078345436],[-0.22411786507286907],[0.7472989012979149],[-0.9050220680725211],[1.708391637005188],[-1.5506482256426266],[-0.3376631953305793],[-0.24112649533980257],[0.5140905729126966],[1.114461549671489],[0.03818195231503012],[0.6532820660910645],[-0.6887993868131741],[-1.8734551065560352],[-0.325635123425486],[-0.2774099199799109],[0.13086541803636093],[0.8537707491849457],[1.2655699589814118],[-0.12233783047329262],[-0.30425843485957654],[-1.151536353205166],[-0.4555598420952972],],[[-0.4447239389158828],[-0.16427595388314295],[-0.45624171727804913],[-0.20302550840041966],[-0.17373896824298948],[0.015190671717727805],[-0.5672056838161673],[0.13872489785564793],[-0.5280450228240513],[-0.2059674142465094],[-0.23677139191613625],[0.2222335337962849],[-0.3461328964786727],[-0.4908466155962563],[-0.2228155945240506],[-0.6086026989442657],[-0.2360319705193016],[-0.38938916060345646],[-0.383587880853207],[-0.2542067941340933],[-0.49455094277543926],[-0.6274243657167685],[-0.4957964261770767],[-0.23289825567727723],[-0.6573165356175203],[-0.43349196381162175],[-0.4767701680716883],[-0.004045239414954156],[-0.23114442167879437],[-0.5449253294518345],[-0.41248612279243624],[-0.5103609481293878],[0.2810045939419241],[-0.4998134065810571],[-0.572650446384353],[-0.564472095586921],[-0.4468994924162175],[-0.5505919809215483],[-0.7384685000411592],[-0.5034606724820604],[-0.17588395451044472],[-0.40448316809406926],[-0.2419601367645322],[-0.3318665208348271],[-0.018265955783744108],[-0.23042781362414042],[-0.8844735877811156],[-0.5779437814318651],]] );

weights_list.push( [[[0.29974541324552456,0.48004702991253745,0.3299260815724545,0.9378018896557544,0.4592582028494385,1.1422500219576734,0.030809565471965544,-0.08426718994118974,0.12243696128133345,-0.7290766728508834,-0.41240623982110935,0.3945482210978949,0.7884356952034663,0.17091927614894586,-0.021569077189680902,-0.06811087318339325,-0.6183048108209281,0.06356533490279609,-0.23348209358439923,-0.4193270775331889,-0.7260693428551416,0.11800645746952618,-0.139040711883423,-0.0286530791521408,0.0441348246756933,0.446861274855641,-0.3421562089575908,0.0934084852460234,0.12310017980210779,-0.07445648227902886,-0.006734235011192383,0.5323643519324958,-0.7125331625518097,1.0762773266274817,-0.4181923953298549,0.8561011613831436,-0.230364612733877,-0.24123489824776445,0.8814996465816166,-0.08433377334196691,0.39103621957253903,0.23222970862881864,-0.1681252038137094,],[-0.6760701149633828,1.0094716856544612,-0.4145807712393055,-0.17080141904380344,0.5412663234768124,-0.06880829246688203,-0.010318748726073173,0.45955496965513565,0.10582240485751232,0.5791118446320043,-0.015001336429930552,0.21177955685634722,0.10009776046252451,-0.35454740234003207,-0.04846829319141881,0.3925437214582308,-0.017107128285590537,0.14306861631680223,-1.0335028339238528,-0.3815459525501058,0.8983606635201272,0.057055577299833085,-2.3976038236288195,2.593817913723373,0.17803419447174343,4.146714253933805,-0.2047194289338984,0.016458365951543177,-1.1206844538081377,0.4047969840456361,0.4784874388454713,-0.21376178735301168,0.014821472635818496,-0.6412915873514518,0.7402248794955919,-0.3050003675158105,-0.34918426674238917,-0.5360004695640681,-0.41731420191281976,-0.1424743620319335,0.2999054519471677,0.13124483075088195,-0.2632056916080108,],[0.9188517261125734,0.14014169373012844,-0.0013155562209697003,0.798157752263142,-0.9133561182785642,0.4313616697931698,0.1961635836702506,-0.44484179189521766,0.02966745541780389,-0.20221338018938811,-0.24111003905320474,0.13828331501616783,-0.5330259113862444,0.2608653313999043,0.13941869369581847,0.0018127901086094972,0.7884207538911672,0.03801983126411813,0.7713094450939566,-0.3365527230641247,-1.0863955484256518,0.0884524462907718,-0.35200861974533193,-1.50924111899713,0.09064052993491441,1.9757859803982452,0.9575222196822069,0.16787594772807257,0.3150539894551331,-0.4362647380757829,0.6723707386426855,0.3190433596601206,-0.11849219730181619,0.12261806496147513,0.034906868526370934,0.813049570961029,0.2715533505453742,-0.43071188045664865,-1.3225581802050768,-0.25292801285552396,0.14754516331225132,-1.169017831360412,-0.23327901418531585,],[-0.9322435868311494,-0.3812245393151025,-0.463580806176107,-0.7308420328459508,-1.5812266441466296,-0.4322183861177551,0.14136137530764017,-0.7191322558602756,0.09079257367985298,-0.01227980681229049,0.2740675529890972,0.05296736335118066,0.7746532396154013,0.12140216319525332,-0.25401506358517895,0.5067617119340643,-0.47248235898071594,0.7802940218396136,-0.6595821857556398,-0.04573609483727473,0.0355696263387243,2.73912019071639,0.5154605958464537,1.2483565689887013,-1.215987244994865,-2.907113678970945,-0.6177574778258396,-0.07714571317724267,0.7535815938361119,-0.16691011839506045,0.03707679633416583,0.40673392430232147,0.2489490981884925,-0.17319739432094539,0.2617532296283114,0.413107136457794,0.12408939180640206,-0.2788992866021341,-0.6515350669027105,-0.35648531175660064,0.18983525256740916,-0.1646711482627874,0.8150762949819443,],[-1.4505911615315263,0.35347675848102755,0.03711202355651905,-0.8009879285891313,0.5465488401099634,-0.3749169759284823,-0.2280693294942348,0.2592708235749778,-0.8743647235671522,0.5767336609408832,0.3668429550542526,0.11695045657226423,1.057635688913345,-0.37357810263618885,-0.08544079484717006,0.24407897593623104,0.10960801459252098,1.0523370894179838,-0.7665105696310797,-0.6114181689207553,0.4257189619447796,0.44268756495404615,0.6032114807939575,-1.3562653526323212,0.20143504842859886,1.116414898936552,-0.27162176773212926,0.003555386911253031,-0.22041322417840067,0.44121989532941064,-0.5117831441556583,-0.5403077595824396,-0.5677603751953669,-0.04264827186663153,-0.4180844619625368,-1.2688881381066304,-0.38637714227453795,0.9126101213476825,0.18218489560241538,0.8696173139032971,0.6849031764765309,0.14418302844342845,0.6340975262261063,],[0.2397915029547221,-1.7523200191506243,-0.11061405663326491,0.9151320325435991,0.7069305252707309,0.2967390233994657,0.22350219912129135,0.33296253280386257,0.6584915773965289,0.3973039520166552,0.038505951060715415,-0.12258926636550901,0.11761249050580203,0.25203187804397853,0.2875239512104555,0.18679077324818585,-0.011699392188003312,-0.22211506947314252,-1.3321700086718484,-0.1630584914368794,-1.0636040122508459,2.3189476474740855,-1.8118769763878961,2.6447076329913464,0.7321922025283767,-1.5094189755232712,0.16462194292552934,-0.45075717061621073,-0.07090606933966068,-0.22998882650739427,0.6861988700584595,0.3121410295763864,0.3756172384527708,-0.6512775579442068,-0.034594824739107514,0.012963608155811351,-1.3086545182368023,-0.44564723720779287,-0.6376096577522664,0.48774091963898064,-0.5508091553714448,0.22576665098312745,1.0567085208547056,],[1.911168072926174,2.188917863559714,-0.30845005440114504,-0.17688187805074823,0.34882585997328047,0.3556781488400573,-0.04742131532093383,1.1235545236427316,0.43484691494409766,1.1554059789960291,-0.058630413765494244,0.02081466007886085,-0.5009021243217152,-0.15414171901518178,0.05025942484816167,-0.6926584739289338,1.2040659075917644,-0.5168967193219662,-1.217951040936959,0.35386261113755674,-0.7058805678284288,-1.5133760874267683,3.2715601277679447,0.8520370814277038,-0.6143009391231778,-0.34344332721730314,0.6833206269435457,0.16386712714107654,-0.014363839914692601,-0.1899280656660836,0.003838380434000921,-2.077461332025048,-0.8035041497323706,-0.7579731270331695,0.34253768440531196,-0.6816671060778698,-0.2354600623019429,-0.06562750623665707,-0.05648536172857984,0.7588275783855422,0.6171634651609458,-0.3634323785651579,-0.24637907114502114,],[-1.426104584458624,1.4025443308389656,-0.23389738083922268,1.514805435318864,-0.07518253466743469,0.46904729037863374,-0.13347887008778833,0.14743534526999202,1.260882118489768,0.08314246476267126,-0.05172058155065831,0.20189118017370064,-0.3768013228599578,-0.9600392431907758,-0.5001132478921728,-0.26726395845755,-0.6259505794509529,-0.08479610892736429,-0.3489877662965828,-0.23665947510913302,-0.10564305761723762,-0.6825343833643035,-0.6987624197435839,-0.3407639224936862,-0.3666395794323795,-0.16462832506134337,-0.06415076749643889,0.10385689314357399,0.026521738099049525,-0.1842012610125384,0.29455259675429313,-0.7624940234129399,-0.3751679124196007,-1.0482471641802962,-0.010042262324481473,-0.07886632401020507,-0.12087591369331713,0.319209113142896,2.472951223092497,-0.158252799892266,-0.25485446035625564,0.09789257526593743,1.0586908493011622,],[0.3405891747518625,-1.367335228564308,-0.18033392627422976,-0.7317745782385761,-0.5368032257092558,-1.2368417774825002,0.014452673764202494,0.5074547678578131,0.3799940060506162,0.6803815802862865,-0.07935544231774408,0.015586944333672583,-0.03215733280205201,-0.20677482042989215,-0.03967601459570227,-0.4166183031127081,-0.2508107732010189,0.12158581494956484,-0.8006203531520724,0.15583309816094382,-1.1844796776731994,-0.9453311826090108,0.44213256946118307,-0.9630429901009808,-1.0762763446630295,0.43652306462153706,-0.32982710078911526,-0.42546939365212055,1.696917453594529,1.0024868255064663,-0.16719526732922532,-0.045396989511049174,1.1495441252119505,-1.4674042253617525,0.021222296239110337,0.7638382772042478,-1.5318360864059852,0.38556395374901475,-0.4094459240799114,-0.2871678911534856,0.39667025372934245,-0.5706643665674602,1.7773548074491559,],[0.49645499996489556,1.1036653151321305,-0.2994293243777493,0.6129363089304911,1.776838725027208,0.34648402568537506,-0.37572681384686674,0.5196523363911888,0.5847663188848609,0.09031820883049352,-0.0707468918808005,-0.08522042077637167,-0.6289857022888833,0.2544179653196078,-0.13156755795733563,-0.5128095966334231,1.1947642737247315,-0.9333977916652182,2.008628845816657,0.37731131368839466,-1.674318036722121,1.5240340235886587,-1.670746153358739,0.8808981419901317,0.3612325593270573,-0.4649994767408049,0.44603214062894314,0.5642101482603675,-0.13829612968541183,0.4721304076167361,0.30349710695842425,0.19820161657638385,-0.6616603008914714,-1.6123423063367324,0.2789689503300617,-0.08840499255424668,-0.8181449276001002,-0.337595395492827,0.6728566369775139,-0.988265025444824,0.3109461594728767,0.45688126134803836,-0.13995940414983934,],[1.0774118990345143,0.3839114592491464,-0.23593580618594806,-1.980475520292595,0.669595297146184,-0.6996927117772898,-0.1794031153092694,0.8479040669954695,0.4299980586043802,0.4293211290972964,-0.20098036098998354,0.05634082437193716,-0.37052685167792004,-0.012819608121553961,-0.08432181823934652,0.18340986568956358,0.11319113124173527,-0.22030268616730475,0.11710646268645629,-1.0032026194262065,0.6673279779833575,0.18285500873938954,0.24592956623793694,0.7772513654400732,-0.37166089215077736,0.5347070049863163,0.35008199389080524,0.01253648911229797,-0.31466255024720413,-0.13298304693992113,-0.5846611743152733,-0.24605587884311775,-0.4005226551567671,-0.24694016571489244,0.1604840565009565,-3.971775536502666,-1.137741358504885,-0.23120486664519177,-0.28327309074113977,0.15145295478283247,-0.2770088572736612,0.27500095260662394,-0.30971773247807766,],[-1.0071653706632469,-1.6503185051072196,0.2861390274449086,-1.6361774579201054,-0.05499017168721258,-0.28298888265662037,-0.1838200905047425,-0.5515250612945892,-0.32854304487102415,1.1672538536823178,-0.6687056619900097,0.2256497275132575,0.8658156137136022,-0.48921443911981055,-0.01495370221594704,0.061909059120083786,-0.9287230461886592,-0.37373924755496074,-1.3036516366815896,-0.2042019593761302,0.4290567410572296,0.5989532770739879,-0.3038250755184272,-1.3599638007189148,-0.11358949015774739,-1.4934540285336464,1.0858939930600313,0.47060340956425206,-1.280674605797848,-0.541431754555408,-0.4425559073194568,0.6255990382729522,-1.8931727934688953,0.1326638560795351,0.518871675877969,0.8470262113739849,0.08307887846090556,-0.06899279496500013,0.3060859676617523,-0.7630660982068103,-0.26141674721843117,-0.06917370654498115,0.6122299105531404,],[0.061560907330719616,0.5065400306790017,-0.9490317785696882,-0.5058733475128485,0.7393014350046143,-0.43945086634451475,0.1373825559426164,0.3656468091581068,1.6997125234078698,0.36437898786565515,0.21690603173226317,-0.1783497016018826,-0.08235942254436113,-0.7358371696682456,-0.25468997463971793,0.5270686146887817,0.7177355249152967,0.28127292180367164,-0.1062941481571781,-0.8375863372341161,0.24754322719031327,0.597476773702445,-0.8730366793630421,-0.22642322539870963,1.0933758233033266,0.000541419994098059,0.7520436429301427,0.14494257351030354,-1.7396678084285306,-2.103019016558618,-0.001420583681361748,-0.5847920819486735,0.4876098008860788,-0.6692963925062927,0.39886795210167464,-0.2458413342528008,0.5169659426846828,0.6729824747557507,-0.8645848165221944,-0.020012859457868105,0.37529634963163955,0.09335284900982097,0.2685544848863961,],[1.0495020200125438,0.5434789870605631,-0.005704781756589315,-0.6935502920010189,0.4821601206135983,-0.24690236298499724,0.2083052201373975,-0.22113527035426897,-0.5214081555205489,0.10164199137724325,0.09806106178570728,0.1565160301832957,2.179182371642773,0.4358029882894719,0.3345040815676154,-0.4846794784527908,-0.2866231616845852,-0.23335018459205886,3.0476148131767147,-0.07629763053491029,-0.0035071289077156956,-0.8468853982290272,0.4381481084277223,2.5772964349843415,0.879123812488128,-1.5070168205110996,0.14052194444543795,-0.06936805465350261,-0.8036798603077869,0.016055381026301854,0.3303353842792234,-0.4415437472600043,0.1962839136934687,-0.35016781208791714,-0.10472621934193767,-0.08563555017873781,-0.2431300026425468,-0.46199072599705515,0.09630151922527273,1.2449706304146504,0.013465143442678967,0.4534905868767026,0.7456018773579778,],[0.7976386509852235,-0.21170572314365355,0.01005568647207037,0.1547580580258157,-0.013245127249675989,0.10339061530788374,-0.22348993965920086,0.6808665151836397,-0.2719999465336522,-0.49279829852593476,0.7576438937912402,-0.059132907125950436,0.3024512684857344,-0.2833774407734073,0.02392540314136802,0.22557392122358927,1.4160919896080304,0.5045306591870233,-1.1165561763200311,0.02216928253163381,-0.658607247513144,-0.25991038728671767,-0.6461639608284881,-0.05308118450608753,-0.29869013342526674,-0.49461267671324016,-0.810099327119156,0.3677820573784225,0.6012052324735665,0.6293617405402138,-0.01971799792714772,-0.7825424733002238,0.6551351041726394,-1.156644147600452,-0.4033034535778026,-0.6706455678857552,-0.5516455213775185,0.3321241125700949,1.7741528611735025,-0.6772451895294365,-0.33740339976815087,0.13405795205907892,-0.8946084663780269,],[0.10368758766105303,0.13543028580731642,0.05940273859647792,0.5909548219324645,-0.7344250995422646,0.08333316955836877,-0.0037408400321806085,1.2557662795317448,-0.2255809306389556,0.9392408512074475,-0.08480839371982457,-0.2027200756050538,-0.6180568645855303,0.13257854026052554,0.2180369827357639,0.09649302646384862,1.00789521698336,-1.5558232616492689,0.17766632976807892,0.7719132182586649,1.1010913003411513,1.7545042814323477,0.49777464293039014,0.4706533857023873,-1.6498333822917464,-1.7486124614325254,-0.76510520884496,-0.08349598591360578,0.3512407388982231,-0.23400028968267828,-0.2835269597013524,0.3526330955624049,-0.06155583557162924,-0.41699457056984085,-0.4737310282222339,0.8811293693073046,-0.2261149336496204,0.5141483212410786,0.004055475806967331,-0.26474637595388717,0.12060823072719126,0.23402330399853294,2.523062298014143,],[-1.3045003172356024,-0.5000204535385444,0.22570898789916652,0.46446043650791674,0.48032540731586243,0.3266280111128469,0.06765724627616782,-1.0644071704519384,0.2362513631653577,0.5094973591436692,0.08115633208123323,0.17697726465624516,-0.12146877182764948,-0.035323703150859566,-0.13670207520934233,0.0657379655084156,1.2537370420228628,0.04383731968590875,-0.409545259087494,-0.5116389896580893,-0.8822613459162497,0.5288925209465228,-0.10396242580982316,0.2799278757461533,0.12298329351811725,0.28543744288762857,1.601208052416204,0.580828984269884,-0.2761409979384908,0.13543473926710398,0.09207986683757431,0.08759878015159223,-0.13219631254330252,-0.9717836352735142,-0.7306228892848594,0.14464098525371555,-0.05295606564563225,0.5509367258910138,0.30655912892697346,-0.836202424351163,-0.3123002870314084,-0.0428187280147581,0.5245262102225393,],[-0.2645804917069892,-0.8279671345010021,-0.265219188353412,-0.2022898916824386,-0.4795025900180171,-0.17360104274642352,-0.0032308973647890886,0.4628881618255462,0.7987090874531801,0.11927617960090163,0.8266438973478023,0.47015357981311684,0.9327668670871074,-0.029518603219982564,-0.5079405141456373,-3.512335300293469,-0.25798485596902293,-0.1484011492171048,-0.9374148008221908,-0.32663847467454626,-0.7463009950668916,0.1824565257485307,0.16089817518251262,-0.07788887403377012,-0.27215099729042286,-0.5392360603219771,0.45117522564614176,0.9213624853500746,-0.07153923042252758,0.6769688546210508,0.06730106515554846,-0.17169104154673012,0.5301266963483589,0.4195514338656569,-0.21547571978090832,-0.7079959478876782,0.2858806685088758,0.6818729814434034,-0.5729221898178766,1.5276519938419242,-0.0394730514362046,1.5739727850613972,-0.005256239015490252,],[0.8928330187579274,-0.1373102175887321,0.43154989471753796,1.9108416105050212,-0.36388859399333473,1.0396467909821863,0.2457698757361627,0.7350419151081672,1.7290482616167007,-0.5029241558767004,-0.20137677673434343,-0.3306646993399725,-0.2605263058671971,0.24929864320576994,0.15552113454221697,0.6395628001856093,-0.38347247046822364,0.3748138340891244,0.8126579681143161,0.3516708034216505,0.0541372490788909,-0.34776400773118404,0.1597105485456099,-0.27490517340066084,0.14599503998932495,-0.029410123899084803,0.14870458615218266,-0.0011867205923910813,-0.19082073082123066,0.46576776951655574,0.34523154401174144,-0.5130390641400708,0.3249752732964091,0.11883091629355746,-0.3925273093508934,0.19324138232335594,-0.16627740914080513,0.15299359498319096,-1.467287848089071,0.3764350347469313,-0.4589770675897804,0.8197661021044561,0.1136019792326911,],[0.5367638800863769,-1.4372738519584567,0.22884336196557617,-1.1372958608611814,0.5037282461533721,-0.5753152671200213,0.10235631230404135,0.6057911188825711,-0.1473962971450007,-1.3269833540350653,-0.3190861884156981,0.04825476701069411,-0.2841462876945236,-0.39004273213185037,0.030114590659046942,0.5061774538703857,0.6541062848250095,-0.22041001546687505,0.5878088381828561,-0.040376260824387375,-0.025584936623140347,-0.925192131548015,-1.8778438569190508,-1.612915512750544,0.060362404708966914,3.377296458964848,-0.34074984926113666,-0.14922816295981028,0.8090457408990331,0.2957944393548306,-0.5389500517411592,-0.37300408957096887,0.3584416425183078,0.6417582517141368,0.17877640310592793,-0.5762126494245794,0.4541320612613609,0.10422725466599418,0.41203577080923065,0.08178838308119012,-0.027340534647618826,-0.20679561404795999,0.203139051430388,],[0.7363803356645876,0.5190441503439897,0.06194077139892886,0.23946606041367194,0.1539169750122005,-0.15867237362529096,0.15586853209398174,0.049573071205008826,-1.0129123803099174,-0.2336885955919583,0.067119471440144,0.2615758179587947,0.44726530670329356,-1.1348385782899832,-0.6378518159427315,0.5320409513563792,-0.9711477399139637,-0.18823206994740316,0.33784481094170454,0.3868312113727063,0.25197497926954726,-0.0268137102381796,-0.00601187272526157,0.21739846857462583,-0.35421629123818543,-0.21581621936835887,-0.6035101914355027,-0.050531335053638105,-0.06919186525533372,0.27890880850352545,0.07660671472198997,-0.04322273017044671,0.05195718481792,-0.07889495302856649,1.5407003591649795,0.30858968939493026,-0.5752280509333887,2.3450573344646353,-1.2755950606353126,0.27099336207519437,-0.14210014648596625,0.6421649433326142,-0.35273994501775885,],[2.0010527651089554,0.5655935898090304,-0.14825064308638344,-0.5036758692187432,-0.536305775031415,-0.10766496177443703,-0.08979610224970723,0.8270942307694645,-0.30935110334296223,-0.5271801550190841,0.1756452269814714,-0.07824837940412029,2.2801330082681357,-0.10189923505319788,-0.054043646456915374,1.4067877616898403,1.0575718522901325,-0.4923857457675035,-0.9563024848689436,0.7162140909683814,-0.5906007006274606,0.2538713833545368,-1.1669649514882774,1.4702920681315876,0.058168539909291044,-0.6376419564899279,-0.0018960514084936221,-0.30388208644526443,1.0356161109907023,0.9920167945167208,0.33207181698807203,-0.2767604372114455,0.45428305503869515,-0.8346485124314286,0.14742307362253035,-0.5171537978605082,0.5291722582201629,0.06761219677318178,-2.1100150896003385,0.5028854472313684,-0.22756025967976018,-0.39089401932691903,0.3469911764290361,],[0.02763227484794322,1.2217074365727982,-0.22584700970442773,-0.7090707040220978,0.05178549283858575,0.28956125238421077,0.16953316918953204,0.28483961474195035,0.24288954641861107,-0.16597609606745345,-0.11885142478514847,-0.5052995189018897,0.9699795323941551,0.18054092828087692,0.3017904947627284,0.7984716784146753,-1.2990545848791468,-0.06820865921811377,1.1037297233404821,-0.023662130330576757,0.17390622646403595,-0.09783818866945301,2.015156844211243,-0.09626181823854556,-0.6783728951108198,2.2620334007181833,-0.23916793294760766,0.5220356452439932,-0.360110168371281,-0.09138617377042835,0.2875767506385307,-0.06574096518019833,-0.48400398231067504,0.11383160434030513,-0.5235325727033887,0.37259696796225145,-0.4499280764563629,0.7419334027111465,-0.09699214016994588,0.4931913164636633,0.3791426118110085,0.14696508953262485,-1.6997763484800337,],[0.7003610227530992,-0.43812789930951446,0.10879144510095451,-0.07753452764932815,0.7737529662243902,-0.10893013655628328,-0.07373075476742037,1.3549007004684193,-0.4256365848795696,-0.30894068311668604,0.06707842576539698,0.27243832225984166,0.44331254897019007,0.7720409932081225,0.42027183284493275,-2.1959858195176323,0.32758990352313494,0.1180016363667578,-1.2266876143826253,0.09708051317750538,0.19382567724340782,0.20427350863685562,0.6397432623471937,-0.39652389292490975,-0.598849473112447,0.7282192019322192,-0.38930893443917924,-0.07603789765556887,0.5989710032866459,-0.09970089457112596,0.29091690276131144,0.04371896933464857,-0.27577557969440564,-0.6987492527601097,-0.3893450092327796,1.062371742896098,0.23228402251559932,-0.5292716134559878,0.40476958659640033,0.2676898161794611,0.33284537480122445,-0.35089047516782146,-2.2566294440996586,],[-2.202574782414547,-0.13397436711784066,0.04000363387166765,0.05642003732770708,1.6148549608869929,0.05190061766640743,-0.13038220702643322,-0.12133544298546495,0.4918980508126268,1.0311907865734786,0.7651295226935911,0.13311758046548142,-0.3364033142719261,0.6204326797409045,0.24619556841646836,-0.5254474424412566,-0.12573013999807262,-0.028226864712277155,0.6659890266907971,0.23523802307145478,-0.607533432448592,1.2046137170424898,0.06992528752777064,-1.1448962804887282,1.565312447825643,-0.3498048449859042,-0.844442576643106,-1.5759555875323141,-0.12039342985651369,0.29423526001077127,0.13831010929865034,-0.9677496220020805,-1.598426587927116,0.2731985694170307,-0.024351716963390124,0.4536871169519207,-0.8574169090712415,-1.1437089026849823,-0.6853554405054453,0.3550014998245348,-0.6439484843761458,0.016089989173714857,1.2171660571397929,],[-0.7634886757132154,-0.23508309999708496,-0.33748604682935723,-0.041344107026436726,0.6798371984593937,-0.1808765994261707,-0.6415570466275666,-0.261267727342112,-0.9545480254194937,0.09474646318611075,-0.3723785018950485,0.09622546417835279,-0.8026756033970402,0.24848183017290776,0.5061488507588789,0.8281940707368572,0.24214684605654707,-0.6955569676447748,0.06781245911614159,0.23525039891989946,0.02667037796870216,0.18903902923226376,-1.3464470793095158,0.2788581318398052,-1.7590271838084117,-1.5185534582984002,0.17116548635572368,0.6145649769584332,1.017710762595139,0.2617496328332084,0.5064666510623818,-0.2424337418683893,0.2701774367110698,2.435827969225706,0.033878181579154606,-0.9885289177389751,-0.17172766512270354,-0.7659740518334465,-0.31155780919369713,1.7780816267345614,0.33701888050413126,0.44723785304815394,0.10345283428349852,],[-1.8114136205501352,0.742161509932389,0.406389408006473,-1.9485714277971116,-1.1645635791984512,-0.08360108802217152,-0.06563196222338127,0.38681059938619095,0.11409965516204183,-1.1438179876307801,-0.5158053531843833,-0.21942156025541137,-0.5558976998923537,-0.10821821608936616,-0.04908603633154153,0.26714126763156115,0.8265427723634339,0.6716326404793358,-0.9520606354955802,-0.6994392288548519,-0.015128214743028912,-0.6890688844966824,-2.114159763701279,0.3619562715284249,1.4537020982844966,-0.941244472476276,0.2835868466823698,0.6254290850277892,-1.4693899386338156,-0.03694639263506672,0.19774051782654975,0.0017997383015971279,0.4157143628032225,0.5817718387269164,-0.09225663990005868,0.21390600793729433,0.15978225397702847,0.33530132845370225,0.0912530347749271,0.5556458847398871,0.34853314386771017,0.0956722131976492,-1.4419232107962088,],[-0.41992452225626603,-0.8010746079509087,-0.4116386035882487,0.037951491103683066,0.3578368984508976,-0.31285841815022025,-0.1061547272919993,-0.7055498841443497,-0.654549865373034,0.9289943140539882,0.17133140268430935,-0.01937958129677756,-0.4129048137375182,0.040736851998157325,-0.37810648153848986,-0.1546574927404151,-0.3805393584167488,-0.0761378198794434,-0.18618984561703525,-0.2362392710266576,-0.7589708502049832,-0.2920913347092259,-0.4174532260055625,-0.23871108502354757,0.017608602914281526,-0.28346799358798874,-0.6321184832693062,0.19057328884338465,-0.04277181513797956,0.356200018554192,0.30901587278584297,-2.925958824130817,0.6087461553759054,-0.4406710267284066,-0.03130555568714519,-0.663326705747417,-0.030562971342694815,1.4861749428954707,-0.28472277866055545,-0.08418672457870419,-0.4921954770723172,-0.24067570622525788,-0.03613209305266536,],[-0.5496096187995736,0.2201790609487347,0.041338421028226484,0.08084976978910935,0.7822837866132203,0.8167391073700726,0.13405946853646952,0.14604264139271622,-0.19013988748707858,1.1520484434236942,-0.30998060833787,-0.24276813069943323,-0.2679997189255565,0.2668220689987503,-0.15447386951978423,-0.31711768672302354,0.38804216898463884,1.0204192963206862,0.34545528150764404,-0.8962879103471031,-0.5281167587134595,-2.0311185528178544,2.0865098813118212,-1.469957869466268,-0.7000598837815425,3.335358046937761,-0.37606341343884,-0.7930784152593547,0.8796733083625976,-0.46667782548605813,-0.2856936823887072,0.8457434586899779,1.114754229909588,-1.6000589151697506,0.17335125341821286,-1.1235395675686863,0.34226602795393735,-0.04659980429942556,0.36323108420893485,0.4760434549417831,-0.10470312834123768,0.3230196453303984,1.006702947311039,],[-0.48724827341060745,-3.7695102035487213,0.25596141296140196,2.045855315337468,-1.403509023314883,1.323141064955729,0.1663588229989684,-0.7442782552053381,-0.39188795140142385,-0.954771779008543,0.029905823334302074,-0.2571164396330331,0.31689330909152963,-0.02769008704258746,0.22933737155378428,0.20678100581738754,-0.3601811625281192,0.8125273907314778,0.41679925908770304,-0.3357177281875742,0.6670064997650689,-0.2003841175752879,0.3553274724938684,0.8199776319650828,-0.2459229756641485,-0.7437680982427316,0.415345024955922,0.5234413994641018,-0.3016710624657488,0.4532002902379898,0.6898512457771074,-0.5022444448175161,-1.25585929065546,-0.012611376891324253,0.1802312668899032,-2.4773359048521586,0.9478945477557622,-0.32320837995470925,1.5040907653054527,0.8490407560775829,0.4421163508714382,-0.20457139328097756,-0.03654199420996658,],[2.0802456030059098,0.076278290638501,-0.16139376805638386,-0.7191616267447778,1.1657918202850357,-0.06139471055392408,-0.00453414840276123,-0.28853171954580237,-0.29732618499121055,-0.22942317493214068,-0.2765436034411828,-0.05599622747468356,-0.4803741087169566,0.013689227335818585,0.4012116694645259,0.2865979813236543,-1.4738913239666735,0.09313311001558808,-0.7109841806257298,-0.07223329559082446,0.5210362191396539,-0.6193240851381413,-0.5705776634094007,-0.1371228663888626,2.9524936624336013,-0.15717038664486035,-0.10669217231951218,1.0197379327782952,3.004676225878064,-0.328743008635049,-0.4527989908280664,0.966363750995587,-0.061888248144095465,-0.39643883674171626,0.1647273738885876,-0.30598508720395967,0.05452349042366046,-0.44764014365397264,-0.5457235377827537,0.27922711336597106,0.3095879569727543,0.31024595566874286,0.620764840964278,],[0.1587419393530957,-1.0624142485989863,0.006771767361888385,0.4495528863907078,1.958530153509297,0.00007163808353126556,-0.5183973469571926,-0.9242412194320456,-0.3195896626723828,-0.05964623870468237,-0.3463327672928169,-0.3910601121195603,-0.572771492070646,0.026188320183132163,-0.3225594561331528,-0.16815954219439372,-0.21269664730649632,0.298066371094516,0.03468878824878636,-0.37422621243314524,-0.7766301737723604,-0.1770578226021355,-0.18677650340499488,0.40182200965325404,-0.027025166411628748,-0.20155265265331815,-0.07049153305902615,-0.10648434957902335,-0.562447303965801,0.11606851787709642,-0.17689361606831558,-2.8211985920181317,-0.3164360093637546,0.3268630111875572,-0.6004566756753431,0.16256393505461128,-0.09536451282813702,-0.3318032968509368,0.3997108155687788,0.11025113584415089,-0.05886107501136691,0.23893292506987007,-0.04325623830688974,],[-0.16172456405786637,-0.7645284760958112,0.06048232091003685,-0.03649796283498517,-0.5610986094074473,-0.12815728150876168,-0.36100136182378506,-1.1570304367777209,0.587260645335012,0.36331160157409786,-0.18093173852991468,-0.08801519324194365,-0.4017398707009493,0.065216847925336,0.006484097423121099,-0.3006049278886237,-0.8671608239829096,0.9046391645076346,0.6436658709484187,0.025047044368778564,-0.6940861369093597,-1.7241593144160552,-0.26271961176009245,3.1791325470632206,0.8268592287577711,1.4170698762698297,-0.6550832808330188,-0.35632118749189756,-0.41447514163720195,-0.9649079534493619,-0.4718009837335927,0.2987443683527129,-0.1678137998344083,-0.5537010368109445,-0.036285871423481254,0.06963504066198169,0.6546259120200764,-0.29895677635305473,-0.24123249482757256,0.42174445294074797,0.051416799954076886,0.006789592558373167,0.10948852938754985,],[-0.10816536663813102,0.1715969493222158,-0.6678906573478789,0.4804495337571757,-0.8266312553050058,0.4755117673157505,0.43357121831609696,-0.12630733677342043,-0.43263923581096914,-2.1460723198403358,0.7540387329859777,-0.571732590403137,-0.7307669316257621,-0.28059683556712745,-0.35502923681364096,0.16937436462182065,-0.4193449993481512,-0.9016322077344646,0.04343385836546123,0.9995549457532106,-0.4377502978588997,-0.6001931932042662,-0.08867521818872529,-0.35593341189034805,0.2383394919365795,-0.5438143126331666,-0.5495813182888059,0.26600492695665073,0.11585811435830282,-0.5711709465724821,-0.49330893984516627,1.2554403846767745,0.05618513866826142,-0.46620280455135327,0.3326993812177617,-0.25313682874367327,-0.37396090685911804,-0.13894224774429856,0.16779100370203687,-0.37574281645198876,-0.333977899068408,-0.32415847240019263,-0.4000532060679539,],[1.5425686565340049,-0.551044001345899,-0.2477393787405329,0.6570400550409525,-0.575400139695189,-0.6129239757822621,-0.023423985190171838,-1.0788964888004167,-0.4011330124248868,-0.3397055692140354,-0.5210301591354595,0.2839336002691813,-1.1896425875943932,-0.31434721058702725,-0.021094664948320452,-0.1254672695384777,0.39247530230079364,0.006885773176041336,0.4626143450375097,-0.23215299308476103,0.14043858926049588,1.0689814924937755,1.937831762520917,-1.9954632732444935,0.4819930538766331,-1.4695481511378412,0.8254881675918788,1.0900210888893862,-1.6319569105972176,0.403823276810154,0.5240683012532362,-0.09962555642041601,0.47532950643154825,0.34861500312774835,0.22071590003663896,-0.7578434004397557,-0.013109746561730744,0.12755434367016996,0.5438284469504591,0.22692745971640244,0.26574750748360115,0.5708414792587782,1.634894831949972,],[0.11416412563453812,0.8264629794702881,-0.31205756773572463,-0.2530578421542275,-2.4681853696109965,0.5872138400962192,0.29865354515205506,-0.3227425352779068,-0.7574970684337329,-1.5666930748148407,-0.1160201898860971,0.18831183655337724,-0.1740193107981618,0.2113474687947201,0.43096605462773296,-0.0414480670620327,1.1681795066631149,1.141977401547161,-0.5399173350564224,-1.3586681503450888,-0.05938710142417505,-0.9943250849125623,-1.8076629592723954,-0.9146485536558618,-0.05518747169793815,-1.1154147732049169,0.29754475582339357,0.31986725074151734,0.00844334945690557,0.6246265023976496,0.5239793423865129,-1.8614741084162012,-0.5992327306134559,1.4374335899967041,0.21936635294332674,0.4275344245234507,-0.9549746762413696,-0.9107453402745123,0.18762501108426663,1.5210158213614955,-0.005607188199433162,0.8036489849418799,0.3945756486477567,],[-0.8711623387742433,1.2831214900332437,-0.003495330461495179,-0.8117584565303394,-2.114465309695736,-0.33014447688123644,-0.09462501031959328,-0.03051263259642363,1.0532392642228952,0.7302111328346867,0.12882525587804997,0.002559229195521545,0.8348212339435309,-0.11882845726255391,-0.32810102375537664,0.26935057453225925,-0.7173720127002178,0.8840056487068961,1.8500548326295532,-0.9007292758192463,0.3581935811942362,0.13817128708725418,0.884500147383923,-2.0652329487403414,-0.41347557360937776,0.4612164095938914,-0.23783420691451906,-0.48993494502084867,-0.018662906813781355,0.04908498161178381,-0.20561243794121578,0.4101717866422334,0.5516555368742393,-0.8662335973786557,0.3441418631242672,-0.41568193112823376,1.1703120030587097,-0.26108974157030435,0.40179122349425045,-0.05954901744403568,0.34128644316018597,0.4149952739176652,-0.241555951863338,],[-0.1908760286404536,0.6749595486282616,0.03265720852692429,-0.8934727157157568,-0.5044418422238922,-0.29994758938393806,-0.08484688890782661,-0.3685569399145763,-0.5507894458825049,-0.5065627872288442,0.5288478037066082,-0.367385867167425,0.5508775302141481,0.6331663480840246,-0.11530955441486197,-0.3851591636566073,-0.5053172246343959,0.8182029724042404,0.4520950307966789,-0.7654324561757454,1.3957211012533188,-2.195704217196093,0.24863043657440467,-0.20542329594578365,-1.5555887500132357,3.487118338164643,0.1464625972389852,-0.5747627296571797,1.4166469185654622,-1.8408684206755832,-0.32730655960356136,0.674039382448166,-1.107699163366509,-0.5498139604601883,0.015423989729508102,-0.03163688070153149,-0.4988363527982688,0.11964891787375123,0.398872567100906,-0.10768838577454805,0.0137043740477179,0.3973693132996131,0.1133623524917594,],[-0.7379702269206164,-1.7227547313533393,-0.7048406179369302,0.06685201062612872,0.030456541363204064,-0.28646379079043294,-0.30241949109031535,-0.02432356334506845,0.14190455385036455,-0.5097680194651901,0.2148432689980375,0.07579813946515108,-0.7690447522875087,-0.05729417454304605,0.007177612721893793,0.5731270000252144,-0.4549439528631558,0.05951895696882221,0.8040182238095714,-0.04881471970313134,1.40530080920684,-3.3220503037217233,1.187547941137082,0.9550479865076352,0.38243352868364966,-0.208288701520516,0.37848975190039075,0.10275573742430587,-1.0078904179540964,0.9643182786828963,0.5022598039847448,0.052756546114523795,0.47766391484938736,-0.5857770098108394,-0.1872947967260008,0.26597450596749117,-0.9878344067884662,0.17461274946096414,-0.16384775098571117,-0.29307280080786013,0.2814015359055737,0.7678296529767328,-1.601552204993834,],[0.16513161356506112,0.8874079763330457,0.29709564935734073,0.6857056900041063,1.8267810828988502,-0.2985348395613051,-1.176877433671419,0.05204311250774944,0.892610369081778,0.04395744648577279,-0.0023563969325086963,-0.04115065227965499,-1.1708461298183528,-0.2920865359553753,-0.24170762075829338,0.6087897281402368,-0.5314087606397201,-0.2845729761222252,-0.28215085555653907,-0.06182463676879326,0.5183331742220436,-0.762902203334581,-0.312236936162578,0.08503612385241786,0.17068268739660472,-0.20840096652551074,0.2813117467898168,1.47676362941595,-0.7784823230637617,-0.25218396790443864,0.245825266268411,1.4588266867563138,-0.7186069918074679,0.08443608044682892,0.21324960751032823,0.020947150521949235,-0.23436548542731456,0.5540142020458062,-0.43598070691508684,-0.41988263004369764,1.2220096782089696,0.4401704011718508,0.9897822143660833,],],[[0.1417792864396972,-0.9123870014513402,-0.492144398344531,0.4975291010286139,0.5454695963877728,-0.07195715031880763,-0.5586845105110566,-0.056217291337291087,-0.9490334476954232,-0.41273526952817613,0.3980657312175637,-0.21528698618738668,0.19482557119273264,-0.585547822342397,-0.26945154144623507,-1.3990318801422488,-1.7807622760870723,-0.3037525245427913,-0.3189664280087729,0.1386656967125114,-0.2754900075942628,-1.3116521601815685,-0.4543328705620588,-0.5232566339498722,-0.7386831517427662,-0.34552064046446657,1.0124280295182428,-0.21152022778884394,-0.5633516261360795,0.744412440057045,-0.7822741398932277,-1.025182544106998,-0.507951072753138,-0.6653098406945923,-0.6709260158647369,1.1417787742695926,0.26547408424452296,0.8244201821876349,-0.23572919051677116,0.29092500006293626,],[-0.1512886387040517,-0.4164913997379393,-0.3485458087281045,-0.7487439666758723,-0.07909106863004138,-0.2962955423269774,-0.7750954811089628,0.12212274155048737,-0.12763928459645257,-0.47706851222780666,0.40125948836272274,-0.13354849022903081,0.4521439088770261,-0.5034417969389015,0.23935537760796455,-1.7148848496477922,-0.3573674100855308,0.2281966250281714,0.03707662244589235,-0.7037500783656367,-0.38644004272839955,-0.6100587235854468,-0.1154959305063956,-0.21317686281859746,0.9238095720152352,-0.41174532272241515,-1.0996367933453166,1.1214189787064124,0.5823722751897437,-0.3115615637870854,-0.9441779350123736,0.41849679379606286,0.5751611871181799,-0.7719826067666288,-0.044505101275040204,0.30156774087654215,-0.4510507955805232,-1.3543299507528057,-0.5831843461993049,-0.6436116589295156,],[-0.23317569166468763,0.12705501403681674,-0.6763237653953446,-1.241295782675218,-0.8112220956465833,0.25247280906723235,0.11717488132096325,-2.4719322940865145,-0.08813444274701861,0.40965310609349526,0.0523779678897389,-0.5227762169483331,-0.2708643548812779,-0.8558471185108861,-0.7099667611648476,-0.37057401830500225,-1.6153497488529525,1.596331955964077,1.288229300481923,-0.06603994094917555,-1.241074203476887,-1.1395686201599855,0.35864735764480604,0.4459772876594623,-0.04579515950815584,-1.0436539627491592,0.10587436722063275,-0.5065679152556434,-0.22006024145284778,-0.23663729244101012,-0.7682200903506949,-0.051823657751734226,-0.3033493979852831,-0.4053241300678509,-0.4000727295238272,-0.5219806841011844,0.40644366028366946,-0.3930195607135936,0.16467092728877733,0.3517066102732968,],[0.18063991141033212,-0.44197039983810327,0.15578187953725423,-1.3482335873295763,-1.085283044471456,0.27230269817169817,1.1225752356952352,0.10631940874143467,0.2013752785695529,-0.8245667164573245,-0.5238817710619996,0.10582560630562955,0.007745745290967196,-1.1103153437107198,0.19045611281531633,0.35568997711258293,-0.4423093302104956,-0.8438309507872243,-0.46677983229109765,-0.5931981749822776,-0.4897949208539572,0.7148503411486844,-0.4185303268433981,0.5895861055149325,-1.583880144201554,-0.8817744423716201,-1.4707187979129195,0.0631049559134417,-0.18893121614491748,-1.272338322103691,-0.28889985739334956,-0.6196425265168197,-0.015664715028927172,-0.22490071983454363,0.12221648942724486,-0.7420318308633568,-1.0321607231736087,-0.3939408742452734,-0.3002217402744046,-0.8900677348965849,],[-0.1879686299042436,-1.7666612412793068,-0.5511754159287066,0.5516311438878085,0.22482882211416944,-0.9893154691870579,1.7634746933078937,0.2441571221570182,-0.051012492626379434,-1.2408993552577914,-0.4164539608014156,-0.5250870006579842,-1.2618866480369333,0.32389237561326545,-1.0684690604512417,-0.4926391292732182,-0.022225039593966937,-0.4668919044796416,-0.40577229078887955,-1.4026151038326335,-0.4504254189198471,-1.2576467026904377,0.6067532545442258,0.21112429837248284,0.053748536969207235,-0.4745480235448345,-1.0605995650569495,-0.011381869694082,0.48469580479536034,-0.4832334452736301,-0.6106575150629552,-0.11917583773008295,-0.020332091420552985,-0.12989203769296515,1.249325093733502,-0.7952213129187716,1.009712978424885,-0.008155996140219914,0.6903813343223082,0.26631886867016485,],[-0.2759712395658316,0.32897560947598975,-1.3996556275929684,0.18557801381155914,-0.17030528176207643,0.27076146401843126,-0.07724535850699711,-0.5514734072439136,0.7513337505467396,-0.8396166091482864,0.15807699816520296,0.3417594688444083,-0.4122519346851533,-0.5035640651267679,-0.00871120512625763,-0.21680282121645145,-0.28159484877217705,0.05942172437114969,-0.9568502948204044,-0.7998694661270279,-1.3494527169178807,0.005071566200279041,-0.21016701289034834,-0.08547660830908528,-1.9155953268602144,-0.16833868084601525,0.8584672147002321,0.044051497441843494,0.5531244668145435,-0.8721604705624713,-0.22713251578422874,0.24303266306518934,-0.1816358811157451,-0.45119667602337465,-0.3907498205300078,-0.014474896277289253,-0.4250712437196939,-0.5214058713446681,0.2289171737100822,-0.5246087252857555,],[-0.8116627533450871,0.21364911447325247,-1.0795386469625858,0.41097355209625996,0.25457051952841186,-0.2988054389711422,-0.7891241626330153,-0.7296230260808411,-0.3561966083729556,-0.6614289617242252,0.1194715148426003,-0.2972057894960824,-1.366456797592642,1.2990123206447604,0.3153097555777791,-0.24174808933430827,-2.0541951384338715,0.8678114070230117,-0.500722966663222,-1.8327087664222332,-0.6077532628009071,0.5227205179008375,0.972751435668766,1.1982558336532978,-1.0600238282376004,-1.4843581964226027,-1.244522129966784,-0.16579461720259714,-0.4760757216150639,-0.17678658291038526,-0.011226172176557575,-0.05187896892644241,-0.11629770694093333,-0.7165965113784247,-1.02216689207433,-0.7654284329743283,-0.2253160092670781,-0.5723024678656807,-0.35759471908717216,-0.4969630050629766,],[-0.1612392232320386,-0.03342424911020146,-0.555061808843944,0.18429488290544827,0.06630553097234071,0.0978729195312222,0.4712269033157313,-0.1834586396227537,0.7527661953869815,-1.455131659467897,1.2393758466928442,-0.43299732466784563,-0.13747242950483715,-0.49957843002119867,0.2765040562941132,-0.3011549709833216,-0.15552989470188264,-0.5118264491421405,-0.3710810351955179,-0.6428450593509704,-0.7624194590610237,0.2644911647592062,-0.3455384506460045,0.08979126295748491,-1.1911305359981295,-0.024646012414695193,0.27616664817712655,-0.20364928431316118,-1.0020040382224118,-1.3331424041019027,-0.16892687382610277,0.399996628354062,0.28863756790126865,-0.2523919443766287,-0.6121245041030027,0.3231461407551145,-0.9335970982460517,-1.1202537658928189,-0.857710849004118,-0.5923341205038221,],[0.25708383825941816,-0.9645819321298712,-0.5680314031997545,-0.6995220213065956,-0.610420748496634,-0.45860159977119724,0.534630233932468,-0.8156817634604235,-0.659035535560695,-0.23699532122095993,-0.21339343146593975,-0.47491179276492906,-0.7882698497017473,0.2210346392972552,0.07535154308265428,-0.6833808806964641,-2.0632024729395324,0.8787609654349253,-0.22831862140192458,-0.0879299908736977,-0.5180288404234664,-1.2701347144667432,0.46876289242036523,0.2846715076211658,-0.8219715532511545,1.078827761418693,0.11347593952419134,-0.1475023738170781,-0.2527719052388,-0.004310913953626145,-0.11641506820097085,-0.3370262944919735,0.03813787441024382,-0.30828189770628933,0.4816284748663655,0.733209506365998,-0.44957477587365974,-0.2580281522450714,-0.5217135993644471,-0.1162241635102659,],[-0.16776275938547358,-0.8420855462764857,-0.7970497011899286,-0.683553589385684,-0.014564724874865995,-0.435829035630188,-0.6313651202545553,0.2786151972789841,-0.23113422129762776,-0.25308503593763193,0.2828779273280106,0.33948850516025303,-0.09158571851456476,0.18140815309641214,-0.560003537707434,0.5520312103147571,-0.7632984442049933,-0.5767883640741595,0.08081891041968449,-0.2561800901507085,-0.25842648340398366,-0.3541826084279582,-0.4010163380532858,-0.12077967927452567,0.6061636554036115,0.08990377426209878,0.13916936359447704,0.4188290482472637,-0.7500401886816328,-0.6176797044030842,0.1567877415750151,-0.6410089048434003,-0.5811604970809233,-0.0029273038169199176,0.1847981923191719,-1.0273852244645612,0.11046741138095575,-0.5210663204738595,0.06993939364203093,-0.6736024518308779,],[-0.7436053008774277,0.009011692151190341,-0.5332826558275485,0.019411712241093837,-0.8324621917160361,-0.5096546151017264,0.2077132568723232,-0.734635052049522,-0.32419074703752343,0.4868324469769251,-0.24808625698814873,0.02914366995475327,-0.47302538900884916,0.14430137292593836,0.00750436278855377,-0.8401297380323451,-1.1836995619445998,-0.7574207579144886,0.45254940524808357,-0.4220194219820073,-0.5557465250155789,-0.042606724706861616,-0.4178666506625788,0.6980784793224423,-0.5121469615026485,-0.036215668767041534,-0.6849152711329028,-0.30377551268338876,-0.3857369824980061,-0.41941647036298924,-0.05772833108484047,-0.960555929048275,-0.07316808697076799,-0.5310451240887835,-0.18216500093435112,-0.5320641302038426,-0.4349499861734664,-1.057460797437881,-0.5996498875288587,0.8266300234511378,],[-0.1280897193908177,-0.06279297335327307,-0.12687494660399992,-1.0911078991936545,-0.371691465830671,0.2795084793122747,-0.9317206010482286,-0.049638607822754546,-0.9749995319456843,-0.2564878579753741,-0.31072968045368393,-1.4675377789622117,0.7440680781823003,0.5148288522807767,-0.9393458871717613,0.4748174679839092,0.2740474738368055,0.32649929136946926,-1.2804734615661881,-0.5450100851945158,-0.12021171632176791,-0.6058828557103944,-0.011333205233583369,-0.48326377534536413,-0.611148869558153,0.21465047401168852,-1.9540372056975188,0.19879306572452027,1.1556064482379238,1.3175631160278072,-0.5066660352348673,-0.34010261953949894,-1.2108088891652409,0.08205968017546574,-1.1078347874641126,-0.10392310854792974,-0.3826085138973157,-1.9426119507461939,0.22560038997555448,-0.6822868484033275,],[-0.9196090308129347,-0.3953880357236335,-0.6983023446560929,-0.40823266423408644,0.06528050983554148,-0.3226959426215117,0.8233072917099764,-1.1535547944457245,-0.09001362031931386,-0.9318787007489938,0.409569200733904,-0.9759789225807859,0.1300563875583082,0.3417274078901595,0.013157005331248823,-0.9281078317798901,-1.107513101366631,-0.5275677625644157,-0.37553035607731766,-0.17418843638166095,-0.37051095522955174,0.18294828273692304,0.187732657246898,-0.46530654991651355,-0.10669814573025392,-1.003143337540495,-0.6377894892946481,1.217738789828624,-0.8276356061991612,-1.9458046760648038,0.685369221272737,1.7650391623982633,-0.36454109545245644,-0.962701370188686,-0.11645094849620087,-0.19537999115538185,-0.7036176615210774,-0.19793485274305758,0.13732445095340134,0.010177707551623318,],[-0.3266172535696709,0.8188195904395816,-0.29494914874952566,-0.38943921360050887,-0.09643315431486263,0.6166442792229605,-0.3370177028940271,-1.2969668116493138,0.2549835275867137,0.05780772767682284,0.168538774817052,-0.5077874788767358,0.5611795024758691,-1.1648078119534606,0.12484413615184767,-0.3438064342198975,-1.7667191937256148,-1.1745117575784196,0.30967088304328216,0.26600372070287615,-0.07581888604034898,0.31343391243652063,1.0270668794020443,-1.0428828351216917,-0.6439461519521847,-1.2002216684938423,-0.5544971962529341,-0.4310626748534383,-0.6616543888847495,-0.27498714644262817,0.12530633665670626,-0.3257575586318897,-0.20272955385860733,-0.15884269155847466,-0.6392400982150447,-1.8524660448592216,0.5454369464102989,-0.23901987860348475,0.15890171778094858,0.18352182126791336,],[0.1847842137351925,-0.5489242552977962,0.010128428641221987,-0.15216199745705944,-0.7648986285718932,-0.507778981819407,-1.383824263502457,-0.11479549144818015,-0.19097945427673396,-1.1825559527702934,1.2744746892781271,-0.6991710384603375,0.40159862546696207,0.3133104158302556,-0.6378902671300921,-0.547999957345873,-0.19720180451120392,-0.4376689064970284,-0.04956611295172971,0.07932310322855646,0.11078912411956032,-0.5134958029378005,0.2524892356037375,0.06779075166541652,-0.18321735770189887,0.18827524147580005,-0.29733949044774,-0.2997949296475023,-1.050973890384391,0.42676718286287774,-0.520535306028113,-0.36473199771697273,0.45383369914809196,-0.8801257966676628,0.17232246750163907,-0.06455276481946713,-0.2432327521384873,-0.024236163645425822,0.252019813501354,0.04225566413328152,],[-0.575032896737326,1.564362469717216,0.786132215566191,-1.2912799368345782,0.35245941384344737,-1.514935381388881,-0.7983016847586154,-0.36502047199110127,0.33127363110537544,0.16382758981548637,-0.4325236139507252,-0.5122804336486974,-0.8919036087473615,-0.5768089754024954,-1.3813932052869462,-0.9205242317119103,-0.03642466567848794,-0.6848229522297239,-0.8716508648810005,0.9957486420120202,-0.5254741918344886,-1.2628344582190791,0.9800252638626851,0.11083344311094404,-0.5532136603443802,-0.4436977594131067,-0.67506259646796,-0.17377211631232958,0.5357626510749013,-0.6669876832469549,-1.1960767613818122,-0.24512838129023792,0.2745248477366434,-0.2088340151452639,-0.5191232952882763,-0.2225889409100553,0.22294979855003025,1.131169066952751,-0.13692690174625863,0.3596517877405057,],[-1.3400913889842365,-0.494662245342529,-0.47287672515198587,-0.5206412961812261,-0.18205075337763227,-0.37627523934415863,-1.2433093575367444,0.09270134128229758,-0.409434472857609,-1.1725401659812138,0.5410326415361135,0.22111509937521712,-0.15306420837324858,-0.4907695972168717,-0.5528587044787605,-0.43290457602387733,-1.35597381326084,-0.04200042967717778,-1.3526160980878994,-0.11088490623325029,0.016348503851985323,-0.46610212069010404,0.17742809065666698,-0.5441334763830055,0.4321553936242224,0.22797811208534888,-0.11455972411291142,-0.28332054961366615,0.5571505658069331,-1.3535951596507476,1.1384805399811373,0.2421611747277723,-0.8317231457996647,0.026905722073719364,-0.4915051419887865,-1.0220453245293484,-2.057457823862076,0.41637388195268255,0.2354192707246827,0.3638373906813191,],[0.3934880152892658,-0.6740663330098071,0.14543959445211593,0.10536146420499584,-0.24363935184746602,-0.02669797211694507,-1.1685431895414224,0.3995656388342116,0.10438836314642758,-0.1747345176269184,-0.33303737596455124,-0.6946271236120283,-0.44937214179435336,-0.9708470027727653,-0.277102797046357,-0.5585176221072073,-0.5994339029164857,-0.4480475456336849,0.45378808113947916,0.06282633468713139,0.011340418062665161,-1.0018375836524824,-0.5293705438458667,-0.09328458021651233,0.27141874091294527,-0.3677673114253286,-0.17970234409292973,-0.8265264280584812,0.7175225237646149,0.03706466793202623,-0.4985151634644514,-0.3554725180535562,0.12840653322361908,0.5880450109396399,-0.4295580834200639,-0.9388014764833845,-0.27791646851667573,-0.34657589593724325,-0.2602785547446332,0.5632547627303023,],[0.02350511715319332,-0.46116099644484965,-0.0345547008014687,0.10212725729613752,-0.613082052093382,-0.12756847789301476,0.17281180136362265,0.7461362429087655,-0.29852198180268374,-0.40422636162557735,-1.8133221134240778,-0.9174524758122689,-1.0991251918924534,-0.4937158075905856,0.11306891917052325,-1.094836701263905,-0.8757761490934182,-0.1872876225940042,0.5212403543029386,-0.4383288590540341,-0.47078217244900206,-0.2453107316829784,0.12562337751213234,-0.3374892420612478,0.5773031038851345,-0.3145901681862242,-0.24849686107552496,1.374692174973939,-0.39338344384272,0.24602944826514295,-1.2656454251793012,1.6438221362381515,-0.059971284455812075,-0.34817766421151336,-0.43325240955003214,0.9018331442714705,-0.23168441641495346,-0.6859425178432653,-0.17279764785546442,-1.1684435291014998,],[0.30650587888359443,-0.0916522393789439,-0.7497300974111747,-0.5521820127790265,-0.31355528375048103,-0.914721097907406,-0.14989566738992344,-1.028149355826626,-0.5173791891085788,0.9180653858328931,-0.16479350931226094,-0.424830012984203,-0.9496725283051191,-0.7071362296566563,1.275382874725885,-0.9387339180955377,-0.6523300740989832,-0.5726534767968954,-1.1558822935650797,0.3294004840083416,-0.15217933463754393,-0.71514148591254,0.23008222760880076,0.8023243239672668,-0.4385737631445257,-1.792555939413463,-0.009123107855860286,-0.3257070676455199,-0.25877205716334284,-0.01869893921773324,-0.5367611169807215,-0.048075678960790326,0.28937558321142404,-0.1265513255989009,0.1184136456306929,-0.66039065184967,-0.3015468837258276,0.22840261450761518,1.0838433269617003,-0.7887481030481106,],[-0.19779282732072184,-0.6065237769919511,-0.19528306749893662,-0.43681220632825385,-0.6448441926687931,-1.3890397910553531,-0.30938471617394014,0.11156077579507802,0.5902025214856179,0.2660034725040174,0.32662280410493205,-1.253528598246213,-1.3583766948908282,0.16636219522089477,-1.2038591025451182,-0.35318136423947466,-0.4194669774967245,0.09331882830024973,-0.34025443020240237,0.00022964055669486515,-0.6491996918978279,0.2416100297676646,0.056474002782427556,-0.3466344359426954,0.10217447375919417,-0.14084247836011904,0.019716563329348246,0.2316936529960314,-2.364546429449239,0.9797146901216048,-0.7707221060890417,-0.4991451198533287,-0.7761151653939798,-0.240184103002826,0.3515513384664902,0.08498833225684084,0.6204488543810864,-1.6599629901888104,1.2529042414834506,-0.3078281607073484,],[-0.13863930139523453,-1.3231131287938167,-0.102772029639306,-0.16845889628600044,-0.22137687167525702,-0.020186068945832136,1.4013276352767552,0.11954853476000735,-0.17924224203043468,-0.03761661236230562,-0.022445921471932154,-0.5696123883625462,-0.519135425718611,-0.16407813480432207,-0.887465062660043,-0.9308687402355952,-1.5994113263701368,0.10401189029231085,-0.6333984532708457,-0.14852655412805152,0.1431638418439756,-0.47754029420393984,-0.15430754699530577,-0.7287602028667394,-0.9412934221321851,-0.20350808896417127,-0.12616791114920348,-0.9632901915522531,-0.8226482013623745,-0.8029516504967342,1.381482009261257,-0.46590764379351207,0.24313696065122642,0.07978346321115092,-0.31958198610124267,-0.49698924852934784,-0.7357287662503248,0.3673453932736245,0.29146982097240853,0.5597037234731154,],[0.14027532287748556,-0.08095424077990886,-0.7444889398842531,-1.252460004532505,0.16741833856596564,-0.5685082549145585,-0.8297832663629705,-0.10196435764653762,-0.9970835023100207,-0.9399655815102831,0.05945936300559129,-0.4193181696664453,-1.4564879892849394,-0.16093414262660674,0.4172495503233188,0.03526413076658635,-1.8666377558054121,-1.2048390656955787,0.4889293651966845,0.08402077616558921,0.12181341284647915,0.7640728362128382,0.5223287741553571,-0.9937817443773761,-0.35158323781375245,0.6186281872918378,0.31375096584035633,-0.2543782346308481,-0.8867700407477,-1.5285046032595058,0.6900534571563683,-0.41952204289395895,0.12732496603595025,-0.790246995500953,-0.04623546528636448,0.2356385419647943,-0.4300592511159039,-0.7811081702607567,0.7263787705456842,-0.518147247748552,],[-0.15317689429858772,-0.6688882808782148,0.5263477669384498,-0.42476880714621595,-0.8803142239964908,0.38544795622668976,0.21556563559234154,0.18227293002433512,-1.7125314752335898,0.6692124060261582,-0.8462438366072578,0.07325292358805251,-0.8779179500585632,0.513030717095515,-1.3813339530267845,0.06181793459015003,-0.595333112132964,0.008007775139505704,0.44702985080518826,-0.6360777057223428,-0.09454900724429866,0.08283895309233125,-0.6108311904154502,-0.4466168421888648,-0.959506968028068,-0.7800764870969042,-1.0962768167683787,0.06025888807731108,-0.296537975843188,-0.8564515794685751,0.27241829801044626,-0.3877614996885478,-0.159113242488196,-0.16456862410196826,0.887256874058322,-0.36635566703154415,-0.5801486672672916,-0.9670261213110277,0.06162759038692791,-1.301894873950337,],[-0.07287225126369805,-0.4717854902483478,-0.02713689741434855,-0.017960741699879833,-0.3456434433963098,-0.28874899571409274,-1.1691210494669484,0.19845115692415793,-0.4462790302569365,-0.9495048569565722,1.1094424729504277,-0.009455472494187822,-0.14731981682967926,-0.04561089028775591,-1.0029736798943236,-0.695198001947608,-0.11455097627382799,-0.5911999386774865,0.04573840864052392,0.08270440527625494,0.25192074648709223,-0.9994001926624773,0.47073042616855393,-0.48216177091052415,-0.08211105798893244,0.11382146315153202,-0.06257657791388821,-0.8937225831008141,-1.3162669466747574,0.6256441871983287,-0.24616271010803845,0.5304231905353516,0.562041938369759,-0.7117701139863789,-0.1882483298964924,0.02838551291888938,-0.11736618144700517,0.24898464217786334,0.48353304371836725,0.060741348239582126,],[-0.11426332849045091,0.506697446749425,0.5734070264626135,-0.1439799222591484,-0.5224208277474127,1.1236281146734797,0.10841046520349339,0.26313892074953954,0.0041409231250398625,-0.9815346262834387,-0.9047671843759357,-0.9730281513363935,-0.7499657863063222,-0.8797561739638102,-1.213334244905691,-1.310630338549489,-0.18923508398532243,0.08601707189819363,-0.7053431320588781,-1.25553971930816,-0.19176092882425919,0.25435147342221304,0.09679958856071766,-0.07235734935753983,-0.5779922636345688,0.20989969556483296,0.590405677416243,-0.2882919292035503,-2.1153658552944363,0.5420799694334221,-0.37753207761816593,0.250933161526299,0.5992435147412658,-0.4760608222932033,-0.3231545977420581,0.42054506115615303,-1.580914064189749,-1.3050382717243698,0.7839352140063083,-0.8767225342828174,],[0.4430432144464249,-0.4829639583923556,-0.18591713554768477,-0.42079058265156144,0.267546004418606,0.3403558729537254,-0.2387729947397629,1.1210414384285123,-0.18484089084058297,0.06970569405061205,0.1488804536050567,-0.26955652088916926,0.09735898362581748,-0.6715984720131332,0.05662510497976283,-0.8156644473417347,-0.767705835852141,-0.1563883947250826,0.17120013739419265,-0.056420244792431976,-0.1611433934603885,-0.9595994702427656,0.37788812999806926,0.07120522380929452,-0.4521802482851478,-0.5579822047464503,0.46799399634197414,-0.6244124135858448,0.06845905094436275,-0.40668001421514,-0.8511830301125148,-0.1960861910190316,-0.39044353612615273,-0.5252249377966995,-0.39637228415987324,-0.9709387393191757,0.16955126768109616,-0.3838019366167152,-0.36021284735474074,-0.18426951123452698,],[-0.3007074919928237,-1.5113796136642275,-0.595097964716179,-0.9005019424002753,0.0528831247456947,0.7314618368707017,1.0416900319183036,-0.3334584947928071,0.7354613149978274,0.6560088194602037,-0.4584492644197749,-0.12146248831410617,-0.4609685233311856,-1.0339517267773697,-0.5160645434432718,-1.4243689436563722,-0.18642209551162756,0.26578919863789063,-0.5741081637576321,-0.011217349957338432,0.03783809196963755,0.11730601665625541,0.08620474378957288,0.7976972083794762,0.20620115933640265,-0.34869929638823205,0.4485765865853763,0.054754332691370394,0.1103914638901282,-0.6535829713018269,-0.43906872193670693,0.14614424374545815,-0.014337092211571614,-0.36415642604341925,-1.1165149459871684,-0.5360907060705328,-1.0338531470462107,-0.15698365991331076,-0.928625448622393,-0.8295012037318196,],[-1.0470735895678007,-0.43980156876675,-0.06633057284121632,-0.05861051962219583,-0.6829466417460198,-0.4253992010544971,-0.19814875271680338,0.09768856714166337,-0.08486959255310765,-0.10097863960344068,-0.1366564266930668,-0.1507717403932192,-0.21966774817872115,-1.4718158027648165,-0.32598116634386476,-0.5770724206621395,-0.7012651180786755,-0.16889886689834666,-1.0356496421511763,-0.5941957461076056,-0.2530755204781469,-0.2722501479756166,0.2566062249961175,0.24166974359795354,-0.7885569156528004,-0.63011993842443,-0.6569440218632177,0.07734600190382304,-0.09982045167307863,0.9158307362825038,-0.32278515802901336,-1.2238229581846434,0.44505997178051787,1.2712388064305205,0.44032172487582516,0.19206217243275633,-0.9382037272549336,0.45967274009978654,-0.30744841701663816,-2.1469521281497457,],[0.10555689762725219,1.04486414583712,-0.7349348353105409,0.554209434635983,-1.4275956061599249,0.5163133193077415,-0.10583339759965449,0.3761457103487415,-1.047054386427621,-0.011728100850131543,0.23919136969966948,-1.200147189567463,-0.5045287815342419,1.404285524715111,-0.8047996842004425,-0.1727879104445313,-0.039732316657440085,-0.30671130964533283,0.06565592376282461,-1.1112614648518417,-0.2763494115372004,-0.3464165269526946,-0.4104959699548898,-0.9513107766631266,-0.9890566858411928,0.030938612205706883,0.08749364681554485,0.005723215360457215,-1.2716431583379697,-0.24178678764319073,-0.4588931307150273,-0.1253346905193545,1.6854537133594838,0.020457339538044118,-1.5034955570983641,-0.502330552332056,-0.689731371545515,-0.3905610789924333,0.3785916552124155,-0.06890117824531365,],[-0.39672895803947883,-2.0313230608821913,0.4444222401968488,-0.027512163248901246,-0.590946109164766,-0.4110809968696948,-0.7336119896054263,0.3225101607234742,1.1239645529086242,0.08499136539506456,-0.5702322558974283,-1.0044468197409893,-0.952106443548125,-0.4056573279534316,-0.9754403585837949,-0.584392678188122,-0.1235040241753298,0.20924322784423552,-0.09818851041290193,0.6598427298395767,-0.29879830218088876,-0.3637665001425909,-0.36496479505344537,-0.7251608124204946,-0.4285870467235687,0.44062596994942,-1.4227333506693447,-0.0031110131242881728,-1.0288964992192262,-0.13034229669538971,1.9827135708426018,-0.3562835287586816,-0.33169392368952627,-0.38282784310224993,-0.8595189761306672,-0.4716276689406256,0.6195809280267738,0.7944051769996138,-0.42548313506194985,-0.3516349864920003,],[0.16027102169574156,-0.7396593797743563,0.21690925266407776,0.03449023945321068,-0.40583346138386056,-0.1859066072648894,-1.3243140583873245,0.113895228625334,0.392763215626442,-0.7944583896195,-3.071220562929974,1.1020104726126319,0.27880693639035165,0.09506465760717864,-0.23897806018284612,0.20654639531697402,-0.24532734138177184,-1.016894525417867,0.17537060267997376,-0.2300690318954688,-0.06416153949769579,-1.1199472731791658,-0.762279496306436,-0.5271643357087681,0.41643086609558355,0.0614045163350862,-0.011407544434345268,-0.1748417660386999,-0.995158971169045,-0.7863427385911795,-0.7300512010169977,-0.5263898394538779,-0.10564079723867188,-0.41824046430834844,-0.5197149048001809,0.4569782128399069,0.22235246895912428,0.11258338200604204,1.540585987813507,0.340512505125705,],[-0.3959785077747939,-0.8135111409058763,-0.09350666137163946,-0.6551590627849162,-0.23829621909779825,-2.8013222711236963,-0.7601682172138013,0.02076630430376883,-1.4607834571945497,0.9015874135510555,0.1973607445765326,-1.2210103268251562,0.5210321733350614,-0.017093304745561047,-1.472788002348181,0.7544001571408128,0.33633435821709573,-0.614343431697161,-0.41044215149443525,-0.9065306111596043,0.05544753737821313,0.24425491989062997,-1.0843555609769253,-0.57326571603352,-0.21888112500931098,0.9564148481976104,0.22493059134764806,-0.6127972328353938,-0.9999940898508036,-1.3489227774672474,-0.9479918588886501,-0.40470283546482055,-1.270592501252049,-1.6117562855800736,-0.5634622524792646,0.9744102694937503,0.6387996316010528,-0.44163311241210607,-1.1430224385199512,-0.4873698400512521,],[-0.40900436272604246,0.4061645093382401,-1.024657413667632,0.4444403598023487,0.5865260024055959,0.3897172929976302,-0.5026457552771383,0.04037846010080267,0.18116988697200742,-1.3503441862681236,0.6606077357278278,1.3400324190092712,-0.18160285528278705,-1.4743741816223246,-1.8141831335766383,-0.7799493381484539,0.17469216809260937,-0.08662260329058467,-0.29559658774816816,-0.36884856956339435,-0.08920747006928172,-0.5785450830772907,0.21656733058463876,0.3444552288298839,-0.49699381556845695,-0.20209808621608083,0.5438644383646267,-0.2208397809143042,-1.304430514044601,1.2397267692934124,-1.0796745922139435,-0.3050282259528493,-0.5174353824516019,-0.6707036594142703,-0.8850414923256851,0.0008768647924203386,-1.0818934974396035,-0.9160753777389673,-0.26453782835600764,-0.4614794913958294,],[-0.6155445054153437,-0.42569503156793687,-0.8232867322500506,-0.2578310687967423,0.03559076582491393,-0.13478700349530853,-0.1333961306058192,0.19103051837016688,0.0650384344275685,-0.08360704913704006,-0.18637331791651038,1.1183255793570757,-0.7608291478803879,0.28841997881852593,-0.4521054668539161,-1.119821358534213,-1.5688793653882016,-0.4317205243818201,-0.346044412907543,-0.43494804603378207,-0.36515774811561114,0.763807567607268,0.13844772219377632,-0.05058908844174832,-0.9705932896255705,-0.8511991766671386,-0.3047816988055205,-0.48506326974483654,-0.40267494195563314,-0.6100549337173305,-0.1715855196346479,-1.044932070712849,-0.37137692615720325,-0.9686461794201183,-0.27990312955319135,0.046403496661511695,0.29392010317698836,0.75228144864548,0.09357639280979507,-0.7121597414807781,],[0.24436321766174182,-0.9749303465537765,-1.534672722177184,0.23696808629782407,0.3234572423010195,-0.47847727340607893,-0.9245795388051853,-0.27276693464861973,-0.1342708721147729,-0.8038457145080347,0.010908031112571619,1.0099079920676188,0.00886846204339173,1.0109556714848698,-0.5799808717430869,-2.441400024656241,0.00007893758315247483,0.6532360236788308,-0.29260388901223416,0.7516874030861691,0.13831115321182572,0.08822470067858532,1.1412105166069837,-1.168436500902337,-0.6043772074485493,-0.17204694559592673,-0.5836834611289548,-0.5080605094543591,-0.8528979694096767,0.3321691690356318,-1.2270855156145684,0.3033566251432792,-0.4252513306997361,-0.6534246722632363,-0.7627465499929877,-1.280005023955202,0.06255944003556083,0.23332521601084463,-0.03952707384060908,-0.12866822570121791,],[0.12443748387815506,-0.5582290613233972,-0.8747830399332216,-0.011075173096977283,-0.08394286433926106,0.17600709572391537,-0.2330653807418109,0.4605928618610351,0.671614862097475,-0.10146511993561579,-0.4311195607009642,-0.06616743820116305,-0.4014615285752664,0.04569761432500179,-0.2701649862257621,1.4064407268119867,-1.340669637703796,0.039971382942421856,-0.20519800236886807,-0.5244895291349685,-0.6825100537332552,-0.3653374744779314,-1.052572663739624,-1.3611127341831908,0.19837548243543765,-0.6555506964148368,-1.3718200696361842,0.11938854472695429,0.013334497193603766,-0.34940230477786066,0.046619641353733816,-0.5863312316248827,0.1730557170653996,-0.28465515451405665,1.3630941603220292,-0.128110895446321,-0.7288574294783836,-0.41786514785785667,-1.245809237409947,0.27152024805435726,],[-0.8560238471215686,-0.951287424848591,-0.4476746775498057,-0.23330692892488353,0.32466308693306234,-0.401844108842039,0.03258192083868435,-0.3202590713195577,-0.13413241987670987,-0.2401286001282191,-0.057040633390028565,-0.28358758760152686,0.024515889714462235,-0.5977227525272659,-0.38265395340530717,-0.13147818987187754,-0.5485324507422618,0.6899540002695728,0.47692068018951017,-0.4413252075248751,0.7857347739988312,-0.33898634942229433,0.771366570594978,-0.2493846245683505,-0.3031832824084139,-0.6986796914160334,-0.3064978880307958,0.7501036713729319,0.03062529737297424,-0.2062032081479967,-0.3263012923962824,-0.25180952483307006,-0.49459637757349334,0.02370677840928255,0.3222406905623624,-0.8109483962398325,-1.1076182220321227,-0.4655215942117686,0.22609038670538084,0.03681175567931718,],[1.0704450416709552,-0.02835002323901288,0.1190499427653662,0.7859176315211439,0.6025369500276143,-1.3226147427480246,-0.8831381320742486,-0.022189455273557958,-0.11189848107631922,-0.21165728981063853,0.34322695906693795,-0.554022065014834,0.3352390732471264,0.3343163920349897,-1.3354738092565244,-0.30464106240046684,-0.7087483029157001,-0.6914186829208979,0.37302136585429674,-0.2336385759930816,-0.3783043009309136,-1.5954444917052035,0.3555830599438035,0.516497467579902,-0.5877274883948733,-0.045438323751845006,-0.1344256123937874,-0.07304756402415327,-1.1003717732903928,1.0045877671187025,-0.26234949373715466,0.5986368648750793,0.1429551709137845,-0.07866496215337511,-0.08493145566798886,-0.6298551461863277,-0.30720767487538014,-0.05970878002265072,0.37370031359383565,-0.1918029984249686,],[0.22518519727997394,0.18028773187167033,-0.7215159195461132,-1.0474104004967626,0.35153649532666453,-0.14280165159138172,-0.37193704033138,-0.10679044700658995,-0.8898289421656278,0.2751081055630188,-0.15730294710132547,0.4053246044903048,0.7257279032759374,-0.2575866282107074,-0.15009740606716354,-0.6822964727168354,0.15601747833207683,0.5025564763244447,-0.8447718198569816,-0.8433307608900715,-1.0627291277073627,-0.6591163502837531,-0.7657679199270709,0.1162767913378308,-0.9916124721497624,0.10744478779893239,0.5253579144654649,0.1230063370119757,-1.0504604455531807,-0.7517787279585142,1.0959570778318597,-0.14672518623995537,-0.7549103890303541,-0.34061905785162,-0.15300363781985923,-1.0143401908802412,-1.6203970179928928,-0.42657519078647105,0.49916116064412164,0.4686970380243149,],[-0.1314772887684809,0.5655904040227039,-1.1509366921413688,-0.9908017893330059,0.26754152907313533,0.37760437946100345,-0.5464058182937499,0.13426909216225244,-0.2274596666615076,-0.3243692085708074,0.8148825901166331,-0.40036753394810537,-0.4385941933405949,-0.9724475798416107,-0.3549074955259243,-0.16160370003498162,-0.5509682813084764,-0.47722163092683284,-0.5389398164035603,-0.1826780388017797,-0.16050806038245893,0.34320571203313816,0.06522776888441244,0.997938587156925,0.6232254023323185,-0.2803653955122067,-0.5130171668526767,-0.2788412646262266,0.487325009742826,-0.5629222573853504,0.3670958588029378,0.029614150158911775,-0.1260091302845008,-0.6624159545536261,-0.6924055706484462,-1.2459147024604862,-0.7327020742861056,-0.8446620888791091,0.3200879164669367,-0.7095782683589918,],[-0.2232576494596667,-1.0557092521716556,-0.46014489517713014,-0.26176177670597867,-0.872390545373001,-1.1592460669082638,-0.35367991728731585,-0.0635900568117893,-1.304322306750361,-1.285481023409944,-0.4679274947091147,-0.4572916781772154,0.8814536895386658,-1.2993882254479925,-0.84240089676093,-0.5269790128938573,-0.08505191651600816,0.6084648563176475,-0.33131193618948057,0.07185222097773583,-0.042202857440573234,1.6197275281414394,-0.4857851630250781,0.7577035524610973,-0.7770275883272544,-0.21280327445112152,0.5866221288609633,-0.30272448882427655,-0.06230840255866339,0.5000569905360841,0.4170850372531568,-0.24710280224877273,0.2234250150565615,-0.616592753867572,0.35684997883251657,-1.2670475840766693,-0.4666949818054274,-0.9617156560109583,-0.5343517538223367,-0.23429917934947633,],[0.08823906923032021,1.3529064819875014,-0.7221135247555139,-0.045243239648910145,-1.2350079947345936,-0.5929016872211357,0.37618293550204057,-0.010165868046725004,-0.17530290604832943,0.3571386411659489,0.20332188078200877,-0.460925128018919,-0.843908037152302,-0.5147342413406765,-1.1224056777619456,-1.411801943210495,-1.6996372240625608,0.2062861914867999,-1.0140562809482956,0.6976465698441185,2.1135074776881786,-0.1564588177910179,-1.7874840963709708,-0.13605393151953096,-0.5408840817261032,-0.7527002139151437,-0.4338487288830611,-0.9604300268833376,-0.1392440014852121,-0.33576166197180984,0.0557375034338498,0.1530045632506103,0.15165635503269173,-0.35854082173890744,0.15472136666782932,0.0553272795432827,0.6703484112508358,-0.1592429111468473,0.2318942393105116,-0.21436297110506358,],[0.6175399490821132,-0.8254018832962021,-0.038141178224178375,0.10712872600339718,-0.28243363528910925,-0.13320712563578588,-1.009574601908417,-0.7054880142493537,-0.10006017693704404,-0.4275353630197742,-1.4482885345960663,-1.0671399813717364,-0.9781341667192801,0.2932655543098564,0.129536392620415,-0.7092403817899011,-1.227565848200021,0.15276174623264113,0.11119268074685947,0.017013575085691117,-0.2355283412931329,0.4251419719993835,-0.07686446558243686,-0.37890154867041365,-0.09046746330711028,-0.6570484594923272,-0.28962030911423353,-1.4891596429925498,0.3569067218636369,-1.1281247869504516,0.15839227638293796,-0.1848513295621109,-0.9251117358121256,-0.040164052157998134,0.07319111194722547,-0.06251750610893783,-1.2180268206192895,-0.03723281634391616,-0.4060312496708362,-0.08451914935057696,],[-0.2102639961610192,-0.4780020897304523,-1.194339222573045,-0.40999796467693,-0.8000303360816674,-0.5805517219728792,-0.037126931688271754,0.0006092704718319603,-0.3380620179220328,0.33630453110864056,-0.02733861031590366,0.11914038596160378,-0.3746910602758924,0.6726430089857041,-0.5491711316298901,0.24727157633190006,-0.7183241242008188,-0.9016592250404409,-0.20779476603963448,0.4358932204619799,-0.5435956174965503,0.21500605008720847,-0.20381854873571464,0.03907912655927851,0.030887549812110154,-0.018103013744030533,0.03389117945979003,0.07264721803659152,-1.377778679027582,0.003402730718438518,-0.42975183701700564,-0.7206268409887306,-0.11265513277957778,1.1574905621524307,0.25119201969935107,-0.11679190974698865,-0.30195785073719256,-0.5719196632190783,-0.7026512812798108,-0.5073895680130068,],[0.13078928071606505,0.357882384901778,-0.9100273330388301,0.7436393912776861,0.5190678816238743,-0.35355363832094977,0.5854239512127356,0.12171205993957608,-0.3823605549748325,-2.333688598075082,-0.3629854439359247,-1.5966478079411455,-0.15596810721614177,-1.8988813819728547,-0.003621446447238873,-0.5399239993608642,-0.40142613115712866,1.4403848397426384,-0.10264100447439105,-1.1324995416111354,-0.44224558187938323,-0.31937512959423503,-1.4942633904783156,-0.09775296832063778,0.8799889351058766,-0.4559926192494876,-0.3803018224421303,-0.558407517102276,-1.0010496532904418,0.3701147502477756,-0.5794218386460995,-0.06392043371501004,-0.9249823869847043,-0.6938878907726137,-1.4912095079030498,0.5832295354243201,-0.04966214213733779,1.7765464193704703,-0.016801830203556363,-0.7248070783813994,],[-0.2907600263726773,-1.2613995794889754,-0.3425944246513126,1.7518773598587722,-0.005131845919934951,0.9065912199589933,-1.1999872771466498,0.247916217585073,-1.2733342383151263,0.01243899756317349,0.2965521214059555,0.02501561132970404,-0.08086416509544939,-0.3262000924364415,-0.6797310451839785,0.16879277475194654,-0.4060260552916287,-0.159959436632102,0.4761692727422383,-0.6101248454130442,-0.1829742962449475,-1.1315574981778216,-0.0872771017623327,-0.8292686369087617,0.5846386809945386,0.6252421289079668,-0.704003941517172,0.22868227522753393,-1.1104449647115953,-0.01839966338977441,-0.3255191716324172,-0.3569405280095678,-0.35189394867267115,-0.5020943991651547,1.1589848027369036,-0.9214422345909997,0.3704309376229265,-1.6485516153284883,-1.8200279619423743,-0.022373079730247953,],[-0.07172338158710333,-0.4293568017883807,0.1774900958739905,-1.5267784092410395,0.6663480125282841,0.29819274783888533,-1.2097947518898295,-0.2643696504270888,-0.8910989225492,0.24415888990847978,-0.5039228611089361,-0.7511785495857094,0.665957624169351,0.8910067519891977,-0.39445238517086795,-2.03219006016935,-0.7784652184596188,-0.11346933628223553,-0.5610475062684549,-0.25680165377083514,-0.08588419975533669,-0.7582741104920806,-0.3870211929957032,-0.892658283680725,0.5199434654496254,-1.2384924885772473,1.586771936780053,-0.11460341650634408,-1.3006693978955621,-0.9998820410593993,2.062458898679887,-0.4631936593176898,-0.026750384653577756,0.0004485062247638974,-0.40611164372671255,-0.5579443366752668,-0.14988517862220993,-0.35112104090433116,0.4044253053504103,0.28748680205204225,],]] );

relu_list.push(1)

bias_list.push([[[-0.34948792630114683],[-0.24132620548701153],[0.1951542219139728],[0.029413027070599645],[0.6939051289196623],[0.1629427940449294],[0.08944587248105695],[-0.492385968641518],[0.22953532267203733],[-0.6020590803528912],[-0.5566439514608884],[1.04273918293441],[-0.08431460585640536],[-0.43400567008138474],[0.9329611710430702],[1.1925793777634672],[0.0969416439856002],[0.6173675239791678],[-0.05661784871749574],[-0.1671668531395853],[0.3169567028265004],[0.5529642666109316],[2.360345691761698],[0.02004022202557542],[-0.09832018307460763],[0.1442837127609662],[0.12036243943347687],[0.16344779441119622],[1.1689221641191032],[1.0453685333436498],[0.8600826756801994],[-0.8107833099492928],[-0.18434565838987785],[-0.14078729303159943],[0.5885777520967632],[0.32028009989082035],[-0.0323298356817788],[-1.120587135717203],[-0.433367271079013],[-0.060513607013439594],[0.031908624728334924],],[[-0.5497459316538563],[-0.5494431380098586],[-0.643498349742287],[-0.04748570343601282],[-0.40004056882032085],[-0.13227815539500873],[-0.5597918574639661],[0.17686263676798494],[-0.4808314972579364],[-0.3475836746844371],[-0.37564853152803795],[-0.017010907899843185],[-0.28310526359503346],[-0.8017010797384096],[-0.2598977435213204],[-0.6899785714705847],[-0.06526968307193802],[-0.16578074602371298],[-0.193292499656148],[-0.06801802546780698],[-0.18901507044897584],[-0.5537986287520505],[-0.46793138156003694],[0.09172936516028775],[-0.7390314686806391],[-0.14468038180978113],[-0.7959600788444988],[-0.1345298611193547],[-0.5084373224416642],[-0.2475973289949966],[-0.5143489614630768],[-0.42612281659511864],[0.9260059238665738],[-0.6160728222904643],[-0.4071097618174545],[-0.9069133845397035],[-0.5072270822210087],[-0.3042243727628069],[-0.3231444662245272],[-0.04133170223355905],[-0.18045762820054448],[0.13455124956505105],[-0.3376385343575103],[-0.3566254222711459],[0.40527383955725604],[-0.04380277685956183],[-0.7818179918835537],[0.24999823322535658],]] );

weights_list.push( [[[0.02649562383343065,1.1822061022316548,0.24283330313845042,0.6012927201081826,1.4635231473123835,0.30046997048347696,-0.06100164187423219,-0.23092356863694416,0.06970270653965707,-0.011910083950048543,0.5377262847803429,-0.4467575914624442,-0.06472456378712237,-0.3044115527966564,-0.19703746583768605,0.2557752344196475,-0.5579180793279881,0.061141996213931585,-0.3954655536383494,-0.3014016345360021,-0.7676183923279938,0.0854329310218485,-0.18209122025977506,-0.15132666188921415,0.09320097293754125,0.07018077234147109,-0.32447621171922275,0.3166687286777958,-0.042270753840362094,-0.13363985758439537,0.29118612361420915,-0.7471275013409879,-0.1434590329441243,0.34962532878248276,-0.6404374249311532,1.9561774177951263,0.3973712833771434,0.49805195690739595,-0.2278052664565249,-0.14921779027156135,0.30547391707468563,-1.1816819261382463,0.015255027619427318,],[0.606281628694327,1.0237745648087782,0.09669945992893415,0.1601893494855306,-1.148272277019406,0.3621587902864744,-0.09402064766457541,0.3832323651995591,-0.6761576342696302,-1.6788594424686754,-0.32489408508368933,0.8049248567150964,1.593300652879259,0.38987020717739007,-0.2509025061897065,-0.7982884476885359,-0.022302538954109448,-0.4229572595125158,0.47868816121430424,-0.13876991400523012,0.1235620887855389,-0.9966169781609269,-0.4077798841414605,-0.6298365201370734,0.004150412324740075,-0.3665322796151002,-1.105386630810497,0.5768128254097443,-0.2425862164365058,0.23991623112277094,-0.37122616828113547,0.7070114108844652,0.14584834693365303,0.48319566856665835,0.10238964915497686,0.24185520050632275,-0.630613608716002,0.0809268445717094,1.7590894156009915,0.5211306556439432,-0.0012540904879027896,0.7536814145766778,-0.061205197870842436,],[-1.8639044876548778,-0.7034198080305479,-0.3779459055983891,-0.7786750304740758,-0.14970847423353442,0.15052760641985544,0.03209329219239527,0.427869360898832,-0.4632810450636272,0.2858671864852384,-0.04429245834659598,0.015487044796534066,0.29654061759016836,-0.07599977558789174,-0.30533887146644256,0.33395579092997574,-0.24576012578167603,-0.13722159124314043,-1.6298119567138698,0.14602850974445727,-2.074646864411468,1.1148325417166192,-0.630874177772158,-0.4540488957145854,0.5364222022463397,0.09161788382690073,1.028552277223864,1.4897292069375156,-0.779602439037246,-0.11013155647418409,-0.5487407841786701,0.245958432476428,-0.013904555323478337,0.32063567094136014,-0.1966866239245749,-0.7876255423877215,0.02994962933668519,0.20865824285892096,0.972735525087205,1.1272965590759414,1.0122221981649424,-0.38447361104104333,-0.43073141156562544,],[-0.4283044226241404,-0.04404677258067239,0.13120538724875766,1.831600307945465,-0.08145420517156511,1.5175232286294917,-0.03241493059512927,-0.8333827993885173,0.5307711356535466,-0.18691443770227073,0.5363503711981303,-0.35145006563701126,-0.40699221748761344,-0.09275610068190093,-0.23801546119762218,-0.22349282620461974,-0.40866666640852534,-0.12353234403910393,0.3151711609642788,0.32378408715137746,-0.23020666231266063,-0.514921945606258,-0.5694315716976286,-0.32856744070476535,0.24601611942633259,-0.3222941851332249,0.8249527866538783,-0.12075192226418155,0.26115579511438675,0.49519282382327734,1.0190743176645725,0.3881823027960152,0.8776727502963962,-0.48354346836498546,-0.2792701913707516,-0.38326637682873366,-0.45635960887945776,1.1744843015208153,0.1488542049600769,0.29513186515023615,-0.4251640175150061,0.31233624090738926,-0.2872637133805488,],[3.220542684564316,0.19436506364792488,-0.013670430112803708,0.48322010770385754,-0.4047986419369641,-0.02179694062968391,0.48662051718153,1.5914358786774512,0.5321789265554776,-0.8020665897199581,-0.0054688785911826245,-0.6469359549658007,-0.24203908560975632,0.03788411871838223,0.038793624751592405,1.7667412003255887,1.0221686959651868,-0.6926989426439039,0.3348992229554238,1.1088829609884414,-1.2704223558421892,-0.123153760064857,0.08424568769754276,-0.5971236962758877,0.3454240283267943,0.12340680073326915,0.03278269144088188,-0.22900056703685542,0.6300494160555009,0.5431650043928197,0.26220844555128536,0.8337813236638385,0.5504921406597406,-1.0422772042037136,0.10392215906005473,-0.44733003726333276,-0.6084139820770507,0.643414282068128,0.28475235987234176,-0.9355768874481719,-0.1567834339791312,-1.1315162090158346,0.5754395459654235,],[-1.9110502529292968,-0.3314265507602113,0.3263057088856891,-0.5520851229990432,0.20733786337677218,0.522758230853857,-0.005749297287696941,-0.0851166302518517,0.30400649937724283,-0.4586865952515612,0.5488672416011463,-0.12781877811832523,0.3585832159129356,-0.13613223818818998,0.12304744022098281,-0.12549782114997218,-0.15364602399382876,-0.3091137212997792,-0.37231896348240445,-0.9394971879790559,-0.1621753815605322,-1.6245082426594992,0.24306119007499366,0.049701515462619944,-0.1428373646709587,-1.0866619401681252,0.7052648731003435,0.20805072002817807,0.002527527970120013,-2.1958162249904016,-0.0689176989702368,-2.734908136574158,-2.721841624719503,0.9361925017819045,0.12796063787909293,-0.047146469250231755,0.21191835291733901,0.198181776528577,-0.4062253105678253,0.9105549131892666,0.1092241005471404,0.7581840252322142,0.01952863028346118,],[1.860049621322012,0.2855540541740857,-0.3852601228628135,-0.8462141200699012,-0.22507133907483595,-0.2757653108436897,0.3427016496527774,0.6868824391893136,-0.30549256025435795,-0.9166086239637884,0.4831594163603847,-0.23805333129342918,-0.8513471075266894,0.4841015722721326,-0.1499651722832062,-0.9055085194951558,0.3120540137190755,-1.5027765132721296,-0.3986019255369508,1.7723372137215045,-0.23524593211395828,-0.4416443414864411,-0.17185042072985593,-0.3798966364640424,0.3097059481215186,-0.21174421172758182,-0.06775968933425505,-0.04287681345980337,0.34361224667598383,-0.02119431293197295,0.24616742505663256,1.1828811448652663,0.2418670468525898,-0.05809058094980053,-0.15902450601357143,-0.008641973069393287,-0.4269869751193431,0.1605324920775405,0.026383324974192223,0.13188330107146304,-0.6420833512015783,0.06744222296220151,-0.3212608269372784,],[-1.0664811132661471,-0.9536275625011782,0.2766372474938663,0.4149739094226862,0.0657216382435281,-0.047306867454039205,-0.07017742060885832,-0.00636341419145406,1.0350501769952574,-0.9396697865864799,-0.02288147144592241,0.11505017441897622,0.7020540676996266,-0.46921530881681905,0.05818323634013143,-1.6588399054576715,-0.1465393806356963,-0.1442924263929902,0.9738372290385877,-0.12421536440008496,0.3223345551222815,0.5161790498766932,-1.2023665983842895,0.7549559492129899,1.811583251650336,-0.4763467637706091,1.0217498427648009,0.7258020389414955,-1.7751803238775787,0.4323938491902814,0.7685600422010896,-0.3105539462727829,-0.8691803357377167,1.0238076446061783,-0.03411633040573947,0.2535066571351253,-0.7728307568522432,0.19743211471726715,0.02297275158248099,0.9005174166448704,-0.2278846383266399,0.49666640428984715,0.6264903564266258,],[3.0408328786201237,-0.946449029155608,0.0718882739425223,-1.9957309311855365,-0.0891667728074634,-1.290586434101121,0.6146466285180556,0.3983677030656495,-1.4516255954948876,-1.3224267044415974,0.08281590660874973,-0.2986859135887705,-0.22880949235441592,-0.06398865676865582,0.5428418022834274,0.10416873413823244,-0.058184252797304124,0.24448657734170856,0.051728874490496346,-0.6251872484170179,0.8602640010519141,0.31703070378840675,-0.4400566098390362,0.013489328680340907,0.2704291015592157,-0.7917664636376693,-0.20301528946275818,0.510338909861413,-0.3106419329830925,0.8133668166107383,0.3489323787360438,1.924332873039633,-0.801231804877684,-0.4629935144857118,-0.3046791998039281,-0.019978812062660053,-1.174866277750751,-0.7332822508015474,-0.9444654690832157,0.10496430608379514,0.26436152067228924,0.2780853368881703,0.30493903642468945,],[1.1114553583430455,0.04784239444329356,-0.048484182862608596,-0.24978187558352144,-1.3330340055843435,-0.4471334487944186,-0.008375246740144485,0.02565337520588035,0.7822979222990181,1.364738214654715,-0.4079699932025532,0.18892409775759675,-0.30892385314959625,0.6024146457976189,0.48157051777876103,-0.32779425524309097,-0.6299306413777186,-1.037668986435738,1.4088711657190245,1.1808609750782937,-0.42395602896682016,0.9727238312228583,-0.6445988296654565,2.27146070804115,-1.7755714970367245,-0.9354130732396214,-0.4458222393485861,0.40554731077921596,-0.05980319863465032,0.12348065148441287,-0.2259798356250445,-0.20457949557241265,0.6675764494010956,-0.04806924826118929,-0.24865368413059608,0.14297087682795834,-0.29278952919358286,-0.578085348673754,-0.25833956124933066,0.4864997171453363,0.09310918153551101,0.11681084532672763,-0.9642060908457447,],[-2.0215233835999338,-0.004094983079127508,-0.2190194241569197,-2.0623028808822816,-2.6085877872453502,-0.19295152851003652,0.11473073606393461,-0.3227309419301502,0.20852475522436995,-1.1038448376749992,0.9881188242847958,0.5798323598679054,0.8563081483594439,-0.19565437589178422,-0.49750009705266707,-0.6326391485714911,-0.8867951606313483,0.009628943545833086,0.6888199133912594,-0.4096899987235149,0.32159492107791665,-2.4580476142136427,1.2179501110309878,1.523524890769995,-0.14282995965392317,-0.7570590739595505,-0.40270359681082624,-0.26040737397861197,0.9714662084076359,0.606901516089073,0.0313631727779802,0.3688042531172748,0.5407754780875137,-0.4782488205364254,0.38014118257877205,-0.43502282780293783,-0.7150197774030478,-0.16170293438168587,0.5767928040153784,-0.1163110429541263,0.20717531535945494,0.05739157144403485,-0.9445355122034824,],[-0.7709450514697026,0.6081532815298499,0.0853246260897979,-0.04676566893711504,-0.01713286214330555,0.6023608743234679,0.09520430641405458,1.075841737853489,-0.5494474749839621,-0.09280851213878918,-0.7052298055912278,-0.008495021568996003,1.6707237734939826,-0.3016053057641201,0.5005761647827578,1.2842622055313633,0.8371108037137842,-0.22848249497201986,-0.7562002639943171,0.1843904036360728,0.04675934237901314,-1.3880210844951681,-0.23196985560471997,0.7062525033635771,1.6895330471123644,-1.022654683811822,0.7502605208441541,0.16043285487375014,-1.3420631921400104,0.03447830452100058,0.2227772209844062,-0.23005747844849894,0.5590576128901188,-0.7502197730712598,0.1927067654969968,1.1301759719115714,-1.0009035458824367,-0.6019194160195555,-0.18400785731461766,0.18286634440007687,0.7117684852728569,0.21580578401272638,0.21959180033815745,],[0.985600184774955,-0.8904023190641217,-0.2846616891992364,0.13081779338450075,0.5037249703262384,0.02255917498133154,-0.1236590402176638,0.7882068783117128,0.7707722373421355,0.3846215686787594,0.4208650743984452,-0.12668186553685135,-0.16515229657994954,0.5957780538824026,0.6917503308665114,-0.15581762628833404,0.4336290106313759,0.36184046502518935,-1.8447761849012374,0.02946038356765982,-0.5065641292117861,-0.6757305584051166,-0.3711485638846295,-0.25092219980539016,0.1740195646487161,-0.04384534224094526,-1.2063050910659738,0.018695893764660985,0.17269533084940328,0.325665631272133,0.5104761632380292,-0.1060011092875548,0.5554205060694248,-0.11998417200691519,-0.0671909875699797,-0.0928584135016646,0.8348946035150451,-1.4501327581866266,1.1357984130542014,0.6774029431786904,-0.1266518228782044,0.9100707429777734,-0.954499158683765,],[0.11858981453891028,-0.12765048194797188,-0.3616903491423999,-0.40500736247444113,0.13479586817853706,0.5760739910183893,0.13553853499349677,0.41701381866862064,0.17574103254853848,-0.08140314555423142,0.14178087539882803,0.15090275781458376,-0.33770531752479926,0.03256307494630034,-0.362036919416421,-0.36756357098427694,-0.3407183430683798,0.10664281628912424,0.03595122528715239,-0.3474561795676954,-0.13531238634082565,0.24582369306167942,-0.12953972001943553,-0.04806633905510045,-0.14004442191174066,-0.2568368993159435,-0.16354035757593302,0.27292148428559054,0.1235229721221212,0.08954834349889916,0.31138058972921184,0.2771659135919859,-0.33593190115559923,-0.6012323332328182,-0.10763968576295604,-0.11539686709004507,0.05809953752181174,-0.24467445927209835,0.8572798113406879,-0.6202812262044128,-0.2381563627350079,0.15295081880081535,-0.1803126903140231,],[0.14204238764614935,0.5339768185722088,-0.2091069561122487,0.12418943237539294,-0.7447183666424588,0.05102624569181835,0.1329797693260111,-1.7564213015759815,0.3832348865548848,-0.43383759791330734,-0.4580659004576911,0.3599551752661223,-0.5573803888832551,-0.33039534802997844,-0.2387850385506153,-0.08385427376561008,0.9487472129685476,0.7850988312332885,0.268527271608948,-0.6661121280050322,-0.28839186011652773,0.5047796464583304,1.206109296462249,-1.4116300518259133,-0.37848831791276005,-1.9200228979533873,1.032869122369997,0.5260654930782265,-0.055703130690511124,-0.5525479714755555,0.8854962108485084,-2.0586146214460057,0.6651537087869436,0.7380721191852869,0.5105899359039002,-0.20367500521761867,-0.07004633593556105,-0.31973002235861053,-1.3714408820863777,0.13278023351274987,0.3357378103298451,-0.7779802855199731,-0.2752897243447413,],[-1.1007895225905855,-0.16440893516515587,-0.06725409013348904,0.38569571623336363,0.6571037715136745,0.5697158010989593,-0.2373323641629644,0.26808351306421,-0.45616560756556973,-0.6681448293017854,-0.05590507435528165,0.20939829548211325,-0.4600122195605887,-0.5074268023725247,-0.2240439971164594,0.13657604776876758,0.4243022555882892,-1.138685353234048,1.1302667510556865,-0.1648561303116243,0.5619764731943643,1.8691009643752206,-0.6633653732231038,0.10392305406002139,-0.07387643550631995,-1.552154012756759,0.3197835154667915,0.4719439361573983,-0.33671449945946286,0.4121763515414011,0.3250491647309094,2.15632142962179,-0.19425620058604348,1.0426137981608292,0.17591220647352904,-3.9454394429152617,-0.327364730353446,0.3009069045645069,-0.2128238667993331,-0.14702591273759738,0.47146808983590593,0.5685828395000758,0.322365329321805,],[-1.9901605634763244,-0.056792486708979004,-0.35361629993565846,0.4568115380022794,-0.4794286307357901,0.5050247094254525,-0.035013437719342407,-0.23746084337191198,-0.465006782799851,1.1406929441871343,-0.05069343699539594,0.2326719297267756,-0.4324152490897318,0.3348513940941255,0.433301684327556,-0.42460489749993807,0.7042152354492119,0.7478522414753863,-0.9696840497565604,-0.8805892005858816,0.3395334756393684,2.8728841995036505,-2.9047294265416825,-1.1797610261071354,-1.4883061744143928,1.1451631318560012,0.5113165461060246,-0.10785244623716843,0.8649001455819494,-0.06741812086161378,0.4351912691585214,-0.5248259535707257,0.0365420932369039,-0.783878330436064,0.09949018828521951,-0.10199732518691466,-0.4844224474025903,-1.4451926993308715,1.8021255123046407,-0.5375396748781481,0.21378612584475146,-0.6576763155640584,1.2227895699233926,],[-0.07490468001118487,-0.8865323197403212,0.24194906909248004,-1.3766551038633763,1.6341908903303584,-0.25290345096651434,-0.05392693479724065,-0.8383457704332204,-0.38553306186775893,0.5176840008280804,-1.07071602194084,0.23357710819426117,-0.10478065542865536,0.0882761347879849,0.35384298231578193,0.2148656394207933,-0.11276296377518673,0.7686648522381234,-0.5228766672478725,0.03216297194194569,0.09870749912798554,-0.7523549477379375,-0.40881909858547805,1.1841731467413263,1.0283788004284702,3.6572504414153295,-0.44366870951621157,-0.7816406768682496,-0.7259581640866958,-0.8672547829446321,-0.3654902945793546,-0.29110623535057517,-0.08594135364498122,-0.6381663583153355,0.06932327745384212,0.3657088617775724,-0.6183485635318914,-0.7151496939496407,-0.20909522588602175,0.0073629950483915735,-0.3202021504245307,-0.2913348148451183,0.25603971117826607,],[-0.5176421468249414,-0.3896036714504075,-0.4508947060907475,0.001027563637661436,1.4174537230137725,-0.2801609010556312,-0.06240978016290095,-0.6494981362328467,-0.4493102322955277,0.17181782551551908,0.7686266751461792,-0.12887997344585247,0.5206394057134718,0.00011328984422900813,-0.5862799601666026,0.5173499528475711,-0.31699575414460734,0.5065376933704352,-0.2051596902597622,-0.29583951833311634,0.42297523349216976,0.4236353120719797,-2.6678771550520466,2.4684557551217954,-0.8506254618214381,1.728013913515094,-0.1286416007537794,1.0554834759656406,-0.4905878095952453,0.08417119636258978,0.5332268196646401,0.22087027695908565,-0.5681603221797675,0.3131194900296367,-0.3877771001534663,0.5878387737806315,-0.3118416072701703,1.1427544201217688,-0.7785848774569448,-0.15497427459459465,0.5074742564958756,0.4855385318265385,1.212072467304723,],[0.06786702069146751,-0.6217724151704874,0.12319746296935857,-0.10915606896262071,-0.4279635465444729,0.31445590988804334,0.9210229104947204,0.3864819272590622,-0.5803066422016007,-0.083310785445739,-0.11638104328869558,-0.5026452645571384,-0.4258662553497231,-0.22631423171684348,-0.33052455912963863,-0.03320671443342717,-0.042316513713466675,0.08313726841638067,-0.5016874092353115,-0.10873775426706242,0.6965717160465374,-0.17456147998018384,-0.6394721990492072,-0.41911520656558165,-0.019109533186109137,-0.7308275438009388,-0.22626343456820744,-0.48837931819559954,-0.023961795550953294,0.49168685179043764,-0.11791725554906218,0.018948347302748216,0.7179758423205485,1.6044515624106825,0.31887356929412786,-0.46926100390474995,-0.16832955480958922,0.8497044678922476,-0.25537548462067805,1.5610283152689715,0.09872844028416915,0.6169319849635501,2.0313165398735853,],[1.1766205400466103,-0.2620307559854133,-0.11165142252094441,0.5540496972617046,0.5702007573878815,0.047937632401885574,0.13702081917635808,1.0822365967174052,-0.25680178417844507,-0.8065390901808948,0.1382227133656919,0.06542310175765854,0.09649130108878999,-0.19338766404751123,-0.12388870743874633,-0.7785108633002081,0.38545390885552083,0.10326824011604034,-0.15618187179556436,0.06110714130288191,-0.40198593691513945,-1.4210671129944341,4.659606634101126,-2.358341751884095,-0.9203935760611852,2.697751608144864,-0.019269963671075627,-0.6312446841530127,2.183320349089492,-0.07253351893012894,0.07677087942391511,-0.2882577980360536,-0.14505539788090285,-1.0589902774245383,0.1302623984044204,-0.07609230643001837,-0.32352827309301035,0.10897664004076549,0.08973210032219393,-0.7965531036742434,0.5497631489033508,-0.24481328841551,-1.6885237302622844,],[-1.122389050682452,0.42240596665643176,-0.14723323438701783,-0.24380623254480957,-1.5029629869389298,0.4477581234248324,0.049464335123684894,0.09910803198768173,0.5278845683178581,-0.08700404721030203,-0.0698328405903358,-0.19370929042136412,-1.5461684800147426,0.04678141918430486,-0.19236770008293155,-0.46753359890588986,0.4859957245538546,-0.25672494110145433,0.17625161408688766,-0.021548085341940658,-0.2948118034084037,1.4750731682747764,-0.09635227415676506,1.7673158474053214,1.3274826734155427,-2.1507571422817255,-0.8892908014543026,-1.037497140323878,-0.8024908695731713,-0.03819958827671059,0.10004065597565838,0.32708567951686024,-0.050920271137756996,-0.8573695352953923,0.6030989345895672,0.7016764911625712,0.07638580660180713,-0.23061396817790292,-1.0314913167660875,-0.34385764046657097,-0.030684680329653203,0.40046311128417666,1.8178337897109345,],[1.2786737967737702,1.117707997303066,0.2602267188677812,-1.3374065477034713,0.639449977150982,-0.0016565822437587198,-0.07514460394017802,1.3631672737857357,0.09191827094873987,-0.6417068376119793,0.15617823174990958,-0.16325646615922895,0.3206765294637602,-0.14791631070455522,-0.0537145333776171,-0.9806516153947669,2.1586916060968324,0.2150991851854233,-2.8790139576385845,-0.10983198561282653,0.19897305751144764,1.0695925623015876,0.7319818304337182,-1.5641008933888016,-0.6859643292826713,-0.8115792527495792,0.284708527583609,-0.14003597253361258,0.9659905799677334,0.5279565711620089,-0.30325317911190675,-0.674690856518214,-0.4925400617300488,-0.6590248366490957,-0.148599267110176,0.1140098342453778,-0.055718615170746576,0.6055900506861849,-0.9450114200867437,0.1265653981247269,-0.09672048019515493,-0.3975347035600482,-0.9477891511692946,],[0.0014721090659900696,-0.7528697843604486,0.054741795915173856,0.5264594315109011,0.17175068291048406,0.28176652732194263,-0.14612904845415356,0.40991749058121935,1.6397875296055382,1.0983330942348666,-0.493666381265913,0.0009891540963547576,-0.581286939101555,-1.1218011239831658,-0.4759999749969753,1.003738265907089,0.4880246853496499,0.32534414878786216,-1.220949803978577,-0.30116360024536715,0.40290117551465565,-1.8841173241210172,1.2338176295116219,1.106497770462889,-0.6102226468612231,2.921106078855826,1.016170114639499,0.679749447457829,-1.1508159808909062,0.4254826859014276,0.13586030967680357,0.2120038465999162,-0.5572074876966345,-0.10841158844209133,1.0397231240014655,0.08355462471902876,0.890973668480704,-0.0014750347128815906,-1.7724808742807503,-0.07525811813952132,0.12269695941646358,0.04142444829647248,-0.6163369137413504,],[-1.2257834073294496,0.5298267286096592,-0.057977377189586496,-1.4747433493079634,1.6112803657629198,-1.042526008335195,-0.22965216821671414,0.409017364381774,1.3036331311274405,-1.0212962494502387,-0.1319254428684529,0.050053587572635845,-0.8822952570784864,0.08975319945451125,-0.03793491366944639,-0.19123576178450089,-0.0013937041008699113,0.34818905525543997,0.6065287305154892,0.037397895514386166,-0.08078837970542577,-1.8197228666275567,-0.28230771279365524,0.6346140003958097,2.8169974593079976,-0.02275972768820087,0.11691643053193573,-0.6304386472980545,-1.372811109425734,0.22231442298438112,0.07342977360598708,-0.1341207879293891,1.1687611318808973,-1.7584118656588053,0.017263053030806733,-0.6848062189895797,-0.40446198700451264,0.140620797214305,0.4583657892697866,-1.0222955224977457,0.7001116583883452,0.6268485763289028,2.325178390282062,],[-0.8355396728001877,0.3067537501159449,0.0035601202706510003,0.1675334529248016,0.24365037177911938,0.24941075561788803,-0.20077661542140132,0.36580229858595303,0.00794894593351603,1.448886966346336,0.040182938476343584,-0.704996510202958,-1.3712869572487685,0.31607042283216236,-0.07917092293560093,-0.27403398162439757,0.08267111577222955,0.520861292361779,-0.8508514757652456,-0.9343798935093348,-1.1745834365665062,-0.5532436648806853,-0.22988506594321598,0.38701883114461916,-0.712461799688132,-0.2826945670444395,-0.1052893008265746,-0.5177380585522307,-0.8212008723933306,0.10824283187394375,-0.03561904960009838,1.9653761512491912,-0.02965316305395589,-0.31793880617461245,-0.21693186152778451,-0.11638322983564484,0.43061690535677305,0.47036371013403294,0.2795320552209627,0.373174548391384,0.5139150182726605,-0.4088880040415688,-0.5642652309108047,],[-0.15366092559492492,-0.7411842424255725,-0.39341344931447525,-2.0211316082149358,-0.7020922366652304,-0.8354561153408216,-0.017106338971629748,0.3783055723806077,0.16097813599921867,0.87429332882151,0.00460414324347526,-0.3060787344502422,0.539050514490783,-0.2425891362551822,-0.3594540357692664,0.4831290264978145,0.5531218397252051,-0.2975224363282477,-1.4370322009801928,0.47533255879536807,-1.2346855823534104,-1.5845527553316032,0.11965433422199867,-0.15059830499487906,-0.22411651680788244,-0.7113541302126895,0.5263413323728571,-0.28995533473118457,0.5774634458714119,0.3705835196984341,0.7241025117052863,-0.1258307721910896,1.2068698212850122,