var hidden_bias = [[-0.025697202412182887],[0.49369643749142744],[0.23912268041587978],[0.24763282303294573],[0.005829531943673875],[0.4939466941973346],[0.19850517432546685],[0.2225252603226895],[0.13411775888543198],[0.08168229213807668],[0.284282255160604],[0.5882786841433704],[-0.09305428219127528],[0.0925556759831022],[-0.026562414041080874],[0.048692304803252644],[0.07028020974990805],[0.2649454956618902],[0.424334699231573],[0.32424735553824235],[0.2877095006775502],[0.6348593535725884],[-0.23006725575780324],[0.21219803145995736],[0.0052617131305027],[-0.11997408414392134],[0.14690526806119467],[-0.17807302930993393],[0.00733344528663223],[0.7003245297658994],[0.7429787621605687],[-0.16928716080749362],[-0.09977574848375981],[0.20108624314045073],[1.205230262125591],[0.4627704578058235],[0.189545325709023],[0.48938507359947114],[0.6018809126049977],[0.4678425371831861],[-0.22955573352232608],[0.07932440741051858],[-0.5158371012835377],[0.32397190110301943],[0.10965255151594885],[0.5953791009803294],[0.4230227943762213],[0.21005389189497062],[-0.23758071175777587],[-0.36732041622795414],[0.5122508367160772],[0.035645307335421025],[-0.083194492375093],[1.1264718509850473],[0.36447153804815313],[0.27352589608733996],[1.8060570522789186],[-0.034715970028149294],[0.6165939331280385],[-0.14593570569088776],[-0.046062623077414565],[0.2816053196280397],];
var output_bias = [[-0.24933073020351265],[-0.2574458642236733],[-0.18216060270719375],[-0.2876597517923891],[-0.017437121015089877],[-0.17792768733133935],[0.15538642769639052],[-0.11725167691296846],[-0.2667582253029149],[-0.1437825723105474],[-0.29977756075579853],[-0.18736916636696738],[-0.23909302783529768],[-0.09154261345145634],[0.14703813515344466],[-0.18560550078291424],[-0.24628541357595016],[-0.08154993979003185],[-0.0034278601208864302],[-0.15772225051842756],[-0.21986894494387862],[-0.17588337531276288],[-0.17686656105477655],[-0.0690749246793597],[-0.2592063987749034],[-0.15492649494856192],[-0.32349012815176675],[-0.18649119889408305],[0.07916889701808805],[-0.1857797102687177],[-0.04209346424749392],[-0.1087992684667229],[-0.33497886247553116],[-0.21558784454782662],[-0.19562445442778817],[-0.29147019769878785],[0.07702501532765138],[-0.020894763353100018],[-0.2732361060378033],[-0.2561242808839521],[-0.5209011215474234],[0.06313589630512757],[-0.13816718941994516],[-0.16825146637764088],[-0.18234678586045303],[-0.07689985598350843],[-0.08488186292748745],[-0.27453195484669046],[-0.06678872177850907],[-0.21614464263345382],[-0.14630141253340453],];
var input_weights = [[1.1065178940688492,-0.22594260781165593,-0.36141339222883256,-0.8049444391608255,0.6423472259342835,-0.6561206281356614,-0.1241227053924915,0.12831134640176264,-0.296019939447642,0.19874434457210838,0.04011011263740868,0.26273942343469736,-0.43182487606643755,0.30964963199811724,0.04589015544246886,-0.04558692600813132,0.05865576027908431,-0.02652266535087092,0.07286470554260606,0.40659469592240566,-1.004608271530863,0.0006014928380991302,-0.5154936378867192,-0.5263525621767676,0.6787035643847719,0.7285756889542118,-0.5249040885437501,-0.4170025592568865,-0.10824165610739553,-0.29568753330065084,0.05521607483314481,-0.38844602945516765,0.16808213577425626,0.2420205931371394,0.047196743199434746,0.21775069594370647,-0.620942303454458,-0.07901629244096246,0.3971449802610634,0.04462625795236246,-0.4045415021260055,-0.4044842797681076,-0.509788923245521,0.545936495461938,0.3397608989498546,0.21458797550377656,0.32736962011552617,],[0.07549047828252456,0.173583644505436,-0.23395134114265537,-0.05483225061254794,-0.8029640692367659,-0.4285909150236036,0.21145497676566039,-1.0673710461663444,0.3897400603846414,-0.014059760981686056,-0.06518334209175318,0.24025908227880038,-0.27323941638121985,-0.08728394706540799,0.15564675640525638,-0.4046484473573515,0.14973469238840997,0.39495279176118503,-1.6564012001714883,0.14785471573851952,-0.04440412353564174,-1.5155829634484865,-0.9250806704201711,2.9088480050121426,-0.5068492687986651,-0.5229947589500104,0.10629006770843936,0.8940176678303889,-0.16687911129348332,-0.27995741922213446,0.6305772834085236,0.22957980969108943,-0.40407913845768767,0.007795257219747755,-0.02953004324276448,0.2862527031583327,0.0873789632861079,-0.1513592449004252,-0.4514611479286015,-0.027804729177330515,-0.11474095392961844,-0.42330496387962224,0.022000423889619293,1.7844985682513808,-0.0710661435380048,-0.1917743217865687,0.10677544174732698,],[-0.45031547763588237,0.05885604500645909,0.2748740331025507,0.1530686381785941,-0.5058479364839543,0.2148006524058563,0.19916051827079487,-0.8258947058020084,0.0074459698884740645,-0.20744217278202984,-0.4602939516754807,0.3042719137362861,-0.5203180260607491,-0.38513884012041344,0.11610732388538485,-0.07428773214245857,0.08017701110477678,0.019953138235607324,0.10133413780610967,-0.24204070322063456,0.2561411221908989,0.6262428666101856,0.4404268367613009,-0.20729262708052001,-0.3642198959906228,-1.0681399388694186,1.0378577842699686,0.11280725840107765,0.3112783624618567,0.03675877544921601,0.267874037984898,0.23906924211314334,-0.03923248874382421,0.4539500530715408,-0.10229613620658025,-0.14310227138620948,0.44405153594583663,0.25709924118713784,0.5983154658480513,0.8902722544935663,-0.053428346494259045,-0.4656913579983284,0.0694503556489198,-0.8661473559296361,-0.5028071957561665,0.31792746092858865,0.14704717867380857,],[-0.32117166495119503,-0.6099220413501624,0.670444135394366,0.08308626390048841,0.6156025093093764,-0.41584839537823626,0.05899798270719305,0.7763299093938605,-0.6616645026323174,-0.12481066611494566,-0.2476710961832369,-0.2494603797627746,-1.069606391178027,0.19008191590014487,-0.17386673319573973,-0.31140779884304676,0.0008400652661165717,0.1555540720943721,0.1911231226588483,0.16363587452214656,0.053079331049739026,-1.3159084059440391,0.9622962431367398,1.4976362482808747,-1.275473442136506,-0.8082251498004426,-0.8724091920883003,-0.2811036818284208,1.6206086165887839,0.3873010493340658,-0.7581416868728331,0.22961975464018594,-0.056195654116196654,0.5344822575961014,0.08799215576815335,0.01234073288144377,0.1132676471384088,-0.10900504950855745,0.3776969697921898,0.19391360772046162,0.007832861483740187,0.2387324005755825,-0.14109172579688575,-1.182878304907537,0.0027684609187528047,0.27994288287624297,0.06732801793916819,],[0.20481217143373412,-0.38539894092799865,-1.2852753611520211,0.7489195433110994,1.5959771596623602,-0.2920312627147074,-0.7225179926989278,1.1500806194849214,0.05812905458917394,0.2269336312779267,0.052704978901714515,-0.008452094941961443,-0.600555425837662,0.24513266986625545,-0.15941873569145712,0.6155254601885222,-0.013269404205979133,0.304227103175439,0.025498998501796086,-0.19084651548583037,0.395517302651542,-0.7733985987346736,-0.23420581134667015,0.045968065750651474,-0.8962383720697162,-0.30011808431512027,-0.31279888156692104,0.6969080466238076,0.7917209091899253,0.2518836249836435,-0.19022131623593405,0.020313464310422715,-0.022384339805918863,0.3530300806258206,0.3933635465080371,0.15174381590572147,-0.6300438944660145,0.5094829368847789,-0.6654225225871149,0.4098887111911532,-0.05520811422541019,1.0736051081298557,0.12091574741119725,-0.282993247508776,0.7359238472687782,-0.5240552454135835,0.45942074573772307,],[-1.1602073941609468,0.8898465748251472,0.494863738406137,-0.5434803012205631,-0.19310920936396886,0.29979469587659774,0.5706477852557248,0.3938063213291573,0.1475299052911061,-0.18688025457025126,0.32233959956861086,-0.246390124135919,-0.9884087151262871,-0.0918133515303277,-0.2505311974955457,-0.45088778847447725,0.46416602505827803,-0.1842029052943479,0.04257402257249562,0.21783192291131642,-1.1286066215308272,0.28168750174104834,-0.15124725665812647,-0.571064815929449,0.5151396251885125,0.04385194033896991,-0.18447504105784732,0.2865564688669021,0.31844126664519934,0.39290888051748346,-0.5402081419067056,0.014486584761834129,-0.48307308748789923,-0.6667762917984197,0.17587501197479113,-0.1564439470646927,0.10816660781437076,0.31939387344317216,-0.24362214737008506,-0.022360273995749545,-0.40024016403500573,-0.21170785488859797,-0.3064446460928368,0.028108513791264868,0.441088731474074,0.3529441159330476,0.018027697985988456,],[-0.4816814138225731,-0.35419589237362337,-0.23294919262818078,0.22076850866032086,0.16173484717623707,0.058378844738187254,-0.20524771249008067,0.17095327747163014,-0.3649496253779034,-0.16004866817164023,-0.2874325949075869,0.3517026974400753,0.48697302899066597,-0.1090699284073096,0.10116292945817974,-0.8618466163510912,0.13896962538057586,0.263835718061445,-0.3841687280030534,-0.06303323883038105,-0.16359340232309655,-0.485992294051451,0.95799227405686,0.6810257259788025,-0.07798283608750439,1.1783925910889186,-0.051032440171410384,-0.646798179364923,0.9903544500445042,-0.11848711368280186,-0.48345543472348773,0.17235173306619533,0.05847937373969538,-1.1288297095167121,0.1581033941952188,0.6217337582580305,0.082684587209656,0.4123191802483524,1.0779496939681013,-0.9684581071136124,-0.4067645377373961,-0.11153037511916221,-0.211007568450021,0.9637403955030913,-0.3473409097802827,-1.7767673206887833,0.16183213641201216,],[-0.7972471259525972,-0.7373030210366478,-0.17688224570887995,0.015771206777737058,0.5392678951719058,-0.07516616483016719,-0.14470865327651258,-0.11777168611040228,-0.4287368755914286,0.4316499933782796,-0.2768995744954336,0.12004769208977377,0.1557610031238381,-0.30824512928015185,-0.10090386805967008,0.2981426050029706,0.14826573739890503,0.6012361574662128,0.1504841916051756,-0.33853051145091667,0.30786850693329926,-0.7420723976110004,-0.026610728752472144,0.002615432007990734,-0.40076598158547394,-0.2734178875764668,-0.03588404401864964,-0.5128040317635426,0.09067999942473173,0.8428544619705288,-0.3781428200828105,-1.3288285837436722,0.05226654802091821,-0.0763609965040833,-0.11535747927314756,0.08680646665661071,0.030025843650877692,0.5002276597010737,0.3607226452402807,0.3935346490318836,0.1785682195685162,-0.29510667864187695,-0.16028399833940235,-0.33707866824206373,0.18841165296269294,0.08907237010502618,0.11819076269494119,],[-0.35621532929146954,0.39683629120991387,0.0020671473218123806,0.3185389330973771,-0.06318134898012327,0.06317686158112623,-0.33492302137436025,-0.44492300974953286,-0.3000683024351127,0.20486638146970199,-0.2719873096774318,-0.2648454210456184,0.049789987386548745,-0.6826473575500729,-0.04507460501499106,0.4028124098104704,0.06174492261355176,0.05386427459929741,0.03287899025011142,0.15201487721288573,0.6716654536794274,-0.20595722066862765,0.9530812954118758,-0.28941384370321344,0.22951012890065198,0.9366828580807076,0.8286226155100354,-0.09989541630049549,-0.15008817435001504,-0.671477690292545,0.18264874436621176,0.5475277560818572,-0.08273725574416957,-0.33921959253907985,0.20724224367911007,0.4046248350629365,-0.49241815913406217,-0.434639573746189,0.8692945187563526,-0.06533374293176601,0.05747173225444286,-0.24357798039507933,-0.5986049984666179,-0.46206433040017164,-0.02810141723718119,-0.7119062221875798,-0.9699556504994776,],[-0.7184667509570337,0.316002599041247,0.20759571053039003,0.344014488503355,0.10123399950865328,-0.14908592662297918,-0.2168745378980724,-0.04987392571344758,-0.3236227787101492,-0.4178507314319286,0.2046095869499782,-0.04470508949087052,0.18382113867569055,0.6738766327144292,0.42486570322497175,1.4040998371590936,-0.1285225389765145,0.30861180075581107,0.06731497377811305,0.09886419186912104,-0.6292449380527712,-0.8067191368550133,-1.5208275973227778,1.0138121959900168,-0.49037679801952,0.07684079298266606,-0.5037195312059114,0.340116335513296,0.3686030485202875,0.206776718941771,-0.04073222994127423,0.6105114142646201,0.4655990805464732,-0.04223388950441695,-0.22130971863622828,0.13497032465978995,-0.11606926486917583,-0.12885912375617106,0.019117656497364355,0.39043334918910766,-0.24048401428874142,1.355970806425114,-0.6616353121620053,-0.4359073053856698,0.6066621304390791,2.0783037862023583,-0.42943003821308007,],[0.5666487184092787,-0.16119471750143466,-0.013437896515435276,0.0061066690855563635,-0.7229037967940508,0.3059231223675162,0.1302875656030625,-0.937821834856392,0.3812114837226184,-0.9516137019021139,0.4654054210660686,0.12821425855577812,-0.32971645555272344,-0.16643832895490557,0.03645613430403473,-0.015411089241320178,0.3999237773764935,-0.15012777033414076,0.7327997608665908,-0.19295769021242642,-0.09059623743433283,0.5590154203425852,0.8514550310568322,-0.8319692307311511,-0.4332867914445312,-0.849628848282425,0.8653903149379644,0.3488807962104079,0.6476901303954292,0.332358573931673,0.3705550937114019,-0.4685685090978746,-0.015640351961625252,0.1972514527648502,0.1277083256518566,0.3600555249893637,-0.028935426622524112,-0.216987236697116,-0.10226388052621173,0.5750908312971793,0.482698074822865,0.07258918966517945,-0.11013235731090942,-0.577628493803431,0.42756516183120263,-0.6786960992506221,0.1971186688431528,],[-0.44707487810491664,0.4647453721963738,-0.08238032379336106,0.45782172861964227,-0.21215199875851645,0.10461719953875097,-0.19733336462432507,-0.8942283518415913,-0.22918799084140465,-0.5129889019941735,0.011160251119249858,0.2717846832301944,-0.19613589085591912,-0.12191516269461217,0.010437716917660763,-0.010245821586032506,0.3346395781733398,0.33670166821261355,-0.3255673363588447,0.008607685541746872,-0.13512567825670166,0.09991558817543329,0.6802145637455969,-0.0851904731117178,0.968018315725678,-0.08830710169562911,0.10636818961413899,0.6635305263136587,0.11277666187835375,-0.5091515024122534,0.2895370444226745,-0.5309925941759883,0.00801758288046959,0.34802170782002934,-0.3051897652109512,0.2082449652681722,-0.2743737301748633,0.3026133074074526,0.0475346349273237,0.09896630341782225,0.21381741714232413,0.04996103434834039,-0.1923230080142522,-0.37724349328042217,0.1517329334758667,-0.359065403276083,0.1843369629970343,],[0.4218546728337923,0.2817585945605867,-0.250752924495558,0.21788109676637693,-0.3595375359046656,0.09737963356923025,0.27077837289323564,-0.35908664496281617,-0.11424097463472355,-0.22408741525307269,-0.06939388104860762,-0.03146317532189389,0.41703516829566545,-0.06957143139854083,0.0757456085719439,0.13786891983508748,0.011655520681472279,-0.05273509988652834,0.6353302541551102,0.03557316568987313,0.5245512730312136,0.07012058276390322,0.3995093815303708,0.2155690665278914,-0.11128985940609602,-0.6637355430323253,0.26858089603038726,-0.05731200072088578,-0.4041046563176113,-0.12188259898421162,-0.036942885453955424,-0.2219680698297292,0.6700682024683812,-0.057672639858599974,-0.31072050045929356,-0.16872681590838778,0.5674355721508065,0.17299520850576688,1.1478587754585647,-0.44345947846530254,0.3975044996621982,0.12635410653840126,-0.41957933391452307,0.012757248691854496,-0.36071374805803286,-0.4494152971172863,0.07477902808519746,],[-0.4802670735413774,-0.04702511155330025,-0.31853373908271937,0.14377074491147887,0.4060401808013389,0.297758280653458,-0.22856199506226402,-0.5534808821526336,-0.40902105957978335,0.005198474794062045,0.00014123567844571833,-0.1543079811737841,0.1499929967260887,-0.37018778347382714,0.3039075077107168,0.43209032686443893,0.2129373935368324,-0.12832717440651464,0.23282341034649132,-0.014396021641567518,-0.6954288602566898,0.31461400256838457,-0.24707303414735252,0.06749575471558852,-0.1368718352465456,-0.2070444372454391,0.2499417671076257,0.3778919705830968,-0.0870188632858889,-0.3041428200738262,0.2693333178621091,0.2362925312504894,0.1089898173095563,0.0006069305470007275,0.25787439517650623,0.40093072855192047,0.0091376303293699,-0.0627768343662332,0.8453238834119359,0.07935482924523,0.2093431073282625,-0.3686994877100983,-0.6876755591012985,-0.1813427867993863,-0.04135515158438216,0.042193322966637824,0.2412797867894166,],[0.0358256953631711,-0.630451031295657,-0.08026247792086785,-0.049327675783323845,0.023285597197488628,-0.17751817840364414,-0.17620839846143732,-0.1296233209796873,-0.17893158934984543,-0.008269374934124774,0.11058164766103135,0.12398203566387488,-0.14398379927397245,-0.12253343879609466,0.03889343730777834,-0.0323746871130185,-0.11054480366955917,0.3073977528222275,-0.3711501371391406,0.04209015686191432,-0.11977366853319889,-0.6092923836374737,0.22821244257076354,-0.007402468389223741,0.07509625282606865,0.5188941047811323,-0.32939926463410385,0.14386483348962056,0.07372634838763226,-0.2271933961186057,-0.05417480210371131,0.019327667285877335,-0.05307318435702918,0.17217233911591046,-0.09595202227357666,0.15124502786646515,-0.327587407522208,0.3079047475271818,0.059715776809852794,-0.07234712606478057,-0.14599516857546274,0.05221635763609739,-0.1725790145300212,0.16539350616523418,-0.17464810897395844,-0.22427593866574805,0.10006453113711193,],[-0.7675339040650747,0.16676172387232382,-0.20740601123994112,-0.2242347701371692,-0.4276197409222905,-0.08983146681630946,-0.05894203406839095,-0.7143750112249999,-0.28042734354221704,-0.5504129497405525,0.3217164907113309,-0.20694852109182793,-0.13073949680380864,-0.5518465484773115,0.10077397500210486,0.4757138808526353,-0.15700901824896343,0.24425449177059355,-0.3621768836671791,-0.14986911540078263,-0.26217877910806386,1.126364901252104,-0.6662388412051335,-1.0757467158194751,0.07945125949519945,-0.09836103321333246,0.5151960280277655,0.31012726997442647,0.46703487523812615,0.039289698581192946,-0.7445368501626725,0.010295594566176342,-0.06782988186657898,-0.42756681746223435,-0.576004533685602,-0.023692503833129812,0.18530376074474245,1.1222818306712803,1.1152823260084397,0.19870905262517907,0.14370232578541653,-0.2061734917987909,-0.7545136932739773,0.46058494227282154,-0.22793823069547728,0.27524211789561276,0.11070330681036504,],[0.6164656159770038,-0.07302234626168981,0.19331151049458312,1.0361958601850745,-0.19724820666160583,0.33280225479466746,0.3008317783219619,0.21234059060919452,-0.06610411823815825,-0.20844683960611413,0.13223470727759049,0.06364836077841242,-0.32770534779000776,-0.0912335745435294,0.19661963609840244,0.4624200264078357,0.045706045571988,0.5068921462399674,0.5223870747464598,0.46398850457345914,-0.42626772882546465,-1.3744789924034704,1.9278018265269854,-1.1166609899023807,0.35371776186797294,2.4143922829649225,0.1266472271247445,-0.1898128982494178,-0.01797783524005317,-0.14540392057242865,-0.08142233258479363,0.3499837155448686,0.052431131705427625,0.042272014107198955,-0.20353421226130727,-0.2718653361800902,-0.18522907231809085,-0.04951490813707239,0.33013235836874943,0.4570467411543337,0.27407004080517755,-0.7027796574210413,-1.2158498535552555,0.3593211052202525,0.2059436151109951,1.0500671131042745,0.7617098071226425,],[1.6655196434364898,0.28511756013686385,0.06550979659653243,-0.27029847380604344,0.2756986584820916,0.025653897655841657,-0.21228937988029048,0.9384381012134073,0.03773388217340724,-0.37994961542942157,-0.4267699351443535,0.6153660930640038,0.061852186921355884,-0.1284543387190211,0.1945740997291422,-0.07468095993910084,0.4039681268556097,-0.006780669460265705,-0.19258866046077833,-0.023885891124174805,-0.9148701561442201,-0.516310533520524,0.42673540263840126,0.1761492313077469,-0.3655930364048069,-0.27310685583898475,0.00928284032370694,0.48322373452171374,0.20379644911409128,0.1339767363542343,0.2154589075325399,0.6602553476364181,-0.5030607448314456,0.11822149079890427,-0.18701633665240355,0.04171725876291785,-0.2587784387693948,0.07109298914363597,-0.03754562946562704,0.34491023775519775,-0.08934486912726079,-0.1435491571499292,0.5127669545029694,0.19319170752311401,-0.25496682237752594,0.4014243430060113,-0.6434664623187295,],[-0.9213331717224651,-0.48047785491804457,0.2887287453708498,0.5777687318729503,0.8179444245090751,0.04355771413364176,-0.2321755359871155,-0.906297345678502,0.0377362732802937,-0.09357094013176301,0.29559425005397455,0.613212675355784,0.0638155886870083,-0.43789428176092887,-0.22042818607873269,-0.3191208771211016,0.2129426977785285,0.2385301780745325,-0.15572468852324312,0.04279559542261957,-0.29519075388101995,-1.196962198153833,0.27849915920330487,-0.48201323729572415,1.5241786504535673,0.4676917549125935,0.5724945708411161,0.33054850373201,-1.1296913680177882,0.6430489119524483,0.24940664228041487,0.25959442068101946,-0.4240737249705909,0.06028135414073818,-0.3911666253470218,0.4311645462485686,-0.14976068995155803,0.7847237600712405,0.6049783688233724,0.2862804907702051,-0.016362207765876116,-0.050999677054747734,0.5164880543529871,0.3457285820281552,-0.5752816321633515,-0.982384742747657,0.569077140736081,],[-0.9130486447800724,0.18339869073763926,-0.2845147739768856,-0.5014343775725382,0.11652594722131515,-0.02430457736857862,-0.12143732299361258,-0.7041487639022173,0.01961602366370722,0.952213590837703,0.02170186397079933,-0.1921054374974593,-0.4772980644093245,-0.2450060977919956,-0.012048599132337544,0.016447933118201814,0.28431443135895224,-0.5345933979815373,0.6152439838565619,0.5043120956087306,0.06803850818342164,0.2884978259385275,0.6744814511833743,1.3891102589190796,-0.7446223677346389,-0.008510104962074052,-0.3318888621705067,0.7040638378449103,-1.2016909644153184,-0.2882989618005136,-0.04288087545476394,-0.3342147389063186,0.224194470732966,-0.22707801352488413,0.16823532762905685,-0.4079482780278926,-0.08092307362343515,0.40320806675489407,0.4701045777912754,-0.4138478731218244,-0.14191943672680798,-0.15874150357770636,0.14359489740025777,-1.8950709533545078,-0.6745491877720142,0.3374561881540283,0.4488948603742213,],[0.7534041337973132,0.2307184809172364,0.25406153693632644,0.05537338965333102,0.07341691529005961,-0.21179047075661478,-0.12131762078913282,0.5709743360135396,1.3993508448011518,0.42572629731071854,0.022745885016585,-0.27421720861693755,-0.14658326367109184,-0.2711581911558809,-0.2950437769261515,1.0361072596930123,0.0468765752437046,0.4163187985347466,-0.10955663728113087,-0.13307078534621483,0.5281881973238295,-0.2184065913754517,-0.25000313406215136,0.17186577240912768,0.06108036943910071,0.34483944083564316,0.10642207905971499,-1.032559660859329,0.4399759527854268,0.08500398399858984,0.059622277885371305,0.40159640384773804,-0.17169276029909233,-1.1071345703457176,0.10633361838556642,-0.2931736010169401,0.1681147523631087,0.33257885723911085,-0.17591460466227288,-3.239546078873253e-7,0.5087788601555362,-0.5283326694439094,-0.026380124894109295,0.2874045563831596,-0.275360110893742,0.3796178498983537,0.2148621780542899,],[-3.368527882248834,0.8238784148167063,0.05845547114350893,-0.586996092593969,0.8225164013917491,-0.10448766779343739,-0.11302376293839443,-1.4721070218909111,-0.2702565048062161,0.8693430592612287,-0.02845309987134573,-0.06691858921979876,0.1864654401659095,-0.06690372117365703,-0.06942199945481492,-0.039462816029097805,0.2404705815960401,0.6961421974022407,-1.8828164356541213,-0.435923926153126,0.2485102545844934,-0.038319130803971105,-1.71994971558832,-0.8297130033309702,-0.5103225506781888,1.7387422572763085,0.06506897140265172,0.8098227669913481,-0.7465349758711723,0.13214810776578922,0.2357724487015823,-0.2467719506898735,0.1608097451602928,0.39881083222284186,0.1719047208161781,0.135463977512922,-0.7221652910196884,-0.5367286092720819,0.7961601481019218,0.4176719419799816,0.24630621400885797,0.026699045040416106,0.5832058121992236,-1.031884249244512,0.5102269922289314,0.6462617751213963,1.1774723875243907,],[0.062105342826596924,-0.16925625970373875,-0.2953123640194633,0.3398084213891309,0.08979054156190724,-0.5651749124107182,0.10400294203205761,-0.2847914091344786,-0.238081232156618,-0.5218180266391647,0.23479210090685526,0.31321783814072074,-0.32599342811819476,-0.04945781116634704,0.05726713410594545,0.06133608636280987,-0.38716803833932795,0.22632344921446076,-0.24729659491676148,0.25902381028465343,0.16772258771615395,-0.4976939194960313,0.009342894464033897,0.2742938153901433,-0.47104207027658107,0.12737912839722604,-0.7237409338087895,0.5678814709550261,1.2244816528303422,-0.4907431824753898,-0.05844547280793593,0.014884046321951186,0.0463381627026172,0.39540714353101647,0.4062209459401423,0.3243231192131386,0.26395719416777225,0.4026929104718859,-0.07261913615339019,0.2681538440714518,-0.31622988281189846,-0.31237500031853294,-0.39218628480911266,0.03297848710957234,0.08412381841110683,0.09091602293081576,0.21582989362777427,],[0.17942092362075915,-0.4240306413952876,0.2628390122481674,-0.42282069586104326,0.5143835877097092,-0.013244065442520667,-0.3341343799488948,-0.2210093515379623,-0.20249601139978712,0.47801986031507454,-0.44268072746304143,-0.16461141999392762,0.35530679084376593,0.345701284236979,-0.020350956204444673,-0.40250815091423486,0.07089748648523146,-0.13736932391266926,0.7220920172981183,0.18631305261722642,0.1276643300970506,0.05011903732521283,0.9454189472607872,-0.3175877168653906,-0.7927890983599141,-0.2675621068957226,-0.24408691378585132,-0.2668328253257277,0.7364807169992394,0.07735801937939005,0.23699858904198906,0.0415645508183263,0.12407872538996936,0.0704164519754082,-0.0823549074530813,-0.08345588447600688,0.3336335251982967,-0.3154083438089206,0.2205539754758996,0.009707896966248925,-0.5189442586668468,-0.053221751367730885,0.7498585794602439,-0.014525932310774986,1.0940928291771956,0.7343608470133893,0.5672112662284846,],[-0.20748346949305355,0.12298328614272304,-0.33505335280711135,0.9009527238764015,-0.25073118840063874,-0.4019766787869336,0.4333069608229278,0.5334907229413202,0.371574771202892,-0.45640616301847386,0.06171473580145456,0.13540644918686706,0.044169775190612506,0.014472320096992055,-0.22286908323204838,0.12095095038860812,0.02350600898572214,0.1543387426687421,-0.6961725902765022,0.1430478411213749,0.27888947229355127,-0.24650809092713113,1.0279186203097572,0.4307194273317148,-0.4587191381017773,0.25859874394682786,-0.1535583375310301,0.0590139591596368,0.3932627138104682,-0.5036977360881374,-0.1459455357926467,0.5203896185507118,-0.027033357701178255,-0.6771299453878571,0.2898210406668284,0.5965572699402402,0.48242682333466574,-0.14058122683217958,0.5293834418986748,-0.24899637811038886,-0.23709255192876277,-0.2641064295200669,-0.9415896492890897,-0.4150463269679761,0.15967169351086427,-0.7470989302905056,2.332131565990088,],[0.36319511406184524,0.0857993850532758,0.19574851153723527,-0.2629397018376667,0.635743528907406,-0.3307770462630047,0.054702577909340896,-0.26096088491881786,-0.7700206312443104,-0.12803182511905786,0.060790964683771195,0.35664387590373414,0.49832306220046874,-0.28451391929864334,-0.02152402101567018,-0.8364466517508632,-0.19864343517793018,0.47293643220712517,-0.238104874281349,0.08983596898105155,0.24233952404026596,-0.19608740147552764,-0.0502441867483593,1.3150867302601188,-0.33877263047265627,0.21341774908324043,-1.1678175947844314,-0.5287361665530028,0.681557903166576,0.48911285428411183,0.14983323189005252,-0.18886547575102547,-0.034999941902779656,-0.7922523209684466,-0.32515899972318735,-0.41774400046963556,0.3149173469313328,0.2608736103544753,-0.12489368942215642,-0.5475928543358696,0.15081993504366734,0.6843326439153257,-0.6301526939367744,0.9207911224471285,-0.36218545658889245,0.5141014998712489,1.1896649349321697,],[0.08109016126402516,0.44787612744775523,-0.04685523029885235,-0.29969110247250086,0.15661690760747385,-0.008989834071281856,0.12771739561979997,0.3018764231653387,-0.0867129097645936,-0.03180915811903209,-0.34945636213496095,-0.13348912403684612,-0.467645232277157,0.33454274083585556,-0.44938579603671613,-0.65277400719533,0.0278500363379862,0.02639000882971142,0.14810638818193014,-0.054574327581900936,-0.3584895528102905,0.2445589908939791,1.0992461206289879,0.8102238545674093,-0.4356093247496833,-0.1064577964263474,-0.35072949408569765,0.0375927284410081,-0.11010560560090624,-0.2369580367750999,-0.3235537511244909,-0.2226851279493017,0.5365246098032648,0.5244764374419021,-0.05111980668999594,-0.5961864717457875,-0.3737194416932847,0.4298576658714188,-0.590722187137989,0.19000047968348838,0.32610802452734616,-0.14976601263671743,0.9560021790265297,-0.464304254673502,0.7360693499585766,0.6600260297261995,0.6238945621675248,],[0.731965363549184,0.4990775185409765,0.02588811599122042,-0.142428316875919,1.0679636808488528,-0.26126870893705556,0.20970220957312102,-1.0268586666864004,0.2200093870908294,0.040123751226917664,0.040384928640369716,0.37203574376948895,-0.018312281513507975,-0.24431891957225085,0.39906150591672956,-0.9505501967713816,-0.2913210882803126,0.2466515771778616,0.26109430023589,-0.014797982060219943,-0.48472717584903696,0.38880272887413053,-1.0962705560830992,-0.46801749180670926,0.3573085841413172,1.1556397971771022,0.13364342409382557,-0.3927103218253236,0.024113405671729978,-0.18302793396224964,0.28208089985508317,0.7712211623193179,-0.3306283832222855,-0.27468593451639894,0.29849629235304365,0.34648485312471866,-0.3229246489817906,-0.6414432251328691,0.06601748784297361,0.27007256008062336,0.2052214673570825,-0.5761468138064091,-0.27014816005595066,0.6046393459629915,0.4415312369832439,1.3296724307129926,-0.5525778137492668,],[-0.5287445376580454,-0.33172175517284314,0.10126507188938051,0.6192736986015678,-0.07458241125836919,-0.20058330027668703,0.3227268760293755,0.009055259132142364,-0.2744693359611863,-0.15931856107385003,0.4338792902468758,0.053684231472567526,0.02779203254031315,-0.3350252705653785,-0.2070087285297432,0.17076984110037,0.06483977430904733,0.7207385787511379,-0.30220537420977595,0.07934437408439417,-0.4613380460266757,-0.7686028815492171,0.714525905731893,-0.09026018723748283,0.07784950668691369,0.4691374039762704,-0.8677992536001712,0.1528506825936133,0.19322257899965767,0.05127140352234072,0.09111197963279205,-0.9337712658023453,0.010906904689959307,-0.42135245220070433,-0.18134376787601816,0.1521572591601147,-0.10811696086421345,0.23225461267475578,-0.01541345283298471,-0.1685636881977025,-0.12750005871959755,0.1583884310412651,-1.268723725550372,-0.121445379738287,0.32856616485886214,0.0061816944352932595,-0.18023279253725424,],[-0.07560969161553427,1.3372745320221946,-0.11534015835111137,0.01690161706031789,0.301971464722698,0.4366255320884284,-0.007833188782426023,-0.4799784590626518,0.5347720788024529,-0.015225998098243956,-0.19915701641706,-0.27635353742622676,-0.34728936111280684,-0.10919056539239927,-0.06568257291798195,-0.2672041631098075,0.6821554421503815,0.025560865593018595,0.2940053210338921,0.18864451378160302,0.023468141473365463,0.26264239479429924,0.47349756043673363,0.2580870629686749,0.3791105428710007,0.26265844122649307,-0.32221138997038357,0.19761007445162582,-0.27554279705168827,0.3105394444788935,0.12270202793043551,-0.20498192322115272,0.10066145087455548,-0.46679173605952107,0.575775161228371,0.16665791287125517,0.3576866592946886,0.42253967985419594,-0.6885005946420061,-0.3481403131601064,-0.036848862219882685,-0.4256422959059028,-0.19793088342249648,-0.1079623037139028,0.7403866516320334,-0.08517242467491738,0.1741677466619613,],[0.8530135386184803,1.0906233502100138,0.2567604197107144,-0.43665048470793344,-1.678811409743131,-0.03309882166738122,0.4974586732695636,-0.3852044344630217,-0.21513074174626046,-1.2728847691143832,0.06205342312257347,-0.1547916783761124,-0.5121503426189439,-0.1369867342232028,0.07510022746432195,0.05620357866029092,0.6623826386366831,-0.48198022842609556,0.25915051041967135,0.2412726500540148,-0.1820926380580374,1.6610021835560247,0.10473569963132945,0.08814521044517594,0.20101734861444936,-0.4729911021099846,-0.29903955115631903,0.30552823187724504,-0.4548764896687406,-0.19327687688628728,0.12286861629490214,0.13423092331478978,0.1460064997004076,-0.522124615678722,0.06066581032347794,0.04756324184799818,-0.1142454124250651,-0.03899874160302587,0.16669360191019633,-0.21332610108516023,0.3468661490004645,0.006214938358391036,0.026847073088114626,-0.46440736942171756,1.0742927967568792,-0.9143117831961158,0.10806086454968941,],[-0.9925640673203792,0.7121715178714763,-0.4298869438451665,1.3605803352690264,-0.23459881279760117,-0.22905185503018832,0.23517028097879247,-0.3540797215880781,-0.04637457394086867,-0.15112151678409821,0.1799760159132035,0.2838445067899027,-0.6946723926388605,-0.008957563694408022,-0.04463284106029308,-0.21682188579124237,-0.2927055650654246,0.20605711357559314,-0.03853510663513714,0.11255534378896642,0.02479717551537037,-0.011872610036869824,0.47803901673541616,0.6607817322806537,-0.4500628127335913,0.47521985590166516,-0.2657139463871036,0.2249305971819184,-0.1524476321251479,-0.6537971118181181,0.1214620635444343,1.958359752986135,0.16443623931827397,0.5497118129340433,-0.053454400969195515,0.2683548832081177,-0.10343481093569676,0.4650924097287905,0.1783554668994122,0.0005743862713350386,0.38077006370885014,0.16910246276665908,-0.08115190801129234,-0.8122672060585472,-0.5906097167633583,-0.07217124521689885,-0.060803620816625215,],[1.2695499969217783,-0.8517476791707422,0.07179935995101522,-1.1252214774969036,-1.2253533109196535,-0.49409223712690614,0.047971884204044586,-0.593791982926044,-0.20426069972020514,-0.28624436041265083,-0.28996639043500405,0.13753352057409804,0.14242180180061742,-0.25972222556911156,0.2310941580988883,0.3387598793915778,0.04973392333428002,-0.4174661961442638,0.6624613400260143,0.3324680157642215,-0.060235279015710276,0.04205400432023588,0.1437236285800477,-0.32401149356349845,0.2437014752968424,0.5912647570936542,0.20454189844836518,0.20487990237705045,-0.4663119618373157,0.2071768171203426,-0.33890488868282,-0.2823794227025657,0.2048886983400164,0.2346770829421675,0.18913972279684496,0.402705165246011,-0.08362930185387371,0.11676861730684472,-0.09287544510172757,0.014270526530757924,-0.4130380353498237,0.1952510678646231,-0.656893812399358,0.07539139629293792,0.010949274023423865,-0.6779421485427938,0.4455938847941211,],[-0.713961134078833,-0.33504469641233076,0.2363305148192121,-0.4134889390820869,-0.4606533208604599,-0.010123129744424532,0.2147895911921464,-0.025368252894918803,-0.2898476978299663,-0.6785116457848448,-0.3235241803695594,-0.45898015939033,-0.5508836676804039,-0.40797496294686575,0.15892396260525926,0.13162004931981955,0.0423903434013794,0.21510728204942403,0.5922646290583201,-0.39113040744249417,0.7944696404688956,0.8620734666741394,-1.7676186399917269,0.07185903083972661,0.2929748670534699,-0.028531801348634474,-0.2761382481882843,-0.14602512870122164,-0.642315126810856,0.17199618877698677,-0.23142679458146195,0.05896683404252894,0.10696063457082729,-0.025802062100153327,0.09101117515804938,-0.044636430462132275,0.10602305615090146,-0.005342579831000205,0.8625678163097376,0.5930236215540969,0.28070803995794286,-0.5696011312388698,0.06194953953963401,0.553369173785829,-0.313588398511129,-0.5695715832035925,0.13833699768511903,],[-0.1486559763923516,0.6171155454704649,0.6047579699289171,-0.8016839589424206,-0.32770853784081344,-0.06236756456409381,0.26649855666216604,0.16421739250915537,-0.13993876617400308,0.6406603165244944,-0.1086549007471825,-0.22007729996961264,-0.6050565024303388,-0.17060865828706326,-0.012522575089622517,0.49479363367681967,0.9372245214719029,0.5663931234760697,-2.2472857781957796,-0.25551123598348574,-1.022290572535864,-0.9590358417084759,2.333478975054665,-0.6698831579911171,-0.10286700161105017,-0.3210219074326633,-0.03381200199173906,-0.6011921109024749,0.5890672086679751,-0.21463777031143882,-0.16575236828355325,0.6981460010950293,0.1849893131135822,-0.44459489807992364,-0.14753703798350734,-0.6493298587568619,0.8081886243471601,-0.1273090335959364,1.099451050249959,0.5409868689382827,0.23541712788543753,-0.3454646199328932,1.4249164321345813,-0.368427572187657,-0.8685840005701664,-1.55607809495236,-0.14251440336211643,],[-0.30621299947259734,1.4897644264109688,0.7657715185185463,-0.9517161737111476,0.07590075866592001,-0.26001906813719605,0.06601038182273423,0.4288457002085757,0.09796412912305816,0.21109042426917507,-0.10044398002531876,0.36060046889437114,0.7467844733872577,-0.11122252871791029,-0.058847314615432605,-0.8121198653068776,0.4391029888399416,0.13522587334105404,-0.39343593743314786,0.11360528619924315,0.2642700406342752,-0.28243658910393177,0.2072099174249609,0.23545333770389748,-0.182547937829987,1.1404594067889442,-0.06934331969337361,-0.4217229464510035,-0.4783947424411428,1.0095077951680436,-0.22939236627456508,0.028031541609116476,0.8382080476637442,-0.398305169846968,-0.2245987347937728,-0.11325432695692474,-0.24773215057582337,0.1238782044951902,-0.6471959538025137,-0.083551112049645,0.4115241670269683,-0.2873342818338265,-0.8170213672060799,-0.2721626599951879,-0.35159881617593564,-0.5299088827635768,0.042087184814352106,],[-0.6198835306772805,-0.5462174596728424,0.12265306027594747,0.5310245958296375,0.4330296148454703,0.14830635101217413,0.1409966332421504,-0.19964190847662877,0.31034886361901787,0.09282226409472925,-0.1561793037767822,-0.052683944636923226,-0.5841763053941363,-0.2027293073649069,-0.1493915861042364,0.04565664272610076,0.2496309267159887,-0.48463649468727515,1.1302341138826704,0.2934843679209917,-0.6299489315408858,1.241662131845099,-0.4589653588712272,-0.14920365235273572,0.7309816515364345,-0.44449307393905163,-0.23880869272820732,-0.08155278686634745,-0.1989133070423488,-0.2067250803709244,0.024282519732237728,-0.1892604157352849,0.08011582532512934,-0.06962810625771028,0.1931097363469926,-0.10599551385124834,-0.22532388665814695,0.2100342065064145,0.1893274868486396,0.05663094487323089,-0.10944214988445335,-0.09310617839285927,0.01700823538346659,0.5203754571430327,-0.1842997180799979,-0.726704656795513,1.3000388139364418,],[0.5140492546193912,0.02604893088702166,-0.6546333546288823,-0.6970735338924886,0.683195662834924,-0.7709851008094974,0.04297221093507829,-0.060248379377569314,0.10390458946853047,0.07040440687840567,-0.3221238312579891,-0.15201435528135235,0.16883729036092895,-0.03997819387579903,0.023899334128267617,0.34014583550910216,0.5086275174383923,0.030868040809772478,0.2807629971795672,0.161313475919197,-0.16853365514819682,-0.04037509982912974,0.12643747230391927,-0.07062819657927338,1.881936354897394,-0.2385061132686365,-0.15534794995622475,0.43045530399211945,0.3725337681399667,-0.3267809884646874,-0.33787817676482185,-0.9515159362310894,0.42171079616003637,-0.061201840944949064,0.10215495037123515,-0.45717528760758275,0.29786036690063317,-0.34977319360820386,-0.33045383319968535,-0.0020018322970431868,-0.13510805434182502,-0.10479608902619374,0.03620888088150525,-0.5473670918072611,-0.49897345306428914,-0.046033139629915,1.2487033103917031,],[-0.20179831573931822,-0.4521835942919351,-0.23892972471323848,-0.1292698621203502,0.3802958278110091,-0.03285154232167407,0.08064159965256175,-0.5098617422315791,0.04482098908094098,0.9785204643063913,0.007237415347565142,-0.15402721543498837,-0.3558875034059607,-0.5578579193474512,0.07034813258231115,0.6156718901897146,0.34303452746654556,0.1310372674138656,-0.018543823957954838,0.23947007644939086,0.1775785123311492,0.26190597428440476,1.7525488008246894,-2.3023158309851515,-1.907799347888571,-1.2103863437655589,-0.06916488519227314,0.12971565591803355,0.7456759238211086,-0.18482065049519902,0.15643042123174425,0.02835483431691718,-0.19479035462072264,0.42640793093011153,0.07271198955271635,-0.15065694039629846,-0.2364476500191011,0.16344810202983787,-0.4245990533845415,0.8580773962958874,-0.08219499333990146,-0.05343081055322722,0.07213223033665606,2.6078587862936726,0.04318537766554067,0.0995549283883665,0.4832493183430896,],[0.2652779604945432,-0.5657642455082585,0.14155495091730397,-0.4977777078697498,0.3736059171091527,-0.22097448196486164,-0.21710436492297028,0.13162085173162352,0.49399425973801847,0.44973006248008873,-0.1621676158026184,-0.14126482347310443,-0.6794521784585882,0.3117144097763874,0.29630401721759725,-1.079332938310085,0.3702709307744856,0.4768708909916686,0.4615656489781239,-0.3183340004123592,-0.5731385159628491,0.45396655819401505,0.16133793258381143,0.31836307018431037,-0.43812697800042083,0.5491128993268474,0.19808690686393343,0.5658579084289185,0.05821484735504884,0.31327754942561425,-0.49496930142792844,-0.36128998438736043,0.024307601913312306,-1.4039120984924596,-0.1600395964101649,-0.2760562698008304,-0.17500277255015995,-0.6905202699113887,0.5142466743593196,-1.816665236821349,-0.24929555022756608,0.28834179305368945,-0.862297047335716,-0.27019133913494275,-0.033205258017885396,0.6512978174613409,0.5541023435514137,],[1.212849731552042,-1.0561590179346145,-0.6701965669563954,-0.20547658790402182,-0.07567949074911474,0.06314554664473139,0.4977027866265288,0.02245203016330938,-0.13566836135651736,-0.7220200237049235,1.0681714628799892,-0.14239143058410125,-0.014281014722149753,-0.38236364017699626,0.1485798573688318,0.24959703931855803,-0.10873902727261668,0.3762957748516159,-0.21221677369429,-0.2560711091819842,0.40031657185088776,-0.2050306294413257,0.005163111201758498,-0.48077887606324987,-0.23511305128000265,0.19390173925149576,-0.1280877311131982,0.42985158324529205,0.042594624668108344,0.21722190266324654,0.23356530367092293,-0.07132967748436285,-0.9720943580675846,-0.2855638765924757,-0.057367107991393114,-0.45502310691924364,-0.28173288296748367,-0.02538119824155922,-0.986329154911532,0.6546206557946991,0.07201752737545686,0.6222227097251843,-0.059549193959202086,0.6789502309370208,0.08437808436505678,0.24851796512024946,-0.13770284189865165,],[-0.07530479619439276,0.22513912516983905,0.17380552909598151,0.1911009701841442,-0.4679906015050672,0.08681067024259914,0.0045708133424912185,-0.28760003647413196,0.3510516423736154,0.1333970803513805,0.10515240949951632,-0.3102821784300621,-1.1703946020982492,0.2250029486400057,0.1428869757475152,-0.2754706300036707,-0.06274027281985652,0.19325146419959213,-0.1807050920560962,-0.016667560215413345,1.0297198932656222,-0.020919221518536972,-0.4808599934318689,-0.603488801557688,-1.0052925184032298,0.7590849338920539,0.4582358888678055,0.08235100294233101,0.2740264897638263,0.19505590510326942,-0.18915440007769443,0.0890749442532972,0.2935561701494961,-0.24083093903816896,-0.05646477425376913,-0.1913260486214214,0.39804359735478256,-0.1450589357583871,0.6021741086990934,-0.3558520082524811,-0.37744683840324217,0.9136330842609802,0.44900683779215855,0.39435440941126526,-0.2519069330480708,0.11360947297825286,0.08157122352444561,],[-1.0583557971008508,-0.4088839888565376,-0.5498607507249406,-0.9610174568004718,-0.054078272249777924,-0.21591107250807953,-0.44832858155581923,0.08792372842189519,0.11615085204292347,-0.40627291361965534,0.6302649330214296,-0.4310159707335678,-0.465176249248187,-0.39351544952553785,-0.13961827886227077,-0.5164134357411959,-0.3879231206956676,-0.22747976144724338,-0.32563331662202005,-0.07158398479012186,-0.16138870183164689,0.36366303473027933,-0.9498668700721737,-0.08487447748856719,0.5535682000134508,0.05627608170330502,0.033040511516540146,0.09380277065736864,0.3159696001483562,-0.29006417835738313,-0.4404629604378793,-0.21692184165707715,-1.059671261084655,-0.5821224591590706,0.09295032987601602,0.02275282946468492,-0.4902266357947388,-0.04917622650348253,0.04876386851663786,-0.1872662095121403,-0.12587811364930956,-0.025572668685943985,0.25595332584215813,0.08155125700497724,-0.03037108548981999,-0.027955676356860665,0.05367866004748386,],[-0.40911465581401524,-0.38013713072130817,0.11700621730582708,0.002845276834345219,-1.2693794096094138,0.13544075940579178,0.20234698083311733,0.8484060611614869,-0.03578864664619179,-0.9609344079350687,-0.17757384171779764,-0.10788336048572908,-0.020981810638887946,0.10653169572473013,0.11801596249031657,-0.2252214605491428,0.2586339406904536,0.4408606981663853,-0.6360814387321082,-0.25864745497048097,1.0365397710558226,0.23655747191924523,0.09287837933670835,-0.4915002173567327,0.5127591763686231,-0.4913276773075708,0.20457160707358232,-0.40181967530655954,0.06190083883718232,0.10627047384910528,-0.4734289808879736,-0.018083755035502497,0.41293288867486294,-0.03225641725715255,0.18134136492694003,0.44296886146898656,-0.44122758816284763,0.06666658611070977,-0.29908724810553194,0.15893745149742058,-0.5969681269608513,0.35285926685754,-0.6919440621261798,-0.37170885048157065,0.7618951542978929,0.5160751851651354,0.1316079107625052,],[-1.1457233003628515,0.05367605313839412,0.17398072764536915,0.16834908210386876,0.3450609286400275,-0.4559990405652856,-0.05266088157127182,0.12122613126482214,0.6297398041678094,0.20852764045406144,0.11722665545664142,0.131993157987109,-0.38656143375459084,0.018226014832162442,0.03969995292211491,-0.8135351005332908,-0.16356482245206921,0.6669018620088762,0.014149012178977077,-0.4977917368782449,-0.25577782868385074,-0.15048165684010453,-0.5943679081619557,0.39180578269409366,-0.7959874111277075,-0.8702343358742145,-0.771655974199636,0.37585723708644764,0.29541528731303873,-0.5847653644871726,0.11614852271663555,0.5644425972377385,-0.36556114101449,-0.057344987340725,-0.38447603017993603,0.24414962677713414,0.4859998975371286,0.527969760943176,-0.16029818835540466,0.740806744288406,0.495091462810915,0.09543552686558025,-0.1397845544443815,1.5682249954423018,0.5359551546009488,-0.6458036266523551,-0.17018954962940805,],[0.6358875314181054,0.6217622630827717,-0.23051340418311286,-0.047755793145928926,0.2665371170742469,-0.4966942090854681,-0.10942744487818132,0.5119460061922476,0.4189169203054755,0.3099610268213506,-0.15694658630494485,0.05687582292112036,-0.07911942298929393,-0.046222027965815426,-0.15572271299122536,-0.22038511029162144,0.6973792158239684,-0.805823352617068,-0.003947720280324059,0.5460419843408911,1.0262813260702899,0.09753394348104677,0.23187280295398352,-0.38027458146436427,-0.9611877312532302,-0.5738842483340884,0.19724474768166647,0.22496166359803454,0.2860326289030801,-0.3021417547706423,0.1616384226783665,0.6858096422498623,-0.07373706197050599,0.39163606801523687,0.21786441937370163,0.2165463987867961,-0.054759434574340016,-0.40976930963692526,-0.39105486599960887,0.7278063549845144,-0.16920603162947906,0.24354731839249202,1.0282942036768612,-0.9406053462359618,0.5432546067905016,-0.7670294677572662,-0.28702629848178135,],[-0.9150525637654698,-0.07411465852406611,-0.20601274518442322,-0.26639897579386473,0.7704883435853704,-0.17551652266387321,0.19132205637313704,-0.21222312383668032,-0.1123801253380531,0.37734018936612745,0.05560628545466815,0.1724316576952143,1.0314922917206504,-0.338726553118024,0.13590251770200348,0.1918291719059071,0.3123704211145206,-0.03714467063991133,-0.3505886251186482,0.12477622296876013,-0.34154680328338327,-0.122089977729736,-0.07986137971490849,-0.053406801605412134,0.21266961681692037,0.6231480324801306,-0.2219052419303351,0.43449015773454497,0.1530683298400776,-0.16104687063007042,-0.4534485908531203,1.2754675323971878,-0.3527018850111801,-0.39301749571774086,0.0049544614890785505,-0.282130076912299,0.30766809089773417,0.5776826701752777,-0.6757657237653525,0.8498701210715651,0.08814644433107342,-0.4807850666507782,0.5702030306651712,0.41037202170311615,0.39826831253370726,-0.03043512709787623,-0.6900417193341287,],[0.754011478347754,-0.7401169585193157,0.21002996047082464,0.0897363269740899,0.10623687045908821,-0.05564870303728614,-0.29701053773246167,0.27407812722058233,-0.1332410912046266,-0.009731260646396709,0.36880017473572113,0.20688278768209156,-0.8994710529119495,-0.4592727900310453,-0.1503836542242268,-0.638865876713139,0.258307554443359,0.14674343376856844,-0.18973079797161466,0.2160522094369187,-0.012622724256484565,-0.3052998464775268,0.04070018130489647,-0.6475511877200811,0.0042170208096475445,0.46216705808666475,-0.32275688439018524,-0.10821939253213189,0.0850720944019223,-0.19443045902153472,0.2859632648438435,-0.09240958821093101,-0.15379120675788702,-0.10029796857810994,-0.032125866780650165,0.4898238768695168,0.10857116808920486,0.20157003458494277,0.23877063531318318,0.2308997856641771,0.02141065579517973,0.4339821809986674,-0.9598440512741149,0.4679549787193748,0.15313332345049613,-0.6582549333222503,-0.1202859066750199,],[0.33969775707931626,0.047676188593589144,-0.14650001248541744,-0.15237400077791025,0.20749209842167876,-0.15444340703662343,-0.2870256553038769,0.34073519648874695,-0.2984025454845009,-0.09803065616915002,-0.37352467253419264,-0.3352199791655219,-0.7033319871450499,-0.12379010874360909,-0.2454538568804265,0.10886229242649313,-0.21980856784675787,-0.007215709963179987,0.201256861184659,0.1354395812623418,0.5105944992200031,-0.0956271285420948,0.29208283945304536,0.19944224301821392,0.05572680105723883,0.0058439040494118796,-0.004744995610838133,-1.087017428165248,0.4968255742567174,0.6821249299860097,0.35718439760303705,-0.4803729187529304,0.04149708639918668,0.2633036867903212,0.689325503131618,0.578800489897224,-0.20827844465726297,-0.3391161180888857,-0.3212002888018154,0.3931180702678012,0.3252934074840855,-0.24130424427536096,-0.46335246641846545,1.334045289951421,0.4377965828292922,-0.012918762573725236,0.5044611218359226,],[1.190330202315659,0.29204485787112605,0.18857846690705815,-0.035598882256345235,-0.04089701664231675,-0.2212128408355806,-0.2102292119603242,0.8415388205357324,0.26543548730812117,-0.8204041383156818,0.12227143518931613,-0.384099263926296,-0.06016591980394746,0.36344047454915757,0.1771533082835948,-0.808030041086131,-0.17710917161015483,0.18319135669899747,-0.4576189849766399,0.016639293606905685,-0.1653331320240509,-0.07674432889812498,-0.625076675680431,0.026131086826974247,-0.3719163436901604,-0.5361240459031726,0.2895017347063069,0.3566766834867147,1.690380303232763,-0.4221385089306138,0.29132029958005035,-0.5336716834532048,0.37509088343759994,0.28840426925988283,-0.43074996638607305,0.18614573059607376,0.6147179702412658,-0.7785948289041941,0.5465695489118472,0.182786339454691,0.09594546697544055,-0.4000800432919506,-1.2426157358537302,0.03721408393979127,0.834194552679382,0.6251143238698793,0.24707241088794807,],[-0.4584511003559375,-1.691355750481486,-0.3725476675204915,0.8752047269485643,-0.16645681878420282,0.14957081100784167,0.13461967997420343,1.4021896689715432,-0.11633061537690102,0.5644323295009158,0.1039517425469488,-0.03467374873430099,-0.1416742437188006,0.44453841362945457,0.49905020331958233,-0.3122817259103533,0.4630448659893755,-0.19130413347854883,-0.4930759235955981,0.5603074341691314,-0.43953585197064554,-0.028895178132468294,0.7491210005175415,-1.1839552831620694,-0.2701101849695178,0.6139528837112879,-0.42971737452739356,0.6835479865234403,-0.8122844919165324,0.4416799263912713,0.7829941296742634,0.22815864545409686,-0.249159215547689,0.30300329351578614,0.1551361477685288,0.38381472000054495,0.18442192082932002,-0.701681357478511,-0.09511508206550778,0.08593053898201265,0.21520940823038703,0.11114573918026516,-0.05351260021360349,-1.1988958443628799,-0.21875311388307686,-0.14663724854782667,0.3817679268919141,],[-2.072669122409845,0.4075108149428817,0.21304811087105543,0.508518353313523,0.32590995569589065,0.09338217833641344,-0.103572328810415,-0.4297033085777478,0.3025454717325289,-0.5369777643983487,0.13289431746117658,-0.05986471609337704,0.18742942361345657,-0.07111882410738707,0.24240283356196027,0.1117328450644791,-0.19807616163948497,0.037002997836695035,1.4111143426466504,-0.12508357097373343,0.31849985103648676,0.091789619107,0.9735831468798377,0.7973005054585575,1.112829202575017,-4.616124588495781,-0.042416134503354776,0.8133817296598957,-1.3351141645586422,0.3096066623243582,-0.49572685018295726,0.6784770309762967,0.1218576853313797,-0.06322990000938815,0.02907623354429553,0.09977418579196297,-0.0036824480289416443,-0.5495370223172524,0.21599160691092456,-0.030301765333060265,-0.2680486001675726,0.29420098815809037,-0.358286334254298,1.0992644145480983,0.10560192239718698,1.267517067240047,0.06708371197928294,],[0.6929409336505363,-0.25879130895209823,-0.5743896309613338,-0.43082458743172997,-0.1664703145505025,-0.07070025801639508,-0.04975695966972321,0.07218174294048776,-0.13323821690802912,-0.009519365354691015,-0.03302855646633734,-0.018316202712433158,-0.13571582334586094,0.014650067626231101,0.32099370250800574,0.030030191821021648,-0.05717740846257702,0.5817020361363815,-0.32549874165265164,-0.41717936683597184,-0.13151004541694852,-0.19351514891794813,0.03160669811143762,0.1599739942490408,-0.26308008557696383,0.14087433173779648,-0.001919245750424373,0.025264432786741748,0.3797724102398342,-0.1515792871064157,-0.38223667227730346,0.03497487373791151,0.0068957334306237105,-0.00996407354488321,0.042856894490732544,-0.05152788636042984,-0.2204921003138309,-0.1369123238430833,-0.07736805994959271,-0.08134663903807997,-0.0009921124905845312,-0.139790511578159,-0.24444480752625614,0.17471102394701926,0.04576032434483635,0.46720010578947496,-0.21219093762858207,],[-0.07630774195991802,1.0923371427535806,0.09997825152167852,0.621880821693638,-0.5307278863603502,0.1464246751761373,-0.07967673843631487,0.4713158545486956,-0.18527488168751668,0.016347752736673132,-0.062373780835423845,0.26665793906984253,0.025357131232630805,0.10148961918237996,0.2677306362561505,-0.19652579622913877,1.1812258968773042,-0.11781358110699958,0.7467411249006264,0.07136164011585193,-0.4211326243019008,-1.2640972925146363,-1.5920656676574894,-0.9686621327325998,-0.8122603132395904,0.43299494173514214,-0.08098234652466713,0.9525062649553205,-0.14948938806068685,-0.39471983792413157,-0.009009581870254607,-2.3863227303937515,0.21177301339818913,0.4587970358182648,-0.06011317281187922,0.44789775269841764,-0.018684770621537214,-0.32885980145408283,0.059354513666944386,0.8916283322734145,-0.2866900628360847,0.5260619724351238,1.014698444993734,1.849116859897523,-0.28395283201641247,-1.1385815857672403,1.0234224305526343,],[0.17314004452279108,0.28195270836856745,-0.5365181463702927,-1.3439630482816494,0.46851383687402587,-0.44183421915922527,-0.36938866739341536,-0.3066417055374918,-0.8283084419231965,0.2926106868800618,-0.01721202802458642,-0.16762907559818538,-0.4842996954454269,0.03326809086844389,-0.05192567248212337,0.05157085295708853,0.4570466922421334,0.3551378905077533,-0.41117367949049755,-0.6353661268384342,0.5773652407236309,0.5042365302055841,-0.2678300115907779,-0.3798745793096282,-0.4501624468769599,-0.7515487565127369,0.16469821558592043,0.020268410675395435,-0.22464563966613724,0.5591078346504937,0.011135123947606428,-0.91075174487334,0.16565607484786726,0.637575437184992,0.028359478672601617,-0.3503633269607614,0.11641464358886984,0.5725345216015849,0.17772891692715262,0.7375679275769148,-0.08468479283198788,0.18927645812513447,0.4571677056225367,0.01591136062621581,0.48869132163331874,-0.8095160375681766,0.6990717090491894,],[-0.6531359006718054,0.4636383669971011,-0.2688282402539936,0.29870769124650626,0.002896739637556268,-0.12343787501674167,0.07713975210302068,-0.06427803390821771,0.14615381492973864,0.35386381089509317,0.3711663721186292,-0.30819045224560426,-0.01740901868991102,0.010892467569035762,0.07694849150842861,-0.3309547557296109,0.19745259173666846,0.4598502130734716,0.44597003586174894,-0.4028885597898958,0.11961577468994744,-1.193417129431667,1.1557528158234986,0.4743718247651228,-0.4518230417040307,0.6477692707565793,0.444155450766964,0.21283872169449022,-0.21136408666380266,-0.002955328338465537,-0.932508648948661,-0.1220795555299025,-0.21046915368914085,-0.528011151896213,0.15474448025469112,0.09736870988588323,0.04096781032574481,0.12352811772186685,0.1348305453079436,0.11030445997258548,0.20860644400443676,0.3265382334205702,0.10522995719866268,0.41177270166641483,0.03014844757865235,-1.285091258700699,0.0661769998510214,],[0.770662622017597,-1.001753104567136,-0.11303119780427726,1.2599384609081654,-0.2527289832715542,0.4316371701256924,0.06740216546444897,-0.48165114302312595,0.14912239574580322,0.2653715208312498,0.22281490468207504,0.05613690609203671,0.7684624164266726,-0.5586445160239629,0.030221245931183294,0.19314647613539113,2.0174320969895083,-0.17426457030539969,-0.9974501894794336,0.31132602288821437,-0.11602863214412591,0.5374580188271353,-1.1355969622121893,1.4840631580543244,-0.32734398532257253,-0.19321797724987722,0.44411637279059296,-0.2623011020110269,0.4024832970804507,-0.13178807026128098,0.11733783092424704,-0.5548324467404151,0.0410995613968315,0.011969528580509828,-0.13953535056909902,-0.0752870194608436,-0.6940572320552543,0.31466583322070285,-0.5604469630466707,-0.14705937030489616,-0.1412106116287718,-0.3851234069778274,-0.3035784963475186,0.3982112372301182,0.36480814822468405,-0.05700202159279316,-0.3111567394749907,],[-1.0686729372800972,-0.5053607516272305,0.07150614392099922,-0.8637208383880368,-0.7335518659619913,-0.6722827328901564,0.039869102450614646,-0.0336210361178138,0.8781347742098768,-0.27433529607981627,0.1935415893963136,-0.04805843052865341,0.01901548472482058,0.12400915929059908,-0.14643683798098805,0.05774610162597108,-0.49785650168357676,0.24515709190543425,0.3137930149226946,0.06664218276113727,0.6885760611562796,-0.6810193994045324,-0.3554775386757494,-0.4733325070087832,0.8375987901047791,0.45520152242271367,-0.4417031046260115,-0.8209163521944796,-0.0010556406773916548,-0.04470398330995355,0.14368948584631897,0.332670681630324,0.33381440081920255,0.33049094065650325,-0.08370101795479563,0.48075058556594186,-0.25575450923157667,-0.049353815455059895,-0.8277042420209036,0.34499229219465555,-0.033439779713840045,0.9061771787078806,0.44920264342653937,-0.3328563936321108,0.043319902336738915,0.22465176715557694,0.08650807770566182,],[-0.43960247027544946,0.2534935377577407,-0.24346281011320006,-0.29319166245247524,-0.2333740975266018,0.24083593835207903,0.1696014453613619,-0.7192649332661495,-0.005401816943212076,0.22585266935648401,-0.00990927995804999,0.05693563728155591,0.04439053444395196,-0.07663668269888044,-0.09595068246463906,0.003238642845832457,0.36455532032315097,0.24436908201176077,2.146796662118495,-0.3534760148776495,-0.027417425479595,-0.635352372584005,-1.3658120124442956,0.44429212121732187,-0.22666492848880537,2.0246010403370365,-0.04975912497909991,-0.21665747247868838,0.5235689955244187,-0.14720345895693915,0.33162280583435144,0.9658755014450655,-0.2809241093193512,0.2794995932572106,0.0670461532753878,-0.29627894881952616,-0.1257436798016669,-0.22429163853372966,-0.2986456164544151,0.7985719767572814,0.07788391868078572,-0.2128530745389673,0.7780696062569116,-1.1742330118574975,0.25125043966173705,0.37220380450942286,0.09463984539192481,],[0.2651489070105615,-0.18383907652994955,-0.6292438580087615,0.19862736845524584,0.9274178061261751,-0.3400359987700102,0.1924776582248989,0.24499505867439425,-0.2255155945417043,-0.34728878353551645,-0.10882435573913007,-0.19583340353953932,-0.2551474559994744,0.14439739294808265,-0.10932756790026082,0.5649175569369459,-0.020682569130052394,0.6431737805650719,-0.5001752463419695,-0.4756086470516839,0.13565020977634076,0.01979779824942617,-0.11163295128270047,-0.4274994710596687,-0.4374485943045935,0.02826426272811635,0.13861117456422958,0.1103573738151688,-0.13885262780579957,-0.27197198621100954,0.1284825784519176,-0.5230093427345087,0.2881928044287562,0.5902649647565165,0.007596281624629897,0.1770510922466128,-0.4903731589189282,-0.35266568726243697,0.9060116175908556,0.32822899301316044,0.22765741569721037,-0.5197156688619886,-0.6093077905204398,0.2318923329409707,0.8156673547447078,-0.8151343091672155,0.07865701356909026,],[0.7679070526017376,-1.2790563826978871,0.02101823168926251,0.7603850110718854,0.1315670775529281,0.06824176805786338,0.09683279869859736,-0.3066227381729308,-0.3258243569547243,-0.045417734581113554,-0.0432462931383711,-0.42843339786045237,-0.1702067301167236,-0.3347028330171542,0.1059180244173277,-0.030914536201872705,-0.05146654565847152,0.3580541299783543,0.16845916042485867,-0.03521113234786789,0.9315947564216427,-0.1958382908268442,-1.3637507479888535,0.3476702003485917,0.22682216002755204,2.373652571089033,-0.03182396794016174,0.3311613001884042,-1.0368166673835597,-0.007588827359874721,-0.47996487381152475,0.1909389163086714,0.0061573218966511824,0.26425778164251457,0.0911565453193151,-0.02934049298798167,1.5950126698929874,0.5018033910935756,-0.41658670552432897,1.1735043721726535,-0.13711070713345624,0.09934793743201123,-0.06202232777357884,0.26003737676634797,0.15035358885139305,0.5110250048536108,-0.2643555889733855,],[-0.17199183648481045,-0.3319290856286368,0.09230927048704453,0.20268247919663768,0.12346041536869914,0.5437181647877509,1.0754639597633686,0.9409490681123629,-0.1638441800852285,-0.529859723681608,-0.3823575567124305,0.4177545183341085,-0.6243439560707873,-0.09348836650324673,-0.35652408288966764,-1.1915968440003757,0.36179339633017304,0.5102407007020259,-0.4086953078218132,-0.3119451333505924,-0.529705555197488,-0.5079151124388245,0.4288875572231205,-0.29920388857077107,0.14423054542014102,-0.13990274076335696,-0.5463195505231763,0.2425867063509032,-0.5379196866262014,0.01604782697028848,0.2374677280742273,0.08625563131118641,0.011177196634591286,-0.05694647862011637,0.03940431615560653,-0.002524658274726867,0.3221864082345039,0.5961673870350409,0.4077162870633612,-0.2911144988816204,0.0690087919634473,0.4088451368062665,-0.6794906042137907,0.24797309640779336,0.5628835884513472,-0.9042823696113691,-0.6825040711203075,],];
var hidden_weights = [[-0.43264203554377956,-0.23686519244110865,-0.18416489565332692,-0.14339882035132445,-0.2740922747762894,-0.24970014560781514,-0.3387797251492391,0.4369493174409947,-0.2290440353521427,-0.35520536582090606,-0.044344824665186126,-0.20494998863595454,-0.13972526493716578,-0.4722243548496617,0.17443536924365097,0.030393291524467812,-0.2988370952567614,-0.05159537641258263,-0.23447387477530676,-0.6473335689284296,-0.1893591340952538,0.05499282013293737,-0.02106033727686665,-0.3992905942697395,0.19087971510751425,-0.149909376752141,-0.23324590555189537,-0.26685161820020137,0.40600405340703527,-0.22990826973974446,-0.44117144458892527,-0.19569470571270753,-0.028416888153632067,0.8263562200415904,-0.19715714696980097,-0.2627198314059446,-0.6392604810377824,-0.3200054881865837,-0.5048538037903485,-0.04261096752855619,0.613749268258472,-0.23453863992844076,0.2539354095478798,1.0930002113403787,0.18818924934094802,-0.6609544833394665,-0.3690592992265741,-0.28997621974026117,-0.20755202286434649,-0.11510297919744529,-0.6459490692819121,0.009975182362785193,0.5390324977374071,-0.17026952393134726,0.47022640428127643,0.22922859408002721,-0.996469326438592,0.209505361142363,0.033298199157121094,0.4070691755058543,-0.2136956088711589,0.2560166795526268,],[0.4262328325345018,-0.22439121302497422,-0.1970571304879934,-0.24495558708424586,-0.029698835459675898,0.2392548908446855,-0.41068926105569686,0.7290382665426,-0.45776593074514543,-0.10473856195176312,-0.19122851227969254,-0.36114187310119217,-0.2756283808039928,0.23641793559823315,0.04010959215189203,-0.34418137240924096,-0.2579494779254621,-0.30033075322273567,-0.3438080049591137,0.2380521757242744,-0.14825465917649444,0.21684725402776558,-0.15454297684311333,-0.4141204717690113,-0.4303327558167805,-0.21146260886063395,-0.24995695980958557,-0.5134937406917786,0.5517967002665705,-0.3864495809545383,-0.5001773083918319,-0.15692359706679118,-0.3548897816693238,-0.6558308361287124,0.14614709405835632,-0.3558877011587329,0.21662853632553386,0.01585156748612361,-0.18942519397552177,0.19875776046664057,-0.5335928819284392,-0.14948537265406037,0.08481364999889905,-1.0685243098091026,0.4963309210657597,-0.5815967379567647,-0.0704347943746937,0.07233176470501719,-0.31303640080934575,-0.1913841074941755,-0.3732520746657378,-0.08164342893515554,0.006090270216491088,0.03366343596827985,-0.002627048482053519,-0.016438687492423085,-0.36648875256113495,-0.8080306406057077,-0.0805717947437271,-0.08157584138618813,-0.2956694411701177,-0.1998947681452186,],[-0.36529529911939995,0.0601152471038719,-0.14583022667561457,0.10274671081514436,0.29041339764327134,0.24066782786564725,-0.050713798386190945,-0.17498682022894307,-0.6720988322142939,-0.13123752325381513,0.15811176363212537,-0.33548965176050216,-0.17719560476713098,-0.6574196470098661,-0.057669330563578015,-0.9611505650685557,-0.127711593281098,0.052917418496992025,0.0011506730817153847,-0.22134356384718878,0.2541518745746386,-0.5921660371727976,-0.33842768925356603,-0.08717583026838191,-0.20712182020830675,-0.5287470124524123,0.7039000682957138,-0.2179381783670201,-0.4332557286773084,-0.10889214827471876,-0.43642519616873165,0.0368399321916505,-0.9128824066237827,-0.39436761730653735,-0.263745538769653,0.24398631293206996,-0.05358859641364378,-0.5488345371582043,-0.5514246796252568,0.6357060563686744,-0.19710552387329944,0.5107655991766067,-0.12097936568766811,0.22151158396842818,0.4423912560011121,0.029938342098911493,-0.5804400008710059,-0.07238683365198932,-0.36427839261813,0.3803978373692398,0.4049802770832616,-0.3782009056700322,-0.033731725499049015,-0.31608722217376145,-0.9774017282888279,-0.23104582179006034,-1.0086737990592356,0.5598960162911939,-0.439641969412173,0.021320814580244242,-0.11502088434927174,0.14806647512817722,],[0.14318389227302783,-1.0414253311756303,0.44860690779141443,-0.8117037172813895,-0.6056434008475043,0.14567693565291961,-0.5987412150647013,-0.5218119058744838,-0.28619129637423624,-0.15921870228537896,0.3596597652887154,-0.08298928168008056,-0.2429778338145355,0.1354470090017099,-0.4679030570767886,0.8014650573935583,-0.46028786016423834,-0.15339003708625187,-0.35114455455094373,0.16413107049977513,-0.08751330632733864,0.09689358585357893,0.00264215038091862,-0.021711174739717468,-0.1523602305511773,0.5239061541150596,-0.05313703656943973,0.6602809414610341,-0.29290320877591625,-0.3029316128983805,0.5892674433602023,0.1681580331573766,-0.19221728103925206,0.4289619614000221,-0.654153540734718,-0.10450296465543822,0.8747697287160815,-0.20614798387450872,0.5681955277427332,0.14580094971072094,0.21783192813667968,0.051959786806669635,0.5466149521004284,0.08559340500945309,0.22846104782292528,-0.20700486653518752,-0.17112481319446554,-0.395499569278058,-0.18774962414004714,0.06855934280677624,-0.208913135718741,0.4488963256892331,0.0031269041632521486,-1.3688002976151619,0.2684435331302424,-0.7907194488509096,-0.3898977282944338,-0.08371424505059404,-0.6570519318139858,-0.004838792015333335,-0.17339682106947438,-0.32640701288522395,],[-0.03772559477288022,-0.6088925457484703,-0.07976026205626834,-0.12092207268403188,-0.456943895859176,-0.21032208031051058,0.8853752335660623,0.035630829912108496,0.17179776753162382,-1.5862008636029385,0.14113820459866636,-0.12553512980431805,-0.36344152983266487,-0.3240922822179931,-0.10065407907482472,-0.20292903702492815,0.22168667579212872,0.21882047740412472,-0.49652074942741553,-0.6332506859778748,-0.21617202156801932,-1.5745949672636341,0.01976947678648821,-0.2729968031591741,0.11833812917859719,-0.6292324059208876,-0.22998331110249776,-0.7445716032507229,-0.16912779724151508,-0.13066840271803135,0.14863789270951677,-0.26836860512344,-0.2684848752999418,-0.3639833205770867,0.45196960393605967,0.4106529247773315,-0.14398838846098547,-0.1623220422287718,0.08931913547555484,0.038064885225614395,-0.3544109179862108,-0.4753281924859105,-0.15287766207319464,-0.27459829872019703,-0.42893902614289814,0.16402393651963004,-0.4703693669906974,-0.4435807326142445,0.10224158873609353,-0.6602943726220065,-0.06589592256750065,-0.9288537010074934,-0.09632879499485711,-0.48593386900543295,-0.33621081408259146,-0.4163957610704286,1.0305416720606435,-1.4345533575854192,-1.3324255288739866,0.31910897443826375,-0.7046386303248786,-0.5451917466370955,],[-0.4755630917718477,-0.5334558186890145,0.7322164826646411,-0.1106641991069484,-0.47962029225400993,-0.06385203926743446,-0.02818703329382608,-0.12056814191819597,0.857935386811528,-0.8707757570214939,0.8568350220008206,0.22288172992769711,0.2897091588880914,-0.21945642237142968,-0.0485130510494956,-0.42840786213219556,1.1743524869962547,0.011949265737326716,0.31168104950725944,0.7057684816077509,-0.2461871311100722,-1.1013942188442918,0.12202425724633309,0.6393998784185608,0.43431858161343523,-0.31194942333874104,0.8842557969686052,-1.0982532800810063,0.28580988106668004,-0.1231861919648312,-0.3318836611165348,0.30991210617722537,0.11452709007819116,-1.4324173120470942,0.9336447593546972,-0.42895850537499636,-0.6183215203051009,-0.09354745199265882,1.367486586339708,-0.40141130669170844,0.019519415992168256,-0.5156018452433071,-0.5801805230822739,-0.139794370569692,-0.5875088564945288,0.23960120073779267,-0.2028592206507608,-0.30778116901189717,0.21623112487320034,-0.36365234050650097,0.029590872402470703,1.1048976420855359,-0.3317172271537135,-1.3756596761804238,-0.18880125697241634,0.8250035947925135,-2.1339816987917333,-0.09315287517733173,-0.9510458049674225,-0.274557058655887,-1.5996862962669227,0.06699120978693428,],[-0.4377833006497932,-0.3308506627239807,-0.6519449110465916,-0.08693085847499228,-0.7291333843014173,-0.08110164530137863,0.18043907437990775,-0.14268276987044834,-0.23517317323445572,-0.4117009508134071,-0.730069324701662,0.3431802380630278,-0.3338663298308638,-0.442541554007287,0.1364390225446549,-0.12839964724237074,-0.642832393770698,-0.5527821277891538,-0.6212461485258539,0.2632043306756058,-0.19249685207642947,0.5279084634313851,0.31666121840553374,-0.1004156196437901,-0.12465818712413612,-0.5179236720966793,0.6330374408770414,-0.9583027556704867,-0.3318806026766118,-0.6312628372896683,-0.27086301256604006,0.8590665302308705,-0.4957643275307515,-0.110647623262115,0.6151359326474052,0.3108557240633252,-0.3106293142994693,0.13218489778120535,-0.5411841374290377,-0.3891046879398769,-1.3323777620622377,0.3066360163723777,0.43416514647886245,0.5797518127577985,-0.6994764303944457,-0.12403263702396541,-0.41727286097015737,-0.9237523120493086,-0.13119251379704455,-0.4523196247743117,0.630936854874228,-0.5841610626414155,-0.1817439754955058,-0.2912999950370916,0.1043137965131003,-0.4557608215434759,-0.08820435281839006,0.1977936752627082,-1.0693878240550345,-0.13942483948041356,-0.6517354102067346,-0.8332733022049765,],[0.010677831171058633,-0.37231362925082334,-0.3795091464692557,-0.5170167199209312,-0.23056761445881738,-0.4072477736024033,0.5536176892831884,-0.30775339598809326,-0.35495710448414947,0.22968875079051623,-0.3606197028432756,-0.2747371334100656,-0.020324567028876958,-0.15309246436863444,-0.010932500774823635,-0.6567323004768815,-0.6676623782080164,0.14557467890009304,-0.23888650029158756,-0.496939495313448,-0.6596253656073342,-0.4913083845195001,-0.3199157759320281,0.054538436213831254,0.14899408642701759,0.944002073936395,-0.6617826635388987,-0.22378484798854242,-0.20045722679820108,-0.5865860295257392,-0.3796951051655928,-0.4783551231339235,0.520339602575461,-0.5317516724849869,-0.6297426593585423,0.8879667938237195,-0.05521758162225359,-0.13753207390035216,-0.569671391404739,-0.6220577943028434,0.15134497247314144,-0.8613294281632171,-0.07035549345259687,0.11823267421830765,0.06699239594324502,-0.09085650801051876,-0.21027243242542365,-0.4411147478384586,-0.7521387258966006,-0.13162932013738132,0.2520355595343357,0.09901901611411032,-0.058932960888369426,0.1741512306685205,-0.46372827768499614,-0.13680677864804527,-0.31645891157192835,0.33402101651618005,-0.4966664337047646,-0.5087473659009675,-0.5010270237394,0.06789974828952605,],[-0.049207507607871896,-0.13930031525420528,-0.26670035214563037,-0.14336927791726142,0.5720354286156744,-0.16505734672513903,0.2861923046590051,-0.2846464009082168,0.3561078958041393,-0.40313145491456326,-0.12328184871680616,-0.13597271854854587,-0.8690107289772643,0.1352208480612873,-0.03526584541599643,-0.2722438361157978,-0.5219564124396147,0.22702847144993507,-0.01145846524215114,-0.4376043916319173,-0.3890250055548055,-0.35642636041659287,-0.20284748518565435,-0.1609273608442221,-0.25097176897312545,-0.15938700506735645,-0.2957682684011025,-0.6568837698229134,-0.06802211009752014,0.08447292070928986,-0.25708877261514107,-0.44439436974140933,-0.10743757628268508,-0.0746920509420046,-0.5498621013664771,0.844481652286241,0.028874722242098003,-0.31768599111014206,-0.4770954086498085,0.2580097098078852,-0.004104178774093436,-0.3321828600517702,-0.057847614487893884,-0.29399541532159285,-0.39584240361431766,-0.18893752312908346,-0.4184733040255129,0.08601143742494177,0.45929334247502207,0.6525875028486628,-0.770402975905821,-0.3220488740874834,-0.012726499825022587,0.06782829700068395,-0.19100345448355305,-0.2870872050297631,-0.8375295583374085,-0.4725037322669174,-0.4555539873159353,0.033374123821316756,-0.2822892267913226,-0.7122858199684295,],[-0.47073386401172,0.3816951534148268,-0.35890267592414044,-0.015938491589024495,-0.05164765035667367,-0.3770052701461448,-0.24371537711640964,-0.21846116809147031,-0.14540326854436086,-0.8571589195558709,-0.12785647003511638,-0.1988782877769633,0.20917245684932134,-0.10878715531822458,0.1689770861235277,-0.42250033793432307,-1.387206565551272,-0.6127744568859249,-0.7970010307915961,-0.104018976585575,-0.552630899786023,0.376103938257912,-0.3404152093462372,-0.7074220889910456,-0.43650247451186225,-0.32677056757333484,-0.05739858282825944,-0.6832127076863018,-0.19921032936594618,-0.2668732981592964,0.033804460574745905,-0.40652593968946854,0.502468478778823,-0.18167375892486637,0.5713595385341406,0.26959563066766706,0.12431665913979512,0.5151130855856343,-0.14081646836658981,-0.35404120721677484,-0.947076534502304,0.016277444618424144,-0.6438598359881463,0.005837793692315665,-0.9799373810712412,-0.044441377852835785,-0.14958243164591803,-0.3032098101422468,-0.6702769273429364,-0.3815473486345266,-0.7035437006865188,-0.6711009531068688,0.21168706442372315,-0.39586636547769916,0.2622192359913375,0.1996447203263473,0.4824965180311226,-0.3112276632965568,-0.739134182165795,0.19960069171541536,-0.5644859129988569,0.0024333305102727004,],[0.10181582654888223,-0.3877176676802302,0.28590918298650625,0.6809271258527787,0.2929487859061876,-0.3361961260830673,-0.7759070457057953,-0.5006179998853459,-0.3934230845060715,0.03858744707611115,0.06676770761445275,-0.2010656335556989,0.10705273943699527,-0.1862169924982107,0.18851566803661474,0.1497858259924426,0.1590778058842151,0.33599729753625923,-0.07303099410710497,-0.4574926227821429,-0.6641771850083417,0.280622256263935,-0.3422660904877062,-0.0833337284612401,-0.4647438209582639,-0.42106636688484783,-0.15214056242604435,-0.2518478097934816,-0.327999025758997,-0.8053313488150813,-0.6596858223163599,0.44677733905537687,0.18831698135139308,-0.07373241891987,-0.19357855557465908,0.011137494441625786,-0.1785298303146556,-0.335988792515218,-0.16057311594228013,-1.2275956833740178,0.06156772219223169,0.1950058206835682,-0.12181186829246804,-0.03089697620079836,0.5278589191894278,0.09320127467740155,-0.9549179176426238,0.24295200851914298,0.14358536354389786,0.3164405157749504,0.2150498304677806,-0.29930740228597685,-0.04860874155667925,0.6595879095378281,0.16217674901653137,-0.22823916383405843,-0.843741088980759,-0.13331877627916705,-0.32478416114834074,-0.11512305388347334,0.09505718008922646,0.26112057962545415,],[0.07146863949589932,-0.6314403483668519,0.45826333424355015,-0.6949456765034695,0.12102572393218868,0.061612752330428185,-0.05514548133849452,0.007004144267326499,0.2774562743803565,0.17185977026110044,0.8039218521762671,-0.13964088673700772,0.25588580074833595,0.1551122366709945,-0.344067484839976,0.48826649669060895,-0.8337371234871875,-0.3493987745307491,-0.1383110383595567,-0.11022922147359648,-0.43192151213728464,-0.7528527317657346,-0.2219014441393287,-0.2680468854131746,0.28232356972379613,-0.5393550215246276,-0.33693963371374785,0.49474603543221973,-0.44741558788735136,-0.6154396491813142,-0.22736851837812047,0.030318430351866845,0.10944652650999995,-0.06887662754575812,-0.8315272340712709,-0.7035827780428789,0.29064564077437843,-0.4030612649247047,-0.20170583544671536,0.2130669624679927,-0.17166922730424258,0.010861416670480397,-0.2537144140147905,0.46974917698538876,-0.5540995226625129,0.17195425502125428,-0.17027245923633086,-0.24006503768739007,-0.06200030602701269,-0.22807060782013153,0.40099459052902897,0.15026112938874273,-0.042042706379052316,-0.33999154863047093,-0.32184076164782255,0.1781712738298858,0.07929688454806935,-0.6042108097342896,0.1518120621129587,-0.28244389092432426,-0.021369304846128756,-0.4967401913183865,],[0.22040876708321894,-0.46905573521839194,-0.27735993483382904,0.29988768861780585,0.5505383211794366,-0.0060092963492548975,-0.2924412514448459,0.08961057961008069,-0.12797440925231068,-0.656370854587706,-0.511751261656493,-0.4864527530135573,-0.3166752354031189,-0.31526139814618936,-0.24173454249085893,-0.5601806669261542,-0.3282563299583209,-0.33998405826888156,-0.22434665890847907,0.4222325011091931,0.17094582581081832,-0.6009361116334739,-0.24802828823528353,0.09738865358218834,0.2832102546312542,-0.305356938585848,-0.3412313279219435,-0.1701775170259012,-0.19040365564054773,-0.3594949516429032,-0.8082789710976888,-0.1675510682766858,-0.19691438835092176,-0.1894155976959622,-0.6068577036986434,-0.4294278739270527,0.19297441659779727,0.09925417100823264,0.006126458270091807,-0.132860733783249,-0.4994158157214994,-0.14797751582315946,0.09821812277439387,-0.1690692891168271,-0.15209547429899686,0.7710270480868908,-0.05077881162059715,-0.4691498037361947,0.1756887393073207,-0.2198764216308414,0.3517577836417397,-0.1158992898652242,-0.2733471387305876,-0.23337060825261854,-0.16913714574364247,-0.06737810147408581,-0.9239224562721414,0.11684335995099243,-0.19168649560441486,-0.15913945035392132,-0.3451753096594107,-0.43941413412438085,],[-0.287861457867676,-0.31294591801889887,-0.7325130320606063,0.11668644240514103,-0.30515087595049095,-0.2250040997948788,0.6570556211154842,0.2645380866176685,0.17776459542821066,-0.5243940574998632,-0.4495246211926746,-0.04911400985076692,-0.48699778294278595,-0.6773680666513471,-0.08855357523259098,0.0046255000250557555,-0.43464756612678096,-0.40948852251151074,0.5007932529136584,-0.7756409793994496,0.3674096505326058,0.6607063635146503,-0.42650376411717067,0.3442995345747154,-0.28518242888066975,0.48158264383460236,-0.046506354214235324,-0.2147965709704728,-0.16656969055843146,-0.06799936779997182,-0.7340737050415584,-0.17580093105192315,-0.9331337347570102,-0.6282144377006341,0.2683756810519186,-0.43536819214906547,-0.3575376893336628,-0.0898405759407114,-0.1373119238598123,-0.4020095580896551,-0.09102390820690713,0.1485594148194593,0.0966466886884761,-0.05329895041953382,-0.3944431478452354,-0.2872726445407588,-0.0640896387461337,-0.16853897326156184,0.493402584903051,-0.4054741410996238,-0.6055322272894429,-0.5595184718182555,0.09904823783786472,-0.8678642609539307,-0.23097564478076443,-0.19367486887082108,0.11519137806731407,0.22838875669764228,-0.6008712467114402,-0.4459108045400546,-0.023619835003166244,-0.21251895648065766,],[-0.2904374594041414,-0.5847980926304502,-0.2619481518238314,-0.04507592436346532,0.022498510151481008,-1.033791652746739,-0.15365389022727427,-0.46166146984949336,0.22196412263383863,-1.2342184440285644,-0.5613677236284997,-0.2675288133653744,0.08273003920533128,-0.3774137847050954,-0.12993975310689357,-0.7367420554913974,-0.40483359190772894,-0.15690136642544156,-0.0018016720395293362,0.2633978318741764,-0.17969591561558274,-1.2308242109206213,-0.4106112542152865,0.277099715808975,-0.41308177341563856,-0.39559159178248227,0.3397755913999523,-0.9015457968649948,-0.08517428465443372,-0.14504259665075123,-0.3491785585951385,0.2164741682373115,-0.6768746894831185,0.028981301982830224,-0.5529408430996409,-0.6639785941567559,1.131538557759771,0.1075738223823349,-0.21933544011249062,-0.559094758997107,0.32243354323304657,-0.39874770392508396,-0.6023578989387489,-0.43697290512773906,-0.7827709281706914,-0.2670155605414846,-0.15331373898335035,-0.17831646345391292,-0.2953484139113119,-1.0762869001348587,0.552140639285259,-0.12443340540140331,-0.23970950152421192,0.2895432607588011,-0.8342297443311119,0.03657648725736027,0.6686897435847374,-1.7188938844586443,0.39372843531534923,-0.48851850160766963,0.5585371810571038,-0.3542940677394853,],[0.3223877704418966,-0.17046703312073763,-0.26059274040863023,-0.11097399647623199,-0.048397031351072727,-0.685482278133153,-0.36433868295200955,0.6329812814376147,-0.06366925266666243,-0.708070362425287,-0.18232843666922527,-0.36186413817539403,0.02168630385605715,-0.4774144493144605,-0.046925876058667916,-0.07149657121333815,-0.6285282783370314,-0.38929781580644157,-0.4632741782007864,-0.265239142917338,0.33860848418243483,-0.5187061928412443,-0.09487134934527877,-0.15909528865554248,-0.6842054036886983,0.24083601275684072,-0.07839272955037477,0.20782793774280026,0.21855867477548493,-0.37025031771850525,-0.40479870105834953,-0.8299260801247437,0.002610863808848033,-0.1199908447495041,-0.6881354019533419,-0.2810358930615455,-0.2776120529969544,0.13380184435823855,-0.33195101847044217,0.03679224793612409,0.12234513166988938,-0.26718112676590233,-0.03848585361161552,-0.13001903251227326,-0.2453875372089265,-0.03610555615265661,-0.8367929372325542,0.31910034093438594,-0.12474334777881249,0.2959503692328923,-0.5137277399307879,-1.1375108941250796,-0.05825674353973666,0.580271212977452,0.6499721100119865,-0.17192694226671618,0.022685168992117817,-0.2567168993826412,-0.938921808658403,0.47345113200460076,0.2032686674373649,-0.4395785695645556,],[0.019404957947995648,-0.38010105082315226,-0.22246167823153726,-0.20252282992237639,0.17328099490033316,-0.2628980182014608,-0.24546068817214664,-0.05706166515248531,-0.31077236637572425,0.9020030170456365,-0.14375806173868375,-0.49658481552989675,0.3152369761722386,0.12060798150437149,-0.18654133828013525,0.19897261811768685,-0.06229932254794118,-0.15669536385207336,-0.3515013751604328,-0.37222185354984993,1.1240186669218606,-0.5564172837380753,0.08083674264786941,-0.28778431717548086,0.5164263421668664,-0.5140737549702369,-0.7444718036566713,-0.32459927289479207,0.04708820381980421,-0.033210809920833785,0.18702376641939014,-0.22308439389654425,0.32617411242003375,-0.19903615315483195,-0.17697691573483512,-0.18334845883980552,0.028035158243406282,-0.13122948277973667,-0.030104275626414823,-0.4158464591725771,0.10867100363517368,0.059241922942366874,-0.05170784624417185,0.17016543620992516,-0.31971301391998214,-0.4063524170284905,-0.23567321706173475,-0.39685507883524207,-0.15832732622639295,-0.11254324162322529,-0.10020555233634641,0.20294781672266704,-0.1099548512851223,-0.6391197707674906,-0.6694124327501629,-0.3397658432834282,-0.4036736610567576,0.38638928865660976,-0.8203615470344966,-0.4768420458570518,-0.21373843031509374,-0.6840904693148964,],[-0.006263030946402422,-0.41281273782045674,0.1987934584013205,-0.10260585197701753,0.5118661178441162,-0.12450464434574987,-0.7835676270498683,-0.12110934732649924,-0.25724946868558785,-0.22625553500330267,-0.2694326920826156,-0.613846497709666,-0.6774165940994777,-0.3124178092400902,-0.0473773739712739,-0.6485954070815358,-0.360643622566602,0.0919754903486778,-0.5605165092594063,0.5202301943343552,-0.7427536322047816,0.006530898655792838,-0.5176474333619798,0.38650086926525884,-0.19133298320223338,-0.5441754322735732,0.5563065627367102,-0.5795903512938778,-0.360520993243916,-0.9503092196518966,-0.06844687496494832,0.017331205421222476,0.18175898715082028,-0.4039846382227983,-0.3809270545792516,-0.583703601300583,-0.6000971261442595,0.14941409327839597,-0.15482936218857662,0.004687067730974123,0.38184869306503416,-0.4603252440491102,0.02150329193969418,-0.12200488480974375,-0.5128222771463808,-0.21985154625159575,-0.14245776012527436,-0.3130791372642027,-0.5523491818968762,-0.439303631926689,0.13996007939830618,0.2583082146939534,0.34245821409454985,-1.0504997896172144,-0.2506642407515029,-0.5568583097967188,-0.5300060011837033,0.46328447696551067,0.9654872018682311,-0.2965205222909899,0.2281017540975326,-0.16716712369851264,],[-0.1747724297712227,-0.3218664006009015,-0.2005632696199366,0.12955060351842787,-0.4081299862121409,0.25171006750046293,-0.2817165727096492,-0.24990884058936103,0.4531934126849106,0.10957490202165797,-0.4636461965986079,-0.32873946717487695,-0.1657682334496023,-0.0966150389686674,-0.2618076071557805,-0.14313707293963993,-0.787076716071337,-0.9065479224333359,-0.3787647490646171,-0.24310705937296617,-0.17897808619996228,0.44113537359308347,-0.05514479994929021,-0.4684995257723435,-0.32167799165245703,-0.25632049140301266,-0.2338677137647063,0.1837973951848264,0.1238235926238992,-0.1931732502385518,-0.8344222931236419,0.43313884013312437,-0.44344504328001694,-0.6014193786846701,0.4491970020539527,0.2563660975736043,-0.33833283447282075,-0.30954812684924266,-0.34622328007455216,-0.4335785457925274,-0.6142776897636135,-0.17263526288628392,-0.3147467116208134,-0.20879185398589373,0.017669288951674796,0.2190172481402131,0.29703652389147206,0.04159028540559951,-0.24204073595335604,-0.7104276987865067,-0.3833321604662854,0.3414118954112705,-0.21100854017380388,-0.591993566031969,0.12322749951913278,0.14950459201699884,-0.7321410653248008,-0.23471268475630688,0.1985289236043376,-0.09288752322270451,-0.5302286533108972,-0.054315612221715485,],[-0.006478512075401208,-0.23749130415796096,-0.9142587796795651,-0.23277228602665317,-0.5790156088855016,0.1265411690043244,0.0668047430837743,-0.4680970833864058,-0.5063559826357841,-0.8178351124549275,-0.5654027955007446,-0.40621031370554306,0.48299002236511507,0.02042417881107983,-0.030121470235855128,-0.5147681846471863,0.6664900733012737,-0.1719693985751318,-0.6591986233540805,-0.32614095034824975,0.25166546824347025,-0.3501929266765396,-0.10629240577842479,-0.598423495664172,0.520650253486966,-0.05816486029100077,-0.3778300809242873,-0.7201110956534733,-0.0007244125673403832,0.24013024872585254,-0.3324373005176264,-0.1457607662957901,-0.2601729177600896,-0.40162328565838,-0.9938413990800551,0.2074269293636657,-0.3939043153526414,-0.3087460028466896,-0.6669138169883576,-0.12005362436524489,-0.07027136522296479,-0.4113065059913218,-0.0014212441208327467,-0.29566783909957556,-0.33959304774312826,-0.541568113496849,-0.19988369011078772,0.0686948373599176,0.061613240991405235,0.9527990996417677,-0.21042169876413158,-0.35931551839203973,-0.032410903653163466,-0.5463565250172958,-0.43039564211381953,-0.04378503968756128,0.19163046863877983,-0.7369981450241874,-0.476378313435101,0.38334152729604876,-0.17226617240411055,0.6741610114453334,],[-0.991173561630842,-0.1650198409810966,-0.20732458930146638,0.0236311018664707,-0.12471973644111141,0.0469646385558508,-0.23020285362436577,-0.39276381658878745,0.34312173187921713,0.20314389929975588,-0.344143857324425,-0.22218937579181064,-0.22110389378622447,0.07415951154825685,-0.06146160195158057,-0.29003293944091957,0.1242432571376424,-0.150901651553741,0.19956774943531602,-0.3834550484621259,-0.14713178642790978,-0.5763412450468129,-0.27029876152230026,-0.439185846947732,0.10370291105494343,-0.4100238480366777,-0.23588491952420823,0.21528908330871252,0.1608206185689279,-0.13969192896923252,-0.3063216856747853,0.9044623268658483,-0.3188813929733037,-0.24601972946235542,-0.14456365800100562,-0.3994193138095371,-0.1530350905491246,-0.6149467573029641,-0.27762284193503184,-0.4575939995458875,-0.29834740943729154,-0.3663886228541587,-0.0382367272522599,-0.21410288634166702,-0.17843469007680263,-0.0894659936824678,-0.014452538092255102,-0.18877880169110442,-0.21512145655840298,-0.36520217158192503,-0.34027785581550857,0.4387044663237107,-0.2755074142331221,-0.4789073214391045,-1.0113412825729173,0.051576940384830745,0.07185272079090146,-0.18616717162963642,-0.22465522383591172,-0.20369501113718708,0.033890968474500266,0.3488246501940673,],[-0.560363500316499,-0.12592811368119175,-0.2554223485201744,-0.14163844642788234,-0.3725011464061223,0.41076625070857353,-0.29287798510126056,0.1862427801030157,0.049208696666744954,-0.28057073205572813,0.030379348566877046,0.372157338397511,-0.028884288581461796,-0.16064708504658207,-0.019207651451446803,-0.08838201867859113,-0.2933369536500205,-0.3852288379620796,-0.21502663070357877,-0.2771267981535814,-0.5272295280084146,-0.17707642861534928,-0.02568572012648781,-0.4465035818355962,-0.5791369494288938,-0.3008162237389895,-0.1791314407622033,-0.3487785439671529,0.8535401432876569,0.1419245584368467,-0.09243251239226338,-0.898703920263636,-0.3173540430656174,-0.19993118026221357,-0.3851095223331784,-0.3325886960394647,-0.25967873072091463,-0.6803330604183732,-0.3646699019445533,-0.6202884537242904,-0.22921655768399934,-0.14839520052591498,-0.06417864070905117,-0.15286152401202596,-0.15574612504278848,-0.7710591884693688,-0.5911433727388338,-0.1226116217002204,-0.23407764238375187,-0.11089154614116316,-0.5318011396341709,-0.0394445218497323,-0.24568632741568888,1.2381044774967056,-0.727140542693699,0.15767019783355193,-0.047055483449239315,-0.17254474985878934,-0.6100876890036383,0.006678313691918173,-0.3490459776499994,0.14345404561515618,],[-0.07205671574846058,-0.4286455857845159,-0.3087949286457074,0.009558449590025272,0.04927430179201491,-0.32384464823361303,0.5056442328183638,-0.2735401511917924,-0.20611527070342595,-0.26584939135287294,-0.35356975557624726,-0.2041914911142206,0.7549657247732366,0.3256461821983837,0.009817265408823515,-0.14008535949653278,-0.36428064754308653,0.09560871350431231,0.17195359456940001,0.5058932715529497,-0.4570684991500815,-0.3915410310613573,0.0016511886329347498,-0.6554075127912744,-0.04911613382474418,0.5395462536276336,-0.63457014508667,-0.03162970691902267,-0.2078348527365492,-0.4499811631780498,-0.25774627474694645,0.3657081481105026,-0.06641575448918312,0.007344844224708558,0.1988724914070266,-0.2120566138286882,-0.00904456122340322,0.2550856483731078,-0.4167558616092149,0.5389623438191511,-0.19447681442686063,0.7525641828665827,-0.04566164900885997,-0.900119976283592,-0.8626088699154977,-0.5382317763954174,-0.8432008539103515,0.006458121881817125,-0.4186810194575882,-0.327892363685148,0.08331517728010637,-0.1517261616983525,-0.02797690707885894,0.271826896889665,-0.44896597713488007,-0.14557464281646967,-0.9517525287253084,-0.4834648852238696,-0.5117387401115694,-0.34021228548330296,-0.41033363578209747,0.0742540069909741,],[-0.2962780276014877,-0.8161970976026329,-0.12166679900129324,-0.005248227661977925,-0.3734751944103762,0.07089270460395737,-0.7978806928593764,0.48476494528410935,-0.5977254616680281,-0.5347979611934457,0.48114436138639494,-0.23636539723310487,0.12456072575567174,-0.11288735566101668,-0.09888849245150902,-0.07530135268203209,-0.5989667669947198,-0.47336802755749824,0.19767115396190754,-0.22843387064692028,0.17265404934555845,-0.2796236182017824,-0.3751381696757163,0.013190473849188332,-0.4257768413127558,-0.5499032762154692,-0.253542875973189,-0.2931274362351526,-0.3360599256956515,0.024973883827151724,0.22972335148437753,-0.5517391901247375,0.4877379844430234,0.519948706937906,-0.5399294660681417,0.22768496022573967,-0.11063075683326545,-0.2108549465835874,-0.28701937500936003,0.056628903574644854,0.17830880979787272,-0.3565023763793886,0.002262584702330619,-0.4140016316321271,-0.3510553482429086,-0.4049775728655807,-0.18618036148380968,-0.1524835704613176,0.07681312604975485,-0.5695523446502553,0.5384442455459351,-0.29428325512356274,-0.3716431730721653,-1.1263400192959727,0.3606849183297748,-0.38985535774157515,-0.5664272011114567,0.4434028976127889,0.4095892095236356,-0.0053795757227580315,-0.013512121650405069,-0.10137850813131112,],[-0.14971298668808689,-0.16500462809080016,-0.18056186223479728,-0.19200950104445355,-0.034912698108364976,0.009331312786732006,-0.3457836889734587,-0.395840746906776,-0.36880888136899553,-0.6902533204788881,-0.24348226101824436,-0.1881116739925863,-0.08880744189159484,-0.004472515661214517,-0.022281936100442688,-0.1636818832536337,0.34768687662201214,-0.3853446782130148,-0.04487056863918777,-0.26984327901171806,0.2917308623003576,0.05212630289054762,-0.09358240960764828,-0.19248310650565048,1.7580096026397014,0.8566588343563005,-0.09813324773897085,0.06553395785426726,-0.3802838150551468,0.06560847916244164,-0.050107911647555056,0.1881153327673635,-0.16048965069235357,-0.22857904377490304,-0.1862471846760311,-0.04929608455377212,0.40431008582920186,-0.18239039876049837,-0.2768931710285625,-0.35130318970673163,-0.15225543434322816,-0.25694180840673997,-0.05158856857961246,-0.18896064568347337,-0.24063649982644436,-0.03694301520531113,-0.543822704215933,-0.304802040947067,-0.31841328050202744,0.01644038530665541,-0.4913656316524862,-0.22227002181864403,-0.11138977259525705,0.40410193771491665,0.04215136141859474,-0.014198947676716584,-0.8930892140357207,-0.30550632610786654,-0.2011125759632625,-0.08316082714494633,-0.323052127442135,-0.8257742608535728,],[-0.03313144258285349,-0.13495560035174073,-0.11199697155916129,-0.17716536404127914,-0.08238382404841632,-0.1896723282151361,-0.21636226904018677,-0.18802354652579373,-0.05290775343974187,-0.20646675764229905,-0.18047520568984385,-0.15072462698572955,-0.02901221018730498,-0.11474232068194745,-0.037288981797760995,-0.07983266033243558,-0.2575804797939389,0.005000891189827206,-0.25360486161693924,-0.25606769488702374,-0.11009567479496836,-0.31305765305398764,-0.04011590840491529,-0.19872363059645004,-0.020757949784675205,-0.04640821539010777,-0.12155487824401309,0.2793550295786237,-0.22858458891503236,-0.08842420273146855,-0.07622819804798356,0.1934281151660593,-0.10523734048882999,-0.14765184868885778,-0.24884616732610168,-0.04596091541041474,-0.1447696158657027,-0.2974837644359272,-0.3138793716679492,-0.21284279159766734,-0.22706651512131773,-0.16038058287543092,-0.0360311100990469,-0.11409963369254925,-0.1331846712412201,0.12249134984944612,-0.023579045870063032,-0.08804916319228387,-0.17330236655557832,-0.1647110761869522,-0.35549750116087064,-0.2833737428751623,-0.05362888263559419,-0.1568288973970855,-0.05721364280610613,-0.11557798979650005,-0.5281249822391401,-0.21671019524669888,-0.19515076483998633,0.03324079901752903,-0.3421036039369958,-0.09414664924632214,],[-0.07973976881307945,-0.7138376093514341,-0.4593012489256089,-0.07785245576720207,-0.057839752578033185,-0.17892768172807683,-0.45292772075185667,0.06284242420845655,-0.2737345798482712,1.4280251524247745,-0.16903902501517204,0.1341015570358086,-0.09508630889081116,-0.027783375428996237,0.08363731734762872,-0.09901310756902419,0.4386913043005566,-0.007691876556099589,-0.3367575963008447,-0.26041897189793617,0.11797416432151638,0.021466062734230417,0.5982531507431681,-0.3017263919522847,0.07221951034253002,-0.05290178334856201,0.16110265948112276,-0.4962984759256183,0.09582167803114609,-0.42520461291811,-0.21814751388035045,-0.2899639447724968,-0.2825839440823315,0.0003360380747602271,-0.3114853134400527,-0.3856696177769355,-0.20004381477709957,-0.3521467639624384,-0.10226612390463417,-0.5646347044067374,0.16288295114743845,-0.3916509183907662,-0.02066133182850564,-0.08877440001450733,-0.3406046803533441,-0.26508742036425714,0.34275740822244105,-0.9183320846974322,-0.02725810543051435,-0.26835970162090766,-0.02755402421363301,-0.49561581379438663,-0.1355194835570561,-0.23453877315264565,-0.15004263623902112,-0.453644243426496,-0.8293252590012249,-0.36539822698453633,-0.49616281225520925,0.46361443233209026,0.17268977650613485,-0.2398551360690131,],[-0.16487826121307375,-0.1528007495497086,-0.1791464759376438,-0.10580739216258919,0.0008595444747326736,-0.46120022145005884,-0.24425980842711284,-0.42508187593313346,0.5504243109579187,-0.03901984192721898,-0.3551779049684926,-0.31621255814718197,-0.02333076335838367,-0.16841731810249316,0.29435661780142625,-0.12669291340132502,-0.4814796615580226,1.2338846375701138,-0.5100814480195759,0.015198521208424173,0.19727617090009372,-0.9309192953518993,0.24598294614668045,-0.26655902663348174,-0.5618925846046726,-0.2187723541743442,-0.12421816728637103,0.5159678512754095,-0.3541813316123132,-0.16493238296223084,-1.2093550005117168,-0.19557886843943784,-0.016443446095194582,0.13370855951333016,0.14481976742188932,0.07308391376845297,-0.27542046058500363,-0.805987335169126,-0.07552403593843729,-0.5092616757189139,0.9552294764995176,-0.30152995976061225,0.05013748823968694,-0.049085885060171724,-0.28127495711196626,0.4968516756488994,0.2292730529399688,0.10719346444289451,-0.402509984307891,0.4716277055094503,-0.23232704019325162,-0.1989224026224844,0.8646745247149813,-0.9930088815776098,0.15892899444910127,-0.06925549168980023,-0.5537567326161514,-0.13424019347342175,0.28685077716461904,-0.037640026851599326,-0.049669063146224296,-0.43002606945899624,],[-0.3739845502522198,-0.5951890208748174,0.2154012822025794,-0.45406846216411045,-0.5630057999195605,-0.3975951544952208,-0.42061033683252186,-0.31604302043695504,-0.2976252462132031,0.1873978363004266,0.11004846749807036,-0.16056271618068513,0.10477643828798329,0.13798063523108678,-0.031171095423319268,-1.113790889912776,1.1120116218561458,-0.7041067186322437,-0.39571878630569957,-0.6148931690951258,-0.33424017541426343,-1.3567919803825075,-0.2659092497020797,0.683109904597583,-0.7016161246722679,-0.3644041719369794,-0.010710917581204732,0.3463728544369446,-0.24410440905200023,-0.0609612252786248,-0.6076141365340365,-0.413702560657843,0.09246283965428108,-1.1041143488418068,-0.9901563061140226,-0.061591152303413686,-0.19221098055639885,-0.17991620053522622,0.2509264771984235,0.2311187170985417,0.09135228017261444,0.3414860418691924,-0.04234852964609377,0.017773483556035405,-0.4143133906681838,-0.9637620786769513,-0.5995809428201391,-0.41767074949604344,0.11322751549384263,-0.501556522435565,-0.6316601458340227,-0.19078203571422153,-0.0647526326975748,0.033945810123886484,-0.870516020356161,-0.7112727087820948,0.42602879036521724,-0.5449321814348898,-0.7290739965248217,-0.4236519163196459,-0.0003205338350652174,-1.1912365934371902,],[-0.3219469564649925,-0.15675915295884965,0.35099637565303454,-0.1012621225487606,-0.6515833886076865,-0.14485137763662884,0.38237424676178294,-0.13401076869599243,0.1506905921155009,-0.036631242427689094,0.029112673467304593,-0.06482184777141985,-0.1428973365638564,0.24445631679464808,0.004258195199888304,-0.05412878988478077,-0.3898336112080397,-0.40542287994064435,-0.0007655714563946301,0.6156613269752333,-0.33231268560457367,-0.31339582695297535,-0.022050743087590634,0.09462345706112746,0.3544350627252679,-0.3991441291794127,-0.3641830137755259,-0.5748221462659958,-0.37972360460102644,-0.5714642699256807,0.09019222976507794,0.2569794019805994,0.8204748350839285,0.3373913186201386,-0.3263054963470756,-0.8465729959771753,0.26418378882783133,-0.3694614976805052,-0.09881030150454392,0.0972941074992828,-0.14077896224331218,-0.39979196606462963,0.5183734755932838,-0.4278053030287518,0.1681572475064663,-0.22150479522533023,-0.11011578977241125,-0.22735051272196063,-0.6069557888072667,-0.5541404495404763,-0.16341412455546217,-0.5120012539743168,-0.2715586171170996,-1.1016055268082352,-0.25010146899717733,0.03931489321378973,-0.664156639917046,0.49984329310338627,0.17786784310937592,-0.06040592079674418,0.07070038859325886,-0.20151396892603152,],[0.05199520456958502,1.0490343023310713,0.18387265701364489,-0.5763548482909406,-0.004256499146895454,-0.629511484525406,-0.7583500887990224,-0.3417109794777279,0.186434169588514,-0.14747521177650244,0.20583196773108592,0.1791650885548822,-0.5538838800872031,0.07630795483274075,-0.09317622619418876,-0.9068591665993483,-0.6983037223707185,-0.432877557417239,-0.2466070377930312,-0.01983280192185888,0.02317887622444121,0.21777275295850562,-0.07995162750554541,-0.379691493328065,-0.6062602762956734,-0.44436368929165254,0.014999175078751616,-0.3726677645707072,-0.06147497795607985,-0.30069102734003705,-0.23328560373068558,0.14325918535458523,-0.20834367511886293,-0.5611511001864539,-0.02261035973704976,-0.3939085207817157,-0.34317477765583615,-0.0028278878719722508,0.1772762754249852,-0.6653238931960594,-0.243654543433764,-0.25524015219520024,-0.8129455407602515,-0.6167638598767711,-0.5520909255722658,0.04633436280418936,-0.5766850291455092,-0.03593912208217951,0.13209579006545308,-0.7329295199663178,0.3554652891574907,-1.6047426873894957,-0.3568200306521218,-0.5040349509380224,-0.34219546036315535,-1.314799133183357,